{"learner":{"attributes":{"best_iteration":"33","best_score":"3.2719405063564837"},"feature_names":["injury_pts_lost","injury_min_lost","num_players_out","injury_impact_score","elo","r_avg_3","h_avg_3","ra_avg_3","ha_avg_3","e_avg_3","ea_avg_3","r_avg_5","h_avg_5","ra_avg_5","ha_avg_5","e_avg_5","ea_avg_5","r_avg_10","h_avg_10","ra_avg_10","ha_avg_10","e_avg_10","ea_avg_10","run_diff_avg_3","hit_diff_avg_3","run_diff_avg_5","hit_diff_avg_5","run_diff_avg_10","hit_diff_avg_10","r_trend","h_trend","ra_trend","ha_trend","e_trend","ea_trend","run_diff_trend","r_std_5","h_std_5","ra_std_5","run_diff_std_5","win_pct_3","win_pct_5","win_pct_10","season_win_pct","win_streak","rest_days","is_back_to_back","well_rested","is_home","r_cv_5","h_cv_5","sp_era_l5","sp_whip_l5","sp_k9_l5","sp_bb9_l5","sp_ip_avg_l5","sp_days_rest","sp_starts_l30d","r_diff_3","h_diff_3","ra_diff_3","ha_diff_3","e_diff_3","ea_diff_3","win_pct_diff_3","run_diff_diff_3","def_matchup_3","r_diff_5","h_diff_5","ra_diff_5","ha_diff_5","e_diff_5","ea_diff_5","win_pct_diff_5","run_diff_diff_5","def_matchup_5","r_diff_10","h_diff_10","ra_diff_10","ha_diff_10","e_diff_10","ea_diff_10","win_pct_diff_10","run_diff_diff_10","def_matchup_10","opp_elo","elo_diff","opp_sp_era_l5","sp_era_diff","opp_sp_whip_l5","sp_whip_diff","opp_sp_k9_l5","sp_k9_diff","opp_sp_bb9_l5","sp_bb9_diff","opp_sp_ip_avg_l5","sp_ip_diff","opp_sp_days_rest","opp_sp_starts_l30d","opp_win_pct_5","opp_r_avg_5","opp_run_diff_avg_5","home_strength","rest_advantage","home_rest_interaction","elo_home_interaction","momentum","scoring_momentum","net_momentum","opp_injury_pts_lost","opp_injury_min_lost","opp_num_players_out","opp_injury_impact_score","injury_pts_diff","health_advantage"],"feature_types":["int","int","int","int","float","float","float","float","float","float","float","float","float","float","float","float","float","float","float","float","float","float","float","float","float","float","float","float","float","float","float","float","float","float","float","float","float","float","float","float","float","float","float","float","int","float","int","int","int","float","float","float","float","float","float","float","float","float","float","float","float","float","float","float","float","float","float","float","float","float","float","float","float","float","float","float","float","float","float","float","float","float","float","float","float","float","float","float","float","float","float","float","float","float","float","float","float","float","float","float","float","float","float","float","int","float","float","float","float","float","float","float","float","float","float"],"gradient_booster":{"model":{"cats":{"enc":[],"feature_segments":[],"sorted_idx":[]},"gbtree_model_param":{"num_parallel_tree":"1","num_trees":"94"},"iteration_indptr":[0,1,2,3,4,5,6,7,8,9,10,11,12,13,14,15,16,17,18,19,20,21,22,23,24,25,26,27,28,29,30,31,32,33,34,35,36,37,38,39,40,41,42,43,44,45,46,47,48,49,50,51,52,53,54,55,56,57,58,59,60,61,62,63,64,65,66,67,68,69,70,71,72,73,74,75,76,77,78,79,80,81,82,83,84,85,86,87,88,89,90,91,92,93,94],"tree_info":[0,0,0,0,0,0,0,0,0,0,0,0,0,0,0,0,0,0,0,0,0,0,0,0,0,0,0,0,0,0,0,0,0,0,0,0,0,0,0,0,0,0,0,0,0,0,0,0,0,0,0,0,0,0,0,0,0,0,0,0,0,0,0,0,0,0,0,0,0,0,0,0,0,0,0,0,0,0,0,0,0,0,0,0,0,0,0,0,0,0,0,0,0,0],"trees":[{"base_weights":[1.0214319E-2,-2.8189716E-1,3.0300662E-1,-5.5483574E-1,-1.1629094E-1,1.3422005E-1,6.3261503E-1,-5.922821E-1,3.0905766E-2,-2.6175648E-1,3.337532E-1,1.080865E-1,4.827133E-2,5.024073E-1,1.1253846E0,-1.5989637E-2,8.724574E-3,1.4504582E-2,-8.083823E-3,-1.6962752E-3,1.9604048E-2,2.3653477E-2,1.7857704E-3,1.7479872E-2,3.9640456E-3,3.5319008E-2,-4.360514E-3],"categories":[],"categories_nodes":[],"categories_segments":[],"categories_sizes":[],"default_left":[0,0,0,0,0,0,0,0,0,0,0,0,0,0,0,0,0,0,0,0,0,0,0,0,0,0,0],"id":0,"left_children":[1,3,5,7,9,11,13,15,-1,17,19,21,-1,23,25,-1,-1,-1,-1,-1,-1,-1,-1,-1,-1,-1,-1],"loss_changes":[3.2662198E2,8.614148E1,1.0578003E2,5.0477158E1,7.840248E1,5.858367E1,3.952118E1,3.222885E1,0E0,4.74177E1,5.318383E1,3.8109856E1,0E0,3.447708E1,5.0249954E1,0E0,0E0,0E0,0E0,0E0,0E0,0E0,0E0,0E0,0E0,0E0,0E0],"parents":[2147483647,0,0,1,1,2,2,3,3,4,4,5,5,6,6,7,7,9,9,10,10,11,11,13,13,14,14],"right_children":[2,4,6,8,10,12,14,16,-1,18,20,22,-1,24,26,-1,-1,-1,-1,-1,-1,-1,-1,-1,-1,-1,-1],"split_conditions":[-3.307494E-3,-3.930427E1,4.406997E1,1.5827808E3,6E0,1.11E1,7.1428573E-1,5.3333335E0,3.0905766E-2,3.7931034E-1,1.6666667E-1,-2.4666667E0,4.827133E-2,5E-2,4E0,-1.5989637E-2,8.724574E-3,1.4504582E-2,-8.083823E-3,-1.6962752E-3,1.9604048E-2,2.3653477E-2,1.7857704E-3,1.7479872E-2,3.9640456E-3,3.5319008E-2,-4.360514E-3],"split_indices":[86,86,86,85,7,20,22,60,0,43,62,31,0,71,83,0,0,0,0,0,0,0,0,0,0,0,0],"split_type":[0,0,0,0,0,0,0,0,0,0,0,0,0,0,0,0,0,0,0,0,0,0,0,0,0,0,0],"sum_hessian":[3.8128694E3,1.9085387E3,1.9043307E3,7.1782446E2,1.1907144E3,1.2624022E3,6.419285E2,7.051455E2,1.2678924E1,9.009742E2,2.8974008E2,1.2474924E3,1.4909691E1,5.127127E2,1.2921584E2,6.724207E2,3.2724823E1,5.9589283E1,8.4138495E2,1.5439804E2,1.3534206E2,4.9044044E1,1.1984485E3,3.2393115E2,1.8878157E2,1.05669464E2,2.354637E1],"tree_param":{"num_deleted":"0","num_feature":"115","num_nodes":"27","size_leaf_vector":"1"}},{"base_weights":[6.246161E-3,-1.1122793E-1,6.271591E-1,-4.5505753E-1,3.399298E-2,5.7062775E-1,1.5855614E0,-5.487637E-1,7.999324E-2,-4.5636278E-2,3.530191E-1,-1.3852312E-2,6.117753E-1,5.526322E-2,5.5521624E-3,-1.447777E-2,2.9918998E-2,2.6888853E-2,-3.9370987E-3,1.0671326E-2,-3.1163034E-3,2.177532E-2,4.3694573E-3,9.369728E-3,2.1426527E-2],"categories":[],"categories_nodes":[],"categories_segments":[],"categories_sizes":[],"default_left":[0,0,0,0,0,0,0,0,0,0,0,0,0,0,0,0,0,0,0,0,0,0,0,0,0],"id":1,"left_children":[1,3,5,7,9,11,13,15,17,19,21,-1,23,-1,-1,-1,-1,-1,-1,-1,-1,-1,-1,-1,-1],"loss_changes":[2.787576E2,1.6052112E2,3.0013016E1,4.803572E1,5.7531143E1,2.7816116E1,2.562172E1,4.507283E1,3.481385E1,6.778731E1,4.1201015E1,0E0,3.1467133E1,0E0,0E0,0E0,0E0,0E0,0E0,0E0,0E0,0E0,0E0,0E0,0E0],"parents":[2147483647,0,0,1,1,2,2,3,3,4,4,5,5,6,6,7,7,8,8,9,9,10,10,12,12],"right_children":[2,4,6,8,10,12,14,16,18,20,22,-1,24,-1,-1,-1,-1,-1,-1,-1,-1,-1,-1,-1,-1],"split_conditions":[4.58611E1,-2.9691273E1,1.0033025E0,4.6666665E0,6.3333335E0,1.4799302E3,6E-1,1.5827808E3,-1E0,4.318182E-1,8.3333336E-2,-1.3852312E-2,8E0,5.526322E-2,5.5521624E-3,-1.447777E-2,2.9918998E-2,2.6888853E-2,-3.9370987E-3,1.0671326E-2,-3.1163034E-3,2.177532E-2,4.3694573E-3,9.369728E-3,2.1426527E-2],"split_indices":[86,86,49,102,5,4,28,85,69,43,74,0,14,0,0,0,0,0,0,0,0,0,0,0,0],"split_type":[0,0,0,0,0,0,0,0,0,0,0,0,0,0,0,0,0,0,0,0,0,0,0,0,0],"sum_hessian":[3.8151E3,3.21007E3,6.050301E2,9.515168E2,2.2585532E3,5.759483E2,2.908177E1,8.0980206E2,1.4171475E2,1.8092258E3,4.493273E2,1.8921541E1,5.570268E2,1.8613113E1,1.0468657E1,7.979904E2,1.1811624E1,2.5335625E1,1.1637913E2,2.5713995E2,1.5520859E3,1.1190216E2,3.3742514E2,2.8737097E2,2.696558E2],"tree_param":{"num_deleted":"0","num_feature":"115","num_nodes":"25","size_leaf_vector":"1"}},{"base_weights":[7.912766E-3,-4.2778495E-1,1.9906051E-1,-9.585875E-1,-3.5646263E-1,8.630883E-2,5.695872E-1,1.0677279E-2,-1.1635562E0,-4.6899343E-1,1.810391E-3,5.2772216E-2,1.3790274E0,3.4254348E-1,8.819628E-1,-3.6250006E-2,-1.489485E-2,3.3508066E-2,-1.2454301E-2,9.829148E-3,-8.738807E-3,1.3415116E-2,-2.676933E-4,6.6486816E-3,4.4105306E-2,-1.3616231E-2,1.0456189E-2,3.2061275E-2,1.2107964E-2],"categories":[],"categories_nodes":[],"categories_segments":[],"categories_sizes":[],"default_left":[0,0,0,0,0,0,0,0,0,0,0,0,0,0,0,0,0,0,0,0,0,0,0,0,0,0,0,0,0],"id":2,"left_children":[1,3,5,7,9,11,13,-1,15,17,19,21,23,25,27,-1,-1,-1,-1,-1,-1,-1,-1,-1,-1,-1,-1,-1,-1],"loss_changes":[3.184568E2,4.29843E1,1.1083391E2,4.02387E1,4.1688065E1,8.815136E1,4.2900696E1,0E0,1.6636444E1,4.3422867E1,3.474302E1,6.1289116E1,2.0440498E1,2.5103783E1,3.9145126E1,0E0,0E0,0E0,0E0,0E0,0E0,0E0,0E0,0E0,0E0,0E0,0E0,0E0,0E0],"parents":[2147483647,0,0,1,1,2,2,3,3,4,4,5,5,6,6,8,8,9,9,10,10,11,11,12,12,13,13,14,14],"right_children":[2,4,6,8,10,12,14,-1,16,18,20,22,24,26,28,-1,-1,-1,-1,-1,-1,-1,-1,-1,-1,-1,-1,-1,-1],"split_conditions":[-2.250533E1,1.4254504E3,4.58611E1,-2.1666667E0,6.3333335E0,7.083333E-1,8.333333E0,1.0677279E-2,3.1967214E-1,2.804878E-1,1.0833334E0,-3.3333334E-1,0E0,1.5811388E0,5.3333335E0,-3.6250006E-2,-1.489485E-2,3.3508066E-2,-1.2454301E-2,9.829148E-3,-8.738807E-3,1.3415116E-2,-2.676933E-4,6.6486816E-3,4.4105306E-2,-1.3616231E-2,1.0456189E-2,3.2061275E-2,1.2107964E-2],"split_indices":[86,4,86,70,7,43,8,0,43,43,79,64,66,37,7,0,0,0,0,0,0,0,0,0,0,0,0,0,0],"split_type":[0,0,0,0,0,0,0,0,0,0,0,0,0,0,0,0,0,0,0,0,0,0,0,0,0,0,0,0,0],"sum_hessian":[3.8180146E3,1.1629581E3,2.6550566E3,1.3316685E2,1.0297913E3,2.0386589E3,6.163976E2,1.6677906E1,1.16488945E2,7.83159E2,2.4663223E2,1.9902269E3,4.8432045E1,3.6078113E2,2.5561646E2,7.4210785E1,4.2278164E1,1.023558E1,7.729234E2,1.16641754E2,1.299905E2,2.2842555E2,1.7618014E3,1.382178E1,3.4610264E1,2.6800127E1,3.33981E2,1.23901726E2,1.3171472E2],"tree_param":{"num_deleted":"0","num_feature":"115","num_nodes":"29","size_leaf_vector":"1"}},{"base_weights":[-6.9202273E-3,4.503143E-1,-1.0316569E-1,-1.5361131E-2,6.044557E-1,-1.796342E-1,4.373737E-1,-1.2276367E0,1.8396412E-1,1.797973E0,5.167928E-1,-2.380174E-1,3.5442814E-1,5.940185E-1,-5.5536665E-2,-5.5560707E-3,-4.7429822E-2,-4.113247E-3,1.5377523E-2,1.14632035E-2,5.815318E-2,8.579638E-3,2.4276933E-2,-7.7376724E-3,1.2579678E-3,-2.098102E-2,1.1603424E-2,9.158402E-3,2.6268432E-2,2.6968808E-3,-2.7751565E-2],"categories":[],"categories_nodes":[],"categories_segments":[],"categories_sizes":[],"default_left":[0,0,0,0,0,0,0,0,0,0,0,0,0,0,0,0,0,0,0,0,0,0,0,0,0,0,0,0,0,0,0],"id":3,"left_children":[1,3,5,7,9,11,13,15,17,19,21,23,25,27,29,-1,-1,-1,-1,-1,-1,-1,-1,-1,-1,-1,-1,-1,-1,-1,-1],"loss_changes":[1.6785521E2,4.7694077E1,1.3048256E2,4.130556E1,4.9141403E1,8.6404144E1,3.036689E1,1.4775131E1,2.236941E1,1.9742142E1,3.5834755E1,5.1461227E1,3.6928677E1,2.9624664E1,1.7167408E1,0E0,0E0,0E0,0E0,0E0,0E0,0E0,0E0,0E0,0E0,0E0,0E0,0E0,0E0,0E0,0E0],"parents":[2147483647,0,0,1,1,2,2,3,3,4,4,5,5,6,6,7,7,8,8,9,9,10,10,11,11,12,12,13,13,14,14],"right_children":[2,4,6,8,10,12,14,16,18,20,22,24,26,28,30,-1,-1,-1,-1,-1,-1,-1,-1,-1,-1,-1,-1,-1,-1,-1,-1],"split_conditions":[1.4738618E3,7.25E0,5.875E0,-1.8E0,7.142857E0,6E-1,1E0,3.4351127E0,5E-1,8.3333336E-2,5E-1,6.3333335E0,-2.0333333E0,7.3333335E0,7.6E0,-5.5560707E-3,-4.7429822E-2,-4.113247E-3,1.5377523E-2,1.14632035E-2,5.815318E-2,8.579638E-3,2.4276933E-2,-7.7376724E-3,1.2579678E-3,-2.098102E-2,1.1603424E-2,9.158402E-3,2.6268432E-2,2.6968808E-3,-2.7751565E-2],"split_indices":[85,12,17,83,18,43,16,38,16,74,99,7,32,5,17,0,0,0,0,0,0,0,0,0,0,0,0,0,0,0,0],"split_type":[0,0,0,0,0,0,0,0,0,0,0,0,0,0,0,0,0,0,0,0,0,0,0,0,0,0,0,0,0,0,0],"sum_hessian":[3.8089282E3,6.602404E2,3.1486877E3,1.6470464E2,4.9553574E2,2.7603738E3,3.883139E2,2.1142561E1,1.4356207E2,2.9823431E1,4.657123E2,2.4900178E3,2.7035614E2,2.9435626E2,9.395766E1,1.0108677E1,1.1033885E1,8.0287636E1,6.3274433E1,1.007251E1,1.9750921E1,3.4091595E2,1.2479637E2,1.995407E3,4.9461078E2,2.1000706E1,2.4935542E2,2.0018549E2,9.417077E1,8.360093E1,1.0356724E1],"tree_param":{"num_deleted":"0","num_feature":"115","num_nodes":"31","size_leaf_vector":"1"}},{"base_weights":[-2.304258E-2,-4.2612022E-1,1.5627395E-1,-4.900086E-1,2.7812672E-1,4.239633E-2,5.0889164E-1,-5.2748865E-1,9.311685E-1,6.09011E-3,3.833962E-2,-8.759995E-2,3.4679997E-1,2.7817446E-1,8.160386E-1,1.5507194E-2,-1.406924E-2,5.241508E-3,4.021003E-2,-6.795957E-3,3.5948195E-2,2.2667411E-3,-7.1222284E-3,5.4985387E-3,2.4600992E-2,8.443444E-3,-2.7559508E-2,2.6026068E-2,-1.48302E-3],"categories":[],"categories_nodes":[],"categories_segments":[],"categories_sizes":[],"default_left":[0,0,0,0,0,0,0,0,0,0,0,0,0,0,0,0,0,0,0,0,0,0,0,0,0,0,0,0,0],"id":4,"left_children":[1,3,5,7,9,11,13,15,17,19,-1,21,23,25,27,-1,-1,-1,-1,-1,-1,-1,-1,-1,-1,-1,-1,-1,-1],"loss_changes":[2.758535E2,5.3301773E1,1.05942E2,5.8884827E1,3.380747E1,7.926002E1,4.486641E1,4.367633E1,1.2845066E1,3.506488E1,0E0,4.946456E1,4.768103E1,3.168422E1,5.4374435E1,0E0,0E0,0E0,0E0,0E0,0E0,0E0,0E0,0E0,0E0,0E0,0E0,0E0,0E0],"parents":[2147483647,0,0,1,1,2,2,3,3,4,4,5,5,6,6,7,7,8,8,9,9,11,11,12,12,13,13,14,14],"right_children":[2,4,6,8,10,12,14,16,18,20,-1,22,24,26,28,-1,-1,-1,-1,-1,-1,-1,-1,-1,-1,-1,-1,-1,-1],"split_conditions":[-2.1596285E1,5.3333336E-1,4.406997E1,6.8E0,1E0,5.2E0,8.333333E0,-2.7E0,3.7682889E0,2.5E-1,3.833962E-2,1E-1,1.5E0,5.555556E-1,2.2E0,1.5507194E-2,-1.406924E-2,5.241508E-3,4.021003E-2,-6.795957E-3,3.5948195E-2,2.2667411E-3,-7.1222284E-3,5.4985387E-3,2.4600992E-2,8.443444E-3,-2.7559508E-2,2.6026068E-2,-1.48302E-3],"split_indices":[86,33,86,102,23,17,8,79,37,72,0,35,31,80,32,0,0,0,0,0,0,0,0,0,0,0,0,0,0],"split_type":[0,0,0,0,0,0,0,0,0,0,0,0,0,0,0,0,0,0,0,0,0,0,0,0,0,0,0,0,0],"sum_hessian":[3.8103992E3,1.1721051E3,2.6382942E3,1.0755841E3,9.652098E1,1.9970067E3,6.412875E2,1.0498536E3,2.5730448E1,8.187439E1,1.4646594E1,1.4006598E3,5.9634686E2,3.6965738E2,2.7163007E2,2.9740543E1,1.0201131E3,1.4431679E1,1.1298769E1,7.05423E1,1.1332088E1,7.3638245E2,6.642774E2,5.0083548E2,9.551141E1,3.5661017E2,1.3047226E1,2.1572588E2,5.5904194E1],"tree_param":{"num_deleted":"0","num_feature":"115","num_nodes":"29","size_leaf_vector":"1"}},{"base_weights":[6.465545E-3,3.0195028E-1,-1.4122246E-1,5.1133495E-2,5.557716E-1,-5.842931E-1,-4.5476433E-2,2.944381E-1,-1.7158581E-1,6.824473E-1,4.1871343E-2,-7.843783E-1,-6.2420737E-2,-1.2384646E-1,4.707823E-1,1.2917103E-2,-9.301114E-3,3.1626455E-2,-6.22722E-3,1.8245732E-2,-1.560077E-2,-9.170887E-3,2.0193523E-2,-2.3117086E-2,-9.332419E-3,4.189414E-2,-7.121531E-3,-7.5553865E-3,1.9771552E-3,-1.53524075E-2,1.5206746E-2],"categories":[],"categories_nodes":[],"categories_segments":[],"categories_sizes":[],"default_left":[0,0,0,0,0,0,0,0,0,0,0,0,0,0,0,0,0,0,0,0,0,0,0,0,0,0,0,0,0,0,0],"id":5,"left_children":[1,3,5,7,9,11,13,15,17,19,21,23,25,27,29,-1,-1,-1,-1,-1,-1,-1,-1,-1,-1,-1,-1,-1,-1,-1,-1],"loss_changes":[1.6809488E2,8.157977E1,1.0879179E2,3.5342533E1,4.1345E1,4.736908E1,8.571144E1,4.6742733E1,3.876909E1,3.3016617E1,4.1446053E1,1.7817566E1,5.145478E1,6.665263E1,4.2765667E1,0E0,0E0,0E0,0E0,0E0,0E0,0E0,0E0,0E0,0E0,0E0,0E0,0E0,0E0,0E0,0E0],"parents":[2147483647,0,0,1,1,2,2,3,3,4,4,5,5,6,6,7,7,8,8,9,9,10,10,11,11,12,12,13,13,14,14],"right_children":[2,4,6,8,10,12,14,16,18,20,22,24,26,28,30,-1,-1,-1,-1,-1,-1,-1,-1,-1,-1,-1,-1,-1,-1,-1,-1],"split_conditions":[1.4916097E3,1.5048287E3,1.4731442E3,1.4700175E3,2.6E0,1.0333333E1,5.875E0,1E0,-4.3333335E0,7.5E-1,5.5E0,1.904762E-1,3.3333334E-1,8.333333E0,-2.2E0,1.2917103E-2,-9.301114E-3,3.1626455E-2,-6.22722E-3,1.8245732E-2,-1.560077E-2,-9.170887E-3,2.0193523E-2,-2.3117086E-2,-9.332419E-3,4.189414E-2,-7.121531E-3,-7.5553865E-3,1.9771552E-3,-1.53524075E-2,1.5206746E-2],"split_indices":[85,4,4,85,75,8,17,31,66,73,17,34,61,8,75,0,0,0,0,0,0,0,0,0,0,0,0,0,0,0,0],"split_type":[0,0,0,0,0,0,0,0,0,0,0,0,0,0,0,0,0,0,0,0,0,0,0,0,0,0,0,0,0,0,0],"sum_hessian":[3.8455933E3,1.2807313E3,2.5648618E3,6.4618933E2,6.34542E2,4.5286215E2,2.1119998E3,3.0857578E2,3.376136E2,5.08114E2,1.2642797E2,3.2612546E2,1.267367E2,1.8357933E3,2.7620633E2,2.3202783E2,7.6547935E1,1.4862095E1,3.2275146E2,4.9168286E2,1.6431145E1,8.337E1,4.305797E1,2.4016425E2,8.596122E1,1.2103987E1,1.1463271E2,9.765092E2,8.592842E2,2.9815205E1,2.4639113E2],"tree_param":{"num_deleted":"0","num_feature":"115","num_nodes":"31","size_leaf_vector":"1"}},{"base_weights":[-1.3835525E-2,4.6883625E-1,-1.0919812E-1,-7.894769E-1,5.421648E-1,-1.7937328E-1,3.9701676E-1,-3.8003325E-2,1.3596117E-2,4.264996E-1,1.2364923E0,-6.300703E-1,-1.2214322E-1,-1.3852866E-1,5.762772E-1,7.460578E-3,2.6139725E-2,5.0970465E-2,1.3018546E-2,-1.802598E-2,1.7740492E-2,-6.311688E-3,8.93348E-4,3.712522E-2,-9.402231E-3,1.8409684E-2,-2.397918E-3],"categories":[],"categories_nodes":[],"categories_segments":[],"categories_sizes":[],"default_left":[0,0,0,0,0,0,0,0,0,0,0,0,0,0,0,0,0,0,0,0,0,0,0,0,0,0,0],"id":6,"left_children":[1,3,5,7,9,11,13,-1,-1,15,17,19,21,23,25,-1,-1,-1,-1,-1,-1,-1,-1,-1,-1,-1,-1],"loss_changes":[1.7559789E2,5.9329956E1,1.13372055E2,3.745653E1,4.616034E1,7.192545E1,3.7595383E1,0E0,0E0,3.984893E1,4.450039E1,3.9877914E1,5.1255836E1,4.0036053E1,3.1692993E1,0E0,0E0,0E0,0E0,0E0,0E0,0E0,0E0,0E0,0E0,0E0,0E0],"parents":[2147483647,0,0,1,1,2,2,3,3,4,4,5,5,6,6,9,9,10,10,11,11,12,12,13,13,14,14],"right_children":[2,4,6,8,10,12,14,-1,-1,16,18,20,22,24,26,-1,-1,-1,-1,-1,-1,-1,-1,-1,-1,-1,-1],"split_conditions":[1.4714512E3,1.4329553E3,5.875E0,4E-1,1.9666667E0,1.4577292E3,1.5027488E3,-3.8003325E-2,1.3596117E-2,1.25E0,2.6666667E0,5.3333335E0,4.5E0,-3.6666667E0,4E0,7.460578E-3,2.6139725E-2,5.0970465E-2,1.3018546E-2,-1.802598E-2,1.7740492E-2,-6.311688E-3,8.93348E-4,3.712522E-2,-9.402231E-3,1.8409684E-2,-2.397918E-3],"split_indices":[85,4,17,83,29,4,4,0,0,69,24,60,13,65,24,0,0,0,0,0,0,0,0,0,0,0,0],"split_type":[0,0,0,0,0,0,0,0,0,0,0,0,0,0,0,0,0,0,0,0,0,0,0,0,0,0,0],"sum_hessian":[3.809399E3,6.2635333E2,3.1830457E3,3.2802467E1,5.9355084E2,2.7973862E3,3.8565936E2,2.0967184E1,1.1835284E1,5.1306775E2,8.048308E1,3.1161182E2,2.4857744E3,9.674749E1,2.889119E2,4.2893735E2,8.413041E1,3.5266064E1,4.521702E1,2.9316504E2,1.8446768E1,1.361073E3,1.1247014E3,1.0284814E1,8.646268E1,2.3322273E2,5.568915E1],"tree_param":{"num_deleted":"0","num_feature":"115","num_nodes":"27","size_leaf_vector":"1"}},{"base_weights":[1.865831E-2,-3.356405E-1,2.2886272E-1,-4.264782E-1,1.8889111E-1,1.1920343E-1,5.3202003E-1,-4.6255758E-1,9.5575356E-1,8.070366E-3,4.944757E-2,-1.4685659E-1,2.237793E-1,4.0010464E-1,1.0326152E0,-1.2456831E-2,4.098318E-3,-4.2121317E-3,3.8223933E-2,-8.181048E-3,1.46577945E-2,-1.5603284E-3,-2.7226333E-2,3.797114E-2,5.029103E-3,2.8869042E-2,7.414326E-3,3.203568E-2,-1.6865574E-2],"categories":[],"categories_nodes":[],"categories_segments":[],"categories_sizes":[],"default_left":[0,0,0,0,0,0,0,0,0,0,0,0,0,0,0,0,0,0,0,0,0,0,0,0,0,0,0,0,0],"id":7,"left_children":[1,3,5,7,9,11,13,15,17,19,-1,21,23,25,27,-1,-1,-1,-1,-1,-1,-1,-1,-1,-1,-1,-1,-1,-1],"loss_changes":[2.8595486E2,6.8386475E1,7.986119E1,6.2105133E1,6.864435E1,4.946205E1,4.0818634E1,2.6923187E1,2.1488861E1,3.8696377E1,0E0,3.962516E1,3.6249157E1,3.8739655E1,5.8396667E1,0E0,0E0,0E0,0E0,0E0,0E0,0E0,0E0,0E0,0E0,0E0,0E0,0E0,0E0],"parents":[2147483647,0,0,1,1,2,2,3,3,4,4,5,5,6,6,7,7,8,8,9,9,11,11,12,12,13,13,14,14],"right_children":[2,4,6,8,10,12,14,16,18,20,-1,22,24,26,28,-1,-1,-1,-1,-1,-1,-1,-1,-1,-1,-1,-1,-1,-1],"split_conditions":[-1.3939888E1,3.75E-1,4.5134262E1,6.8E0,3.6666667E0,3.5E0,7.1428573E-1,7.6E0,4.8063397E-1,-3.200852E1,4.944757E-2,1.2E0,-2.975E0,-1.6333333E0,2.75E0,-1.2456831E-2,4.098318E-3,-4.2121317E-3,3.8223933E-2,-8.181048E-3,1.46577945E-2,-1.5603284E-3,-2.7226333E-2,3.797114E-2,5.029103E-3,2.8869042E-2,7.414326E-3,3.203568E-2,-1.6865574E-2],"split_indices":[86,33,86,102,59,13,22,100,49,86,0,16,78,29,77,0,0,0,0,0,0,0,0,0,0,0,0,0,0],"split_type":[0,0,0,0,0,0,0,0,0,0,0,0,0,0,0,0,0,0,0,0,0,0,0,0,0,0,0,0,0],"sum_hessian":[3.8336494E3,1.4266947E3,2.4069548E3,1.2167336E3,2.0996098E2,1.7708907E3,6.3606415E2,1.1877979E3,2.8935797E1,1.9347528E2,1.6485693E1,4.9904932E2,1.2718414E3,5.0783774E2,1.2822643E2,1.1244667E3,6.3331226E1,1.0427605E1,1.8508192E1,1.2317658E2,7.0298706E1,4.6103442E2,3.80149E1,1.8346045E1,1.2534954E3,5.747405E1,4.5036368E2,1.1262005E2,1.5606369E1],"tree_param":{"num_deleted":"0","num_feature":"115","num_nodes":"29","size_leaf_vector":"1"}},{"base_weights":[4.318027E-3,-4.4567618E-1,1.5499283E-1,-4.8382026E-1,8.316104E-1,5.8923855E-2,4.91429E-1,-5.1080513E-1,2.3375195E-2,3.419998E-2,-1.8769955E-3,3.957754E-2,1.4153453E0,2.8112385E-1,7.7222174E-1,1.6658233E-2,-1.3591351E-2,-7.182874E-3,2.7535132E-3,5.4346126E-2,3.5312094E-3,5.130021E-3,3.6607753E-2,2.861741E-2,1.0233601E-2],"categories":[],"categories_nodes":[],"categories_segments":[],"categories_sizes":[],"default_left":[0,0,0,0,0,0,0,0,0,0,0,0,0,0,0,0,0,0,0,0,0,0,0,0,0],"id":8,"left_children":[1,3,5,7,9,11,13,15,-1,-1,-1,17,19,21,23,-1,-1,-1,-1,-1,-1,-1,-1,-1,-1],"loss_changes":[2.6122217E2,4.8254868E1,9.315855E1,3.739247E1,1.4565403E1,5.870734E1,3.706955E1,3.6833527E1,0E0,0E0,0E0,5.1299908E1,2.925864E1,3.2274014E1,3.52554E1,0E0,0E0,0E0,0E0,0E0,0E0,0E0,0E0,0E0,0E0],"parents":[2147483647,0,0,1,1,2,2,3,3,4,4,5,5,6,6,7,7,11,11,12,12,13,13,14,14],"right_children":[2,4,6,8,10,12,14,16,-1,-1,-1,18,20,22,24,-1,-1,-1,-1,-1,-1,-1,-1,-1,-1],"split_conditions":[-2.9691273E1,6.8E0,4.406997E1,1.5827808E3,7.6E0,1.1E1,8.333333E0,-5.6666665E0,2.3375195E-2,3.419998E-2,-1.8769955E-3,7E0,3.7148352E0,6.714286E0,5.3333335E0,1.6658233E-2,-1.3591351E-2,-7.182874E-3,2.7535132E-3,5.4346126E-2,3.5312094E-3,5.130021E-3,3.6607753E-2,2.861741E-2,1.0233601E-2],"split_indices":[86,102,86,85,11,20,8,23,0,0,0,12,38,17,7,0,0,0,0,0,0,0,0,0,0],"split_type":[0,0,0,0,0,0,0,0,0,0,0,0,0,0,0,0,0,0,0,0,0,0,0,0,0],"sum_hessian":[3.847048E3,9.6337286E2,2.8836753E3,9.373231E2,2.6049692E1,2.2461206E3,6.375546E2,9.217821E2,1.5541075E1,1.5477376E1,1.0572317E1,2.217652E3,2.8468584E1,3.6816782E2,2.6938678E2,2.3371443E1,8.9841064E2,3.9182727E2,1.8258247E3,1.6467848E1,1.2000737E1,3.4935513E2,1.8812698E1,1.2960999E2,1.3977681E2],"tree_param":{"num_deleted":"0","num_feature":"115","num_nodes":"25","size_leaf_vector":"1"}},{"base_weights":[9.325641E-3,-9.5142566E-2,5.329599E-1,-4.549266E-1,1.21295275E-2,-5.594584E-1,5.835271E-1,-4.8912436E-1,2.9035335E-2,-8.7053655E-3,1.4886961E0,6.966309E-3,-3.1672347E-2,5.2374053E-1,1.5365458E0,2.3157872E-2,-1.2893932E-2,-6.6572935E-3,2.1483544E-3,-9.814132E-3,5.811423E-2,1.5897138E-2,1.6440979E-3,1.2832728E-2,5.870201E-2],"categories":[],"categories_nodes":[],"categories_segments":[],"categories_sizes":[],"default_left":[0,0,0,0,0,0,0,0,0,0,0,0,0,0,0,0,0,0,0,0,0,0,0,0,0],"id":9,"left_children":[1,3,5,7,9,11,13,15,-1,17,19,-1,-1,21,23,-1,-1,-1,-1,-1,-1,-1,-1,-1,-1],"loss_changes":[2.0897832E2,1.2295566E2,3.608226E1,4.2078384E1,7.5731094E1,1.868166E1,3.2070908E1,2.8483353E1,0E0,5.918701E1,5.679113E1,0E0,0E0,2.9467972E1,2.4572998E1,0E0,0E0,0E0,0E0,0E0,0E0,0E0,0E0,0E0,0E0],"parents":[2147483647,0,0,1,1,2,2,3,3,4,4,5,5,6,6,7,7,9,9,10,10,13,13,14,14],"right_children":[2,4,6,8,10,12,14,16,-1,18,20,-1,-1,22,24,-1,-1,-1,-1,-1,-1,-1,-1,-1,-1],"split_conditions":[4.5134262E1,-3.930427E1,1.1401755E0,1.5827808E3,1.1E1,2.738613E0,1.0033025E0,-4.366667E0,2.9035335E-2,-9.3333334E-1,-3.3333333E0,6.966309E-3,-3.1672347E-2,1.3333334E0,4.1E0,2.3157872E-2,-1.2893932E-2,-6.6572935E-3,2.1483544E-3,-9.814132E-3,5.811423E-2,1.5897138E-2,1.6440979E-3,1.2832728E-2,5.870201E-2],"split_indices":[86,86,38,85,20,37,49,35,0,31,26,0,0,60,19,0,0,0,0,0,0,0,0,0,0],"split_type":[0,0,0,0,0,0,0,0,0,0,0,0,0,0,0,0,0,0,0,0,0,0,0,0,0],"sum_hessian":[3.813645E3,3.1812334E3,6.3241144E2,7.2863745E2,2.452596E3,2.6555561E1,6.058559E2,7.1565015E2,1.29873495E1,2.4213445E3,3.1251465E1,1.2922742E1,1.3632819E1,5.745648E2,3.1291054E1,1.1276002E1,7.0437415E2,6.4941266E2,1.7719319E3,1.0066555E1,2.118491E1,4.6043433E2,1.1413052E2,1.6061024E1,1.5230032E1],"tree_param":{"num_deleted":"0","num_feature":"115","num_nodes":"25","size_leaf_vector":"1"}},{"base_weights":[-2.0567855E-2,-4.4511494E-1,1.2318634E-1,-5.8274287E-1,-8.002817E-2,2.1901984E-2,4.9067795E-1,-6.2998056E-1,4.7231615E-1,3.2940533E-2,-1.8807586E-1,-6.82043E-2,3.929784E-1,1.7165587E0,4.366004E-1,-5.4654246E-3,-1.8594489E-2,3.3874787E-2,-7.314037E-3,-1.2900469E-2,5.6988257E-3,1.0848841E-2,-3.8055617E-3,6.2372056E-3,2.5392441E-2,1.3671875E-2,5.959025E-2,8.051611E-3,2.1621792E-2],"categories":[],"categories_nodes":[],"categories_segments":[],"categories_sizes":[],"default_left":[0,0,0,0,0,0,0,0,0,0,0,0,0,0,0,0,0,0,0,0,0,0,0,0,0,0,0,0,0],"id":10,"left_children":[1,3,5,7,9,11,13,15,17,-1,19,21,23,25,27,-1,-1,-1,-1,-1,-1,-1,-1,-1,-1,-1,-1,-1,-1],"loss_changes":[2.3330502E2,4.8381622E1,1.0620324E2,3.5874405E1,4.116388E1,7.507467E1,3.841368E1,3.0916046E1,2.2690289E1,0E0,3.4741302E1,7.637585E1,3.8312035E1,1.5263634E1,2.8215683E1,0E0,0E0,0E0,0E0,0E0,0E0,0E0,0E0,0E0,0E0,0E0,0E0,0E0,0E0],"parents":[2147483647,0,0,1,1,2,2,3,3,4,4,5,5,6,6,7,7,8,8,10,10,11,11,12,12,13,13,14,14],"right_children":[2,4,6,8,10,12,14,16,18,-1,20,22,24,26,28,-1,-1,-1,-1,-1,-1,-1,-1,-1,-1,-1,-1,-1,-1],"split_conditions":[-2.9136784E1,3.6666667E0,4.58611E1,5.3333335E0,-2.2333333E0,6.3333335E0,-3.3333333E0,-2.9166666E-1,1.5333333E0,3.2940533E-2,1.4754493E3,4.3333334E-1,6E-1,2.1679482E0,7.1428573E-1,-5.4654246E-3,-1.8594489E-2,3.3874787E-2,-7.314037E-3,-1.2900469E-2,5.6988257E-3,1.0848841E-2,-3.8055617E-3,6.2372056E-3,2.5392441E-2,1.3671875E-2,5.959025E-2,8.051611E-3,2.1621792E-2],"split_indices":[86,102,86,60,32,5,58,33,79,0,4,43,43,36,22,0,0,0,0,0,0,0,0,0,0,0,0,0,0],"split_type":[0,0,0,0,0,0,0,0,0,0,0,0,0,0,0,0,0,0,0,0,0,0,0,0,0,0,0,0,0],"sum_hessian":[3.8165427E3,9.639956E2,2.852547E3,6.9858527E2,2.6541034E2,2.2389272E3,6.136199E2,6.698958E2,2.868948E1,1.6569239E1,2.4884111E2,1.803237E3,4.3569025E2,2.1950413E1,5.9166943E2,1.4725098E2,5.2264484E2,1.2305279E1,1.6384201E1,1.3888312E2,1.09957985E2,2.5650122E2,1.5467358E3,3.5764285E2,7.804739E1,1.0008973E1,1.194144E1,4.711544E2,1.2051504E2],"tree_param":{"num_deleted":"0","num_feature":"115","num_nodes":"29","size_leaf_vector":"1"}},{"base_weights":[5.947867E-3,-1.7992094E-1,3.1531808E-1,-3.8759145E-1,-4.1565366E-2,-4.4804152E-2,4.9257973E-1,-4.1655722E-1,2.934063E-2,6.99003E-1,-9.65378E-2,-8.074141E-1,9.204453E-2,5.796056E-1,-1.1789752E-1,-1.1482396E-2,1.2179847E-2,3.7349075E-2,4.9759946E-3,-5.1532825E-3,7.177096E-3,-3.274856E-2,-2.7951465E-3,1.0027554E-2,-7.975076E-3,1.5509719E-2,-1.3678879E-2,-1.9725341E-2,6.2899515E-3],"categories":[],"categories_nodes":[],"categories_segments":[],"categories_sizes":[],"default_left":[0,0,0,0,0,0,0,0,0,0,0,0,0,0,0,0,0,0,0,0,0,0,0,0,0,0,0,0,0],"id":11,"left_children":[1,3,5,7,9,11,13,15,-1,17,19,21,23,25,27,-1,-1,-1,-1,-1,-1,-1,-1,-1,-1,-1,-1,-1,-1],"loss_changes":[2.1968697E2,6.847368E1,9.1649445E1,4.451013E1,5.8595863E1,4.992626E1,5.1327408E1,3.691478E1,0E0,3.8467056E1,5.6479847E1,2.4857689E1,5.1943584E1,3.972232E1,3.0976662E1,0E0,0E0,0E0,0E0,0E0,0E0,0E0,0E0,0E0,0E0,0E0,0E0,0E0,0E0],"parents":[2147483647,0,0,1,1,2,2,3,3,4,4,5,5,6,6,7,7,9,9,10,10,11,11,12,12,13,13,14,14],"right_children":[2,4,6,8,10,12,14,16,-1,18,20,22,24,26,28,-1,-1,-1,-1,-1,-1,-1,-1,-1,-1,-1,-1,-1,-1],"split_conditions":[1.3586489E1,-2.9691273E1,8E0,1.5827808E3,3.7931034E-1,-2.4E0,3.25E0,5.3333335E0,2.934063E-2,1.4946853E3,6.25E-1,5.4452056E-1,1.4833237E3,4.8E0,-2.6666667E0,-1.1482396E-2,1.2179847E-2,3.7349075E-2,4.9759946E-3,-5.1532825E-3,7.177096E-3,-3.274856E-2,-2.7951465E-3,1.0027554E-2,-7.975076E-3,1.5509719E-2,-1.3678879E-2,-1.9725341E-2,6.2899515E-3],"split_indices":[86,86,18,85,43,68,25,60,0,85,99,43,85,68,61,0,0,0,0,0,0,0,0,0,0,0,0,0,0],"split_type":[0,0,0,0,0,0,0,0,0,0,0,0,0,0,0,0,0,0,0,0,0,0,0,0,0,0,0,0,0],"sum_hessian":[3.8142961E3,2.3833298E3,1.4309662E3,9.505043E2,1.4328256E3,4.7257242E2,9.583938E2,9.3541284E2,1.5091411E1,9.645491E1,1.3363707E3,6.977444E1,4.0279797E2,8.390934E2,1.1930042E2,8.946888E2,4.0724033E1,3.4860683E1,6.1594227E1,1.0407085E3,2.956622E2,3.8887615E1,3.0886822E1,2.3010385E2,1.7269414E2,8.1117E2,2.7923382E1,4.1247303E1,7.8053116E1],"tree_param":{"num_deleted":"0","num_feature":"115","num_nodes":"29","size_leaf_vector":"1"}},{"base_weights":[-1.4904416E-2,-3.6184812E-1,1.3917811E-1,6.3168836E-1,-3.904046E-1,4.0537965E-2,4.7002247E-1,4.615216E-2,-1.5512039E-1,-4.1472578E-1,8.111903E-1,1.6830234E-2,1.3575331E0,5.1297653E-2,4.194778E-1,-1.8428577E-2,1.1337012E-2,-1.1313108E-2,1.149352E-2,4.525961E-3,3.087969E-2,3.87363E-2,1.2905085E-5,7.224974E-3,5.306248E-2,8.774859E-3,3.3983953E-2],"categories":[],"categories_nodes":[],"categories_segments":[],"categories_sizes":[],"default_left":[0,0,0,0,0,0,0,0,0,0,0,0,0,0,0,0,0,0,0,0,0,0,0,0,0,0,0],"id":12,"left_children":[1,3,5,7,9,11,13,-1,15,17,19,21,23,-1,25,-1,-1,-1,-1,-1,-1,-1,-1,-1,-1,-1,-1],"loss_changes":[2.054433E2,3.424887E1,8.672984E1,3.358187E1,3.460208E1,6.3904263E1,4.599341E1,0E0,9.317169E0,3.7976517E1,5.5371523E0,5.0351833E1,2.7505363E1,0E0,3.6730705E1,0E0,0E0,0E0,0E0,0E0,0E0,0E0,0E0,0E0,0E0,0E0,0E0],"parents":[2147483647,0,0,1,1,2,2,3,3,4,4,5,5,6,6,8,8,9,9,10,10,11,11,12,12,14,14],"right_children":[2,4,6,8,10,12,14,-1,16,18,20,22,24,-1,26,-1,-1,-1,-1,-1,-1,-1,-1,-1,-1,-1,-1],"split_conditions":[-2.1596285E1,-2.7E0,4.58611E1,-3.3333334E-1,6.226415E-1,7.5E-1,-4.5E-1,4.615216E-2,4.7340426E-1,5.3333335E0,3.3166249E0,-1E0,9.333333E0,5.1297653E-2,6.714286E0,-1.8428577E-2,1.1337012E-2,-1.1313108E-2,1.149352E-2,4.525961E-3,3.087969E-2,3.87363E-2,1.2905085E-5,7.224974E-3,5.306248E-2,8.774859E-3,3.3983953E-2],"split_indices":[86,79,86,108,43,43,106,0,43,60,37,72,6,0,17,0,0,0,0,0,0,0,0,0,0,0,0],"split_type":[0,0,0,0,0,0,0,0,0,0,0,0,0,0,0,0,0,0,0,0,0,0,0,0,0,0,0],"sum_hessian":[3.8368389E3,1.1789135E3,2.6579255E3,3.1069815E1,1.1478436E3,2.050304E3,6.0762146E2,1.0677642E1,2.0392174E1,1.1270785E3,2.076511E1,2.0171075E3,3.3196457E1,1.5074448E1,5.92547E2,1.0183797E1,1.0208377E1,1.0818766E3,4.5201855E1,1.0168823E1,1.0596288E1,1.8211046E1,1.9988965E3,1.5629156E1,1.7567299E1,5.562436E2,3.6303406E1],"tree_param":{"num_deleted":"0","num_feature":"115","num_nodes":"27","size_leaf_vector":"1"}},{"base_weights":[1.7205102E-2,4.6414927E-1,-6.338973E-2,-6.346516E-2,6.361326E-1,-2.400993E-1,1.2914455E-1,-1.10131E0,1.5519664E-1,8.2474333E-1,4.7900965E-3,-2.8980723E-1,2.9924327E-1,1.8696044E-2,5.4736334E-1,-2.4902483E-3,-4.3142807E-2,-2.070876E-2,8.739288E-3,3.5962157E-2,1.570398E-2,-4.3754503E-3,3.2909382E-2,-8.002843E-3,1.4216545E-2,-9.884444E-3,1.6124343E-2,2.8340949E-2,-5.491532E-4,1.8857753E-2,1.4994008E-3],"categories":[],"categories_nodes":[],"categories_segments":[],"categories_sizes":[],"default_left":[0,0,0,0,0,0,0,0,0,0,0,0,0,0,0,0,0,0,0,0,0,0,0,0,0,0,0,0,0,0,0],"id":13,"left_children":[1,3,5,7,9,11,13,15,17,19,21,23,25,27,29,-1,-1,-1,-1,-1,-1,-1,-1,-1,-1,-1,-1,-1,-1,-1,-1],"loss_changes":[1.3865973E2,5.354255E1,1.11042274E2,3.400275E1,5.2768295E1,4.587709E1,7.2071655E1,1.5600687E1,2.4545504E1,3.830699E1,2.5628357E1,4.1099045E1,3.5586548E1,5.6361404E1,3.267135E1,0E0,0E0,0E0,0E0,0E0,0E0,0E0,0E0,0E0,0E0,0E0,0E0,0E0,0E0,0E0,0E0],"parents":[2147483647,0,0,1,1,2,2,3,3,4,4,5,5,6,6,7,7,8,8,9,9,10,10,11,11,12,12,13,13,14,14],"right_children":[2,4,6,8,10,12,14,16,18,20,22,24,26,28,30,-1,-1,-1,-1,-1,-1,-1,-1,-1,-1,-1,-1,-1,-1,-1,-1],"split_conditions":[1.4693462E3,7.25E0,1.5044878E3,-4.861111E-1,1.0333333E0,5.3333336E-1,5.8E0,1.0714286E-1,1.4506984E3,-2.2222222E-1,6.618157E0,5.3333335E0,2.5E-1,-4E-1,1.4964507E1,-2.4902483E-3,-4.3142807E-2,-2.070876E-2,8.739288E-3,3.5962157E-2,1.570398E-2,-4.3754503E-3,3.2909382E-2,-8.002843E-3,1.4216545E-2,-9.884444E-3,1.6124343E-2,2.8340949E-2,-5.491532E-4,1.8857753E-2,1.4994008E-3],"split_indices":[85,12,4,80,31,33,17,81,4,34,39,60,16,106,105,0,0,0,0,0,0,0,0,0,0,0,0,0,0,0,0],"split_type":[0,0,0,0,0,0,0,0,0,0,0,0,0,0,0,0,0,0,0,0,0,0,0,0,0,0,0,0,0,0,0],"sum_hessian":[3.8428086E3,5.8509393E2,3.2577146E3,1.4415703E2,4.409369E2,1.6985498E3,1.5591648E3,2.3058924E1,1.2109811E2,3.3868027E2,1.0225662E2,1.5566558E3,1.4189412E2,1.2360946E3,3.2307025E2,1.0251555E1,1.2807367E1,1.828347E1,1.0281464E2,7.7442154E1,2.6123813E2,9.214738E1,1.0109252E1,1.5055049E3,5.1150867E1,4.691509E1,9.497903E1,4.074351E1,1.1953511E3,2.2548161E2,9.758864E1],"tree_param":{"num_deleted":"0","num_feature":"115","num_nodes":"31","size_leaf_vector":"1"}},{"base_weights":[9.773276E-3,-3.357103E-1,1.6584009E-1,-3.9111656E-1,3.0041358E-1,6.562292E-2,4.7504747E-1,8.676262E-2,-4.601886E-1,5.6552667E-2,-3.089778E-2,9.3095535E-1,3.315203E-2,2.722076E-1,7.452105E-1,8.893937E-3,-2.4580544E-2,-1.2999085E-2,3.3860148E-3,-8.262919E-3,2.9398395E-2,-6.8160594E-3,3.419618E-2,-8.147847E-3,2.7823537E-3,-1.4647408E-2,9.07773E-3,2.4246896E-2,3.8157214E-4],"categories":[],"categories_nodes":[],"categories_segments":[],"categories_sizes":[],"default_left":[0,0,0,0,0,0,0,0,0,0,0,0,0,0,0,0,0,0,0,0,0,0,0,0,0,0,0,0,0],"id":14,"left_children":[1,3,5,7,9,11,13,15,17,-1,19,21,23,25,27,-1,-1,-1,-1,-1,-1,-1,-1,-1,-1,-1,-1,-1,-1],"loss_changes":[2.0671452E2,4.240544E1,8.169617E1,3.6425323E1,6.35596E1,5.5961937E1,3.467755E1,4.159795E1,3.4452972E1,0E0,3.2182022E1,3.911715E1,5.4220966E1,2.9771673E1,4.4953476E1,0E0,0E0,0E0,0E0,0E0,0E0,0E0,0E0,0E0,0E0,0E0,0E0,0E0,0E0],"parents":[2147483647,0,0,1,1,2,2,3,3,4,4,5,5,6,6,7,7,8,8,10,10,11,11,12,12,13,13,14,14],"right_children":[2,4,6,8,10,12,14,16,18,-1,20,22,24,26,28,-1,-1,-1,-1,-1,-1,-1,-1,-1,-1,-1,-1,-1,-1],"split_conditions":[-2.1596285E1,3.3333333E0,4.406997E1,-3.75E-1,-7.3333335E-1,-2.6333334E0,8.333333E0,2E0,5.3333336E-1,5.6552667E-2,1E0,4.1E0,-1.2E0,-1E0,2.0333333E0,8.893937E-3,-2.4580544E-2,-1.2999085E-2,3.3860148E-3,-8.262919E-3,2.9398395E-2,-6.8160594E-3,3.419618E-2,-8.147847E-3,2.7823537E-3,-1.4647408E-2,9.07773E-3,2.4246896E-2,3.8157214E-4],"split_indices":[86,59,86,80,35,31,8,45,33,0,15,17,31,23,32,0,0,0,0,0,0,0,0,0,0,0,0,0,0],"split_type":[0,0,0,0,0,0,0,0,0,0,0,0,0,0,0,0,0,0,0,0,0,0,0,0,0,0,0,0,0],"sum_hessian":[3.828049E3,1.1898954E3,2.6381536E3,1.095767E3,9.412843E1,1.9953885E3,6.427651E2,1.3809962E2,9.576673E2,1.1117917E1,8.301052E1,6.9053635E1,1.926335E3,3.7077673E2,2.7198834E2,1.1203095E2,2.606867E1,8.708241E2,8.684321E1,6.831203E1,1.4698489E1,1.8629633E1,5.0424E1,3.4236462E2,1.5839702E3,3.3845135E1,3.3693158E2,2.0711795E2,6.48704E1],"tree_param":{"num_deleted":"0","num_feature":"115","num_nodes":"29","size_leaf_vector":"1"}},{"base_weights":[-3.579287E-2,-2.1240063E-1,2.5555345E-1,-2.6585832E-1,3.6736664E-1,5.3886926E-1,7.777444E-2,-8.800984E-1,-2.224092E-1,4.7180265E-2,1.0708659E0,-3.030383E-1,6.3694286E-1,-8.9329325E-2,3.6610922E-1,1.031789E-2,-2.6548821E-2,-6.536973E-3,8.584063E-3,5.282759E-3,-3.1113166E-2,3.766338E-2,1.5922366E-3,-2.133811E-2,6.8548615E-3,1.7458584E-2,-1.6384298E-2,2.090614E-3,-1.3370372E-2,1.6867403E-2,-8.9575024E-4],"categories":[],"categories_nodes":[],"categories_segments":[],"categories_sizes":[],"default_left":[0,0,0,0,0,0,0,0,0,0,0,0,0,0,0,0,0,0,0,0,0,0,0,0,0,0,0,0,0,0,0],"id":15,"left_children":[1,3,5,7,9,11,13,15,17,19,21,23,25,27,29,-1,-1,-1,-1,-1,-1,-1,-1,-1,-1,-1,-1,-1,-1,-1,-1],"loss_changes":[1.9619145E2,7.385593E1,7.229192E1,5.735878E1,4.5126015E1,4.636377E1,4.290685E1,3.4892555E1,4.526178E1,3.0730392E1,2.7107414E1,1.9742523E1,4.0842194E1,4.3659306E1,4.0644176E1,0E0,0E0,0E0,0E0,0E0,0E0,0E0,0E0,0E0,0E0,0E0,0E0,0E0,0E0,0E0,0E0],"parents":[2147483647,0,0,1,1,2,2,3,3,4,4,5,5,6,6,7,7,8,8,9,9,10,10,11,11,12,12,13,13,14,14],"right_children":[2,4,6,8,10,12,14,16,18,20,22,24,26,28,30,-1,-1,-1,-1,-1,-1,-1,-1,-1,-1,-1,-1,-1,-1,-1,-1],"split_conditions":[1.3586489E1,5.3333336E-1,1.4714512E3,1.4284186E3,5.1E0,2.236068E0,1.1E0,-2.1666667E0,6.111111E0,3.45E0,4.449719E0,7.714286E0,5.555556E-1,8.333333E-1,3.3333334E-1,1.031789E-2,-2.6548821E-2,-6.536973E-3,8.584063E-3,5.282759E-3,-3.1113166E-2,3.766338E-2,1.5922366E-3,-2.133811E-2,6.8548615E-3,1.7458584E-2,-1.6384298E-2,2.090614E-3,-1.3370372E-2,1.6867403E-2,-8.9575024E-4],"split_indices":[86,33,85,4,17,39,76,70,17,70,36,20,80,67,73,0,0,0,0,0,0,0,0,0,0,0,0,0,0,0,0],"split_type":[0,0,0,0,0,0,0,0,0,0,0,0,0,0,0,0,0,0,0,0,0,0,0,0,0,0,0,0,0,0,0],"sum_hessian":[3.8068662E3,2.3708594E3,1.436007E3,2.1723533E3,1.9850595E2,5.510984E2,8.8490857E2,1.395445E2,2.0328088E3,1.3871527E2,5.9790688E1,5.6738724E1,4.9435968E2,5.613204E2,3.235882E2,1.6671003E1,1.2287349E2,1.9031742E3,1.2963464E2,1.2537163E2,1.3343638E1,4.062922E1,1.9161467E1,2.8395885E1,2.834284E1,4.7332718E2,2.1032494E1,4.0593417E2,1.5538618E2,1.820405E2,1.4154771E2],"tree_param":{"num_deleted":"0","num_feature":"115","num_nodes":"31","size_leaf_vector":"1"}},{"base_weights":[8.371333E-3,-1.5482996E-1,2.5862613E-1,-2.3571594E-1,1.4636669E-1,2.3395956E-1,4.8762973E-2,-5.270043E-1,-1.4622338E-1,-7.697815E-3,6.49534E-1,1.2464913E0,2.0546722E-1,-1.7837606E-2,-2.9089947E-3,1.0153145E-2,-5.3796363E-3,3.5383035E-3,-1.1465187E-2,-1.7728899E-2,2.1940622E-2,1.1756721E-2,5.6356966E-2,4.628714E-2,4.660992E-3],"categories":[],"categories_nodes":[],"categories_segments":[],"categories_sizes":[],"default_left":[0,0,0,0,0,0,0,0,0,0,0,0,0,0,0,0,0,0,0,0,0,0,0,0,0],"id":16,"left_children":[1,3,5,7,9,11,-1,13,15,17,19,21,23,-1,-1,-1,-1,-1,-1,-1,-1,-1,-1,-1,-1],"loss_changes":[1.5574945E2,5.633888E1,6.1236633E1,4.7164665E1,3.807698E1,4.1991577E1,0E0,3.2331635E1,5.3465305E1,2.5666939E1,3.755068E1,2.7850464E1,4.418029E1,0E0,0E0,0E0,0E0,0E0,0E0,0E0,0E0,0E0,0E0,0E0,0E0],"parents":[2147483647,0,0,1,1,2,2,3,3,4,4,5,5,7,7,8,8,9,9,10,10,11,11,12,12],"right_children":[2,4,6,8,10,12,-1,14,16,18,20,22,24,-1,-1,-1,-1,-1,-1,-1,-1,-1,-1,-1,-1],"split_conditions":[1.1086119E1,6.3333335E0,1.0833333E1,1.4731442E3,5.125E0,-4.5E-1,4.8762973E-2,5E-1,-2.0972223E0,4.571429E0,1.452827E3,-2.9666667E0,-1.3333334E0,-1.7837606E-2,-2.9089947E-3,1.0153145E-2,-5.3796363E-3,3.5383035E-3,-1.1465187E-2,-1.7728899E-2,2.1940622E-2,1.1756721E-2,5.6356966E-2,4.628714E-2,4.660992E-3],"split_indices":[86,7,20,4,17,106,0,41,76,17,4,35,63,0,0,0,0,0,0,0,0,0,0,0,0],"split_type":[0,0,0,0,0,0,0,0,0,0,0,0,0,0,0,0,0,0,0,0,0,0,0,0,0],"sum_hessian":[3.8072764E3,2.3049011E3,1.5023752E3,1.817735E3,4.8716623E2,1.4842104E3,1.816475E1,4.2350137E2,1.3942336E3,3.75077E2,1.1208924E2,3.7016075E1,1.4471943E3,2.8954456E2,1.339568E2,1.5296318E2,1.2412705E3,2.831907E2,9.188627E1,1.5139672E1,9.694957E1,2.3451944E1,1.3564129E1,1.3176332E1,1.4340181E3],"tree_param":{"num_deleted":"0","num_feature":"115","num_nodes":"25","size_leaf_vector":"1"}},{"base_weights":[4.2474386E-3,-1.6081084E-1,2.7398676E-1,-2.3668005E-1,2.4327673E-1,-4.226152E-1,3.3630794E-1,-4.9885583E-1,-1.5316448E-1,-5.534155E-1,3.5919747E-1,2.5691405E-1,-8.302882E-1,2.544687E-1,1.0072541E0,-1.3884141E-2,7.5341254E-3,1.2829903E-2,-5.1263464E-3,-2.715688E-2,7.642114E-3,4.7794126E-2,6.959352E-3,2.1085396E-2,-1.2559469E-2,-2.9988144E-2,3.627361E-3,1.2358333E-2,2.2885816E-3,2.3071154E-3,3.3588096E-2],"categories":[],"categories_nodes":[],"categories_segments":[],"categories_sizes":[],"default_left":[0,0,0,0,0,0,0,0,0,0,0,0,0,0,0,0,0,0,0,0,0,0,0,0,0,0,0,0,0,0,0],"id":17,"left_children":[1,3,5,7,9,11,13,15,17,19,21,23,25,27,29,-1,-1,-1,-1,-1,-1,-1,-1,-1,-1,-1,-1,-1,-1,-1,-1],"loss_changes":[1.6964528E2,7.26317E1,6.3218628E1,4.3313515E1,3.519837E1,3.3937195E1,7.2112915E1,2.221228E1,5.2671867E1,2.336301E1,3.9492706E1,2.2320984E1,2.7925644E1,4.627964E1,4.3605515E1,0E0,0E0,0E0,0E0,0E0,0E0,0E0,0E0,0E0,0E0,0E0,0E0,0E0,0E0,0E0,0E0],"parents":[2147483647,0,0,1,1,2,2,3,3,4,4,5,5,6,6,7,7,8,8,9,9,10,10,11,11,12,12,13,13,14,14],"right_children":[2,4,6,8,10,12,14,16,18,20,22,24,26,28,30,-1,-1,-1,-1,-1,-1,-1,-1,-1,-1,-1,-1,-1,-1,-1,-1],"split_conditions":[1.3586489E1,1.5666667E0,-2.4E0,-4.7424465E1,1.4438351E3,-1E0,5.6666665E0,2.3333333E0,3.7931034E-1,8.5E0,1.5407774E-1,-1E-1,6.5E0,1.4714512E3,-1.1888889E0,-1.3884141E-2,7.5341254E-3,1.2829903E-2,-5.1263464E-3,-2.715688E-2,7.642114E-3,4.7794126E-2,6.959352E-3,2.1085396E-2,-1.2559469E-2,-2.9988144E-2,3.627361E-3,1.2358333E-2,2.2885816E-3,2.3071154E-3,3.3588096E-2],"split_indices":[86,31,68,86,4,60,100,30,43,12,50,29,100,85,78,0,0,0,0,0,0,0,0,0,0,0,0,0,0,0,0],"split_type":[0,0,0,0,0,0,0,0,0,0,0,0,0,0,0,0,0,0,0,0,0,0,0,0,0,0,0,0,0,0,0],"sum_hessian":[3.8040862E3,2.3604968E3,1.4435892E3,1.9886158E3,3.7188098E2,1.1698856E2,1.3266007E3,4.7653604E2,1.5120798E3,4.568885E1,3.2619214E2,4.4191734E1,7.279683E1,1.1861998E3,1.4040086E2,4.4607794E2,3.0458101E1,1.0717295E2,1.4049069E3,2.7780807E1,1.7908043E1,1.2716571E1,3.1347556E2,2.481961E1,1.9372126E1,5.238084E1,2.041599E1,4.77092E2,7.0910785E2,3.8840065E1,1.0156081E2],"tree_param":{"num_deleted":"0","num_feature":"115","num_nodes":"31","size_leaf_vector":"1"}},{"base_weights":[1.7535014E-2,-2.2311363E-1,1.5969001E-1,-2.4556683E-1,3.2243416E-2,4.380676E-1,6.6323556E-2,-2.722282E-1,8.9563864E-1,3.2266703E-1,1.1819987E0,1.16037555E-1,-5.5918336E-1,-9.104509E-3,1.022827E-3,5.93297E-2,-8.7971715E-3,1.2831258E-2,4.7373702E-4,-5.2238544E-3,4.108254E-2,1.2920633E-3,1.4239839E-2,1.25298295E-2,-1.8956373E-2],"categories":[],"categories_nodes":[],"categories_segments":[],"categories_sizes":[],"default_left":[0,0,0,0,0,0,0,0,0,0,0,0,0,0,0,0,0,0,0,0,0,0,0,0,0],"id":18,"left_children":[1,3,5,7,-1,9,11,13,15,17,19,21,23,-1,-1,-1,-1,-1,-1,-1,-1,-1,-1,-1,-1],"loss_changes":[1.3145654E2,4.931498E1,6.2653515E1,4.3527718E1,0E0,5.0727066E1,5.652534E1,3.9779373E1,6.311368E1,3.0528004E1,5.2590416E1,4.8946617E1,2.941927E1,0E0,0E0,0E0,0E0,0E0,0E0,0E0,0E0,0E0,0E0,0E0,0E0],"parents":[2147483647,0,0,1,1,2,2,3,3,5,5,6,6,7,7,8,8,9,9,10,10,11,11,12,12],"right_children":[2,4,6,8,-1,10,12,14,16,18,20,22,24,-1,-1,-1,-1,-1,-1,-1,-1,-1,-1,-1,-1],"split_conditions":[-1.35468645E1,2E0,1.4723229E3,1.578785E3,3.2243416E-2,1.9666667E0,1.2E0,1.3E0,5E-1,4.004027E-1,1.4921755E3,6.1E0,1.485306E3,-9.104509E-3,1.022827E-3,5.93297E-2,-8.7971715E-3,1.2831258E-2,4.7373702E-4,-5.2238544E-3,4.108254E-2,1.2920633E-3,1.4239839E-2,1.25298295E-2,-1.8956373E-2],"split_indices":[86,9,85,85,0,29,16,32,78,50,4,17,85,0,0,0,0,0,0,0,0,0,0,0,0],"split_type":[0,0,0,0,0,0,0,0,0,0,0,0,0,0,0,0,0,0,0,0,0,0,0,0,0],"sum_hessian":[3.8367625E3,1.4238947E3,2.4128677E3,1.4056122E3,1.8282476E1,6.029601E2,1.8099076E3,1.3758412E3,2.9771063E1,5.258279E2,7.713219E1,1.6790625E3,1.308451E2,1.063408E3,3.1243323E2,1.2426511E1,1.7344553E1,3.21615E2,2.0421288E2,1.9564436E1,5.756775E1,1.4735438E3,2.055187E2,1.9882658E1,1.1096244E2],"tree_param":{"num_deleted":"0","num_feature":"115","num_nodes":"25","size_leaf_vector":"1"}},{"base_weights":[5.9093663E-4,-3.6050126E-1,1.14369415E-1,-3.9896727E-1,8.8359874E-1,2.6189268E-2,4.2870474E-1,-4.5650697E-1,3.4423256E-1,-0E0,3.747034E-2,-4.3040905E-2,3.509409E-1,5.169163E-1,-1.7580761E-1,-1.2148791E-2,2.7215714E-2,3.502705E-2,-5.420246E-3,9.232048E-3,-2.3159876E-3,4.3574935E-3,2.1941608E-2,4.254833E-3,1.8323017E-2,5.5048084E-3,-2.1747826E-2],"categories":[],"categories_nodes":[],"categories_segments":[],"categories_sizes":[],"default_left":[0,0,0,0,0,0,0,0,0,0,0,0,0,0,0,0,0,0,0,0,0,0,0,0,0,0,0],"id":19,"left_children":[1,3,5,7,9,11,13,15,17,-1,-1,19,21,23,25,-1,-1,-1,-1,-1,-1,-1,-1,-1,-1,-1,-1],"loss_changes":[1.5728986E2,4.4903435E1,8.063074E1,3.8621765E1,1.5369106E1,5.1276985E1,3.429898E1,3.925151E1,3.99697E1,0E0,0E0,3.8513935E1,3.6722687E1,4.1265213E1,2.352707E1,0E0,0E0,0E0,0E0,0E0,0E0,0E0,0E0,0E0,0E0,0E0,0E0],"parents":[2147483647,0,0,1,1,2,2,3,3,4,4,5,5,6,6,7,7,8,8,11,11,12,12,13,13,14,14],"right_children":[2,4,6,8,10,12,14,16,18,-1,-1,20,22,24,26,-1,-1,-1,-1,-1,-1,-1,-1,-1,-1,-1,-1],"split_conditions":[-3.1548729E1,6.8E0,4.5134262E1,1.5E0,4.8682647E0,6E0,5.4E0,1.5827808E3,7.6666665E0,-0E0,3.747034E-2,1.7888544E0,7.1428573E-1,8.1E0,6.666667E-1,-1.2148791E-2,2.7215714E-2,3.502705E-2,-5.420246E-3,9.232048E-3,-2.3159876E-3,4.3574935E-3,2.1941608E-2,4.254833E-3,1.8323017E-2,5.5048084E-3,-2.1747826E-2],"split_indices":[86,102,86,83,39,100,74,85,6,0,0,37,21,18,16,0,0,0,0,0,0,0,0,0,0,0,0],"split_type":[0,0,0,0,0,0,0,0,0,0,0,0,0,0,0,0,0,0,0,0,0,0,0,0,0,0,0],"sum_hessian":[3.8230342E3,9.142254E2,2.9088088E3,8.8886127E2,2.5364143E1,2.2743547E3,6.3445416E2,8.261883E2,6.2672993E1,1.166471E1,1.3699433E1,1.8765981E3,3.977565E2,5.541864E2,8.026778E1,8.128201E2,1.3368188E1,2.0237501E1,4.243549E1,1.9920615E2,1.677392E3,3.0099713E2,9.675936E1,2.1496255E2,3.3922388E2,5.2321583E1,2.7946194E1],"tree_param":{"num_deleted":"0","num_feature":"115","num_nodes":"27","size_leaf_vector":"1"}},{"base_weights":[6.33113E-3,-3.2177544E-1,1.0979919E-1,-3.53298E-1,3.4400392E-2,3.7130505E-2,4.2130616E-1,-3.896998E-1,9.447906E-1,-3.8779005E-2,3.530896E-1,9.4658184E-1,2.7688617E-1,-1.1118599E-2,7.7250707E-3,4.639345E-3,3.5427675E-2,-4.9574072E-3,3.9616683E-3,1.2429594E-2,-6.3044615E-3,7.272488E-5,3.1638365E-2,-2.0699246E-2,9.094535E-3],"categories":[],"categories_nodes":[],"categories_segments":[],"categories_sizes":[],"default_left":[0,0,0,0,0,0,0,0,0,0,0,0,0,0,0,0,0,0,0,0,0,0,0,0,0],"id":20,"left_children":[1,3,5,7,-1,9,11,13,15,17,19,21,23,-1,-1,-1,-1,-1,-1,-1,-1,-1,-1,-1,-1],"loss_changes":[1.2977171E2,5.0399857E1,6.570604E1,4.3676895E1,0E0,5.668621E1,4.0759117E1,3.4259293E1,8.162216E0,6.0057823E1,4.0327793E1,3.509578E1,4.26402E1,0E0,0E0,0E0,0E0,0E0,0E0,0E0,0E0,0E0,0E0,0E0,0E0],"parents":[2147483647,0,0,1,1,2,2,3,3,5,5,6,6,7,7,8,8,9,9,10,10,11,11,12,12],"right_children":[2,4,6,8,-1,10,12,14,16,18,20,22,24,-1,-1,-1,-1,-1,-1,-1,-1,-1,-1,-1,-1],"split_conditions":[-3.1548729E1,1.5827808E3,5.7E0,6.8E0,3.4400392E-2,4.58611E1,2.5E-1,1.5E0,4.8333335E0,4.5E0,3E0,-3E-1,-3.3E0,-1.1118599E-2,7.7250707E-3,4.639345E-3,3.5427675E-2,-4.9574072E-3,3.9616683E-3,1.2429594E-2,-6.3044615E-3,7.272488E-5,3.1638365E-2,-2.0699246E-2,9.094535E-3],"split_indices":[86,85,17,102,0,86,67,83,19,13,44,71,35,0,0,0,0,0,0,0,0,0,0,0,0],"split_type":[0,0,0,0,0,0,0,0,0,0,0,0,0,0,0,0,0,0,0,0,0,0,0,0,0],"sum_hessian":[3.8171018E3,9.1338367E2,2.903718E3,8.991244E2,1.4259255E1,2.3574485E3,5.4626953E2,8.767154E2,2.2408976E1,1.90265E3,4.547984E2,1.14060425E2,4.3220914E2,8.138346E2,6.2880806E1,1.027808E1,1.2130895E1,1.0522012E3,8.504489E2,3.679118E2,8.688662E1,2.9656828E1,8.4403595E1,2.9564648E1,4.026445E2],"tree_param":{"num_deleted":"0","num_feature":"115","num_nodes":"25","size_leaf_vector":"1"}},{"base_weights":[-2.4483992E-2,-3.0090284E-1,9.991396E-2,-3.5026214E-1,4.3846312E-1,3.4890327E-1,2.6321134E-2,-4.2082417E-1,2.005393E-1,8.7289596E-1,-3.1277812E-1,-3.6060476E-1,4.5723486E-1,1.8695386E-1,-1.4026615E-1,-1.1986988E-2,6.124934E-3,3.421866E-2,-4.0185205E-3,-4.520827E-3,3.30753E-2,-2.7833143E-2,8.705472E-3,1.1562931E-2,-1.6728746E-2,1.0254559E-2,4.207897E-2,9.310943E-3,2.1690014E-4,-7.7045425E-3,5.4367664E-3],"categories":[],"categories_nodes":[],"categories_segments":[],"categories_sizes":[],"default_left":[0,0,0,0,0,0,0,0,0,0,0,0,0,0,0,0,0,0,0,0,0,0,0,0,0,0,0,0,0,0,0],"id":21,"left_children":[1,3,5,7,9,11,13,15,17,19,21,23,25,27,29,-1,-1,-1,-1,-1,-1,-1,-1,-1,-1,-1,-1,-1,-1,-1,-1],"loss_changes":[1.3154582E2,4.3782295E1,4.827414E1,4.3602707E1,2.5518372E1,4.6720123E1,5.466632E1,3.901329E1,5.5000637E1,2.3938858E1,1.7003614E1,2.1571823E1,2.789222E1,3.434376E1,6.044397E1,0E0,0E0,0E0,0E0,0E0,0E0,0E0,0E0,0E0,0E0,0E0,0E0,0E0,0E0,0E0,0E0],"parents":[2147483647,0,0,1,1,2,2,3,3,4,4,5,5,6,6,7,7,8,8,9,9,10,10,11,11,12,12,13,13,14,14],"right_children":[2,4,6,8,10,12,14,16,18,20,22,24,26,28,30,-1,-1,-1,-1,-1,-1,-1,-1,-1,-1,-1,-1,-1,-1,-1,-1],"split_conditions":[-2.1596285E1,7.6E0,1.4723229E3,2E0,3.3166249E0,-4.861111E-1,3.3333335E-2,5.3333336E-1,-3.3333334E-1,4.762804E-1,-4E0,-1E0,7E-1,-1.9642857E-1,5.1666665E0,-1.1986988E-2,6.124934E-3,3.421866E-2,-4.0185205E-3,-4.520827E-3,3.30753E-2,-2.7833143E-2,8.705472E-3,1.1562931E-2,-1.6728746E-2,1.0254559E-2,4.207897E-2,9.310943E-3,2.1690014E-4,-7.7045425E-3,5.4367664E-3],"split_indices":[86,100,85,30,36,80,106,33,71,49,58,31,34,79,17,0,0,0,0,0,0,0,0,0,0,0,0,0,0,0,0],"split_type":[0,0,0,0,0,0,0,0,0,0,0,0,0,0,0,0,0,0,0,0,0,0,0,0,0,0,0,0,0,0,0],"sum_hessian":[3.8193628E3,1.1843102E3,2.6350527E3,1.1118015E3,7.2508644E1,5.982819E2,2.0367708E3,9.863338E2,1.25467705E2,4.5717896E1,2.6790752E1,7.8201164E1,5.2008075E2,1.0370363E3,9.9973456E2,9.073876E2,7.894618E1,2.7726017E1,9.774169E1,1.4154519E1,3.1563375E1,1.1256324E1,1.5534428E1,2.0824736E1,5.737643E1,5.0479153E2,1.5289196E1,5.063703E2,5.3066595E2,6.808502E2,3.1888437E2],"tree_param":{"num_deleted":"0","num_feature":"115","num_nodes":"31","size_leaf_vector":"1"}},{"base_weights":[-9.954027E-3,-2.941644E-1,1.1436147E-1,-1.5528283E-2,-5.208746E-1,2.7231602E-2,3.9182225E-1,-1.4503948E-1,8.1226367E-1,-1.10955E0,-4.235512E-1,5.0651526E-1,-3.2992847E-2,3.3053893E-1,1.3804668E0,4.121979E-2,-5.2631577E-3,4.5494102E-2,7.582148E-3,1.5871144E-4,-3.4140673E-2,-1.2927939E-2,8.376483E-3,-7.046041E-3,1.7911596E-2,-1.5861773E-3,2.5517255E-2,6.855235E-4,1.3038227E-2,4.795969E-2,7.425797E-3],"categories":[],"categories_nodes":[],"categories_segments":[],"categories_sizes":[],"default_left":[0,0,0,0,0,0,0,0,0,0,0,0,0,0,0,0,0,0,0,0,0,0,0,0,0,0,0,0,0,0,0],"id":22,"left_children":[1,3,5,7,9,11,13,15,17,19,21,23,25,27,29,-1,-1,-1,-1,-1,-1,-1,-1,-1,-1,-1,-1,-1,-1,-1,-1],"loss_changes":[1.3513928E2,7.3450165E1,6.424458E1,5.6622307E1,3.5189606E1,5.8640965E1,3.6952034E1,5.4586716E1,3.4766403E1,2.559771E1,3.996675E1,3.8183754E1,5.8001305E1,3.4769188E1,1.9074905E1,0E0,0E0,0E0,0E0,0E0,0E0,0E0,0E0,0E0,0E0,0E0,0E0,0E0,0E0,0E0,0E0],"parents":[2147483647,0,0,1,1,2,2,3,3,4,4,5,5,6,6,7,7,8,8,9,9,10,10,11,11,12,12,13,13,14,14],"right_children":[2,4,6,8,10,12,14,16,18,20,22,24,26,28,30,-1,-1,-1,-1,-1,-1,-1,-1,-1,-1,-1,-1,-1,-1,-1,-1],"split_conditions":[-2.1596285E1,-2.383649E1,4.5134262E1,6.125E0,-1.8666667E0,-3.3333334E-1,1.0033025E0,-2.9E0,-1.5E-1,-1.7E0,5E-1,-2.65E0,7.083333E-1,1.125E-1,6E-1,4.121979E-2,-5.2631577E-3,4.5494102E-2,7.582148E-3,1.5871144E-4,-3.4140673E-2,-1.2927939E-2,8.376483E-3,-7.046041E-3,1.7911596E-2,-1.5861773E-3,2.5517255E-2,6.855235E-4,1.3038227E-2,4.795969E-2,7.425797E-3],"split_indices":[86,105,86,19,32,64,49,32,106,30,34,68,43,82,28,0,0,0,0,0,0,0,0,0,0,0,0,0,0,0,0],"split_type":[0,0,0,0,0,0,0,0,0,0,0,0,0,0,0,0,0,0,0,0,0,0,0,0,0,0,0,0,0,0,0],"sum_hessian":[3.8185022E3,1.1609778E3,2.6575244E3,5.224778E2,6.385E2,2.0252107E3,6.323138E2,4.540371E2,6.8440674E1,8.601227E1,5.5248773E2,2.2377481E2,1.8014358E3,5.992708E2,3.3042965E1,1.338315E1,4.4065396E2,2.0311813E1,4.812886E1,1.652722E1,6.948505E1,4.927938E2,5.9693924E1,4.674473E1,1.7703008E2,1.7536646E3,4.777131E1,2.3316768E2,3.6610315E2,2.0473635E1,1.2569329E1],"tree_param":{"num_deleted":"0","num_feature":"115","num_nodes":"31","size_leaf_vector":"1"}},{"base_weights":[-9.209699E-3,-3.76135E-1,6.981786E-2,-4.1387075E-1,3.047654E-2,9.895835E-3,3.848815E-1,-4.709672E-1,4.03293E-1,-1.2907927E-1,1.5893042E-1,1.3357385E0,2.4185789E-1,1.254738E-2,-1.3203415E-2,-1.5924156E-2,3.237582E-2,-4.04582E-3,3.0937035E-2,3.0446239E-3,3.0138943E-2,1.4126639E-2,5.300643E-2,8.837214E-3,-1.3161729E-2],"categories":[],"categories_nodes":[],"categories_segments":[],"categories_sizes":[],"default_left":[0,0,0,0,0,0,0,0,0,0,0,0,0,0,0,0,0,0,0,0,0,0,0,0,0],"id":23,"left_children":[1,3,5,7,-1,9,11,13,15,17,19,21,23,-1,-1,-1,-1,-1,-1,-1,-1,-1,-1,-1,-1],"loss_changes":[1.1152188E2,4.2460747E1,5.9675686E1,3.17491E1,0E0,5.518805E1,6.757683E1,3.561377E1,4.4409954E1,6.2194202E1,4.9420177E1,3.5617302E1,3.8527565E1,0E0,0E0,0E0,0E0,0E0,0E0,0E0,0E0,0E0,0E0,0E0,0E0],"parents":[2147483647,0,0,1,1,2,2,3,3,5,5,6,6,7,7,8,8,9,9,10,10,11,11,12,12],"right_children":[2,4,6,8,-1,10,12,14,16,18,20,22,24,-1,-1,-1,-1,-1,-1,-1,-1,-1,-1,-1,-1],"split_conditions":[-4.240474E1,1.5827808E3,6E0,1.5E0,3.047654E-2,7E-1,4.25E-1,-5E0,6.3816386E-1,1.1E1,7.3333335E-1,3.888889E-1,3.75E-1,1.254738E-2,-1.3203415E-2,-1.5924156E-2,3.237582E-2,-4.04582E-3,3.0937035E-2,3.0446239E-3,3.0138943E-2,1.4126639E-2,5.300643E-2,8.837214E-3,-1.3161729E-2],"split_indices":[86,85,100,83,0,83,43,66,49,20,33,42,81,0,0,0,0,0,0,0,0,0,0,0,0],"split_type":[0,0,0,0,0,0,0,0,0,0,0,0,0,0,0,0,0,0,0,0,0,0,0,0,0],"sum_hessian":[3.8391787E3,6.785686E2,3.16061E3,6.6511896E2,1.3449618E1,2.6584167E3,5.021933E2,6.229835E2,4.213545E1,1.375495E3,1.2829218E3,6.2298706E1,4.398946E2,3.3184822E1,5.897987E2,1.9792027E1,2.2343422E1,1.3459534E3,2.9541698E1,1.2422771E3,4.064458E1,3.409435E1,2.8204355E1,3.856179E2,5.4276703E1],"tree_param":{"num_deleted":"0","num_feature":"115","num_nodes":"25","size_leaf_vector":"1"}},{"base_weights":[-1.1820955E-2,-2.6092273E-1,1.3509797E-1,-6.754397E-2,-4.256714E-1,3.995589E-1,5.5599704E-2,3.3296566E-2,-1.12984456E-1,4.442112E-1,-4.8024687E-1,-3.73761E-1,5.165878E-1,-2.0110196E-2,3.3587545E-1,-7.609977E-3,5.456463E-3,4.257911E-2,-5.741626E-3,5.047241E-3,-1.3892295E-2,2.1547811E-2,-1.6507119E-2,-5.994287E-3,1.6293373E-2,3.3282756E-3,-6.6053565E-3,1.3672374E-2,-4.4399234E-3],"categories":[],"categories_nodes":[],"categories_segments":[],"categories_sizes":[],"default_left":[0,0,0,0,0,0,0,0,0,0,0,0,0,0,0,0,0,0,0,0,0,0,0,0,0,0,0,0,0],"id":24,"left_children":[1,3,5,7,9,11,13,-1,15,17,19,21,23,25,27,-1,-1,-1,-1,-1,-1,-1,-1,-1,-1,-1,-1,-1,-1],"loss_changes":[1.3970235E2,4.498381E1,5.0362247E1,4.200299E1,3.6908096E1,5.074082E1,3.9301167E1,0E0,4.063305E1,4.0809326E1,3.744287E1,2.8050175E1,4.984613E1,5.468907E1,4.3001087E1,0E0,0E0,0E0,0E0,0E0,0E0,0E0,0E0,0E0,0E0,0E0,0E0,0E0,0E0],"parents":[2147483647,0,0,1,1,2,2,3,3,4,4,5,5,6,6,8,8,9,9,10,10,11,11,12,12,13,13,14,14],"right_children":[2,4,6,8,10,12,14,-1,16,18,20,22,24,26,28,-1,-1,-1,-1,-1,-1,-1,-1,-1,-1,-1,-1,-1,-1],"split_conditions":[-1.3939888E1,-1.6358248E1,1.4693462E3,-2.9E0,-3.3666666E0,-4.861111E-1,6.3333335E0,3.3296566E-2,5.6666665E0,1.6333333E0,3.7378412E-1,3.3333334E-1,1.4071523E3,1E-1,2.8E0,-7.609977E-3,5.456463E-3,4.257911E-2,-5.741626E-3,5.047241E-3,-1.3892295E-2,2.1547811E-2,-1.6507119E-2,-5.994287E-3,1.6293373E-2,3.3282756E-3,-6.6053565E-3,1.3672374E-2,-4.4399234E-3],"split_indices":[86,105,85,32,35,80,5,0,7,31,49,22,85,35,35,0,0,0,0,0,0,0,0,0,0,0,0,0,0],"split_type":[0,0,0,0,0,0,0,0,0,0,0,0,0,0,0,0,0,0,0,0,0,0,0,0,0,0,0,0,0],"sum_hessian":[3.811004E3,1.4132257E3,2.3977783E3,6.5234863E2,7.60877E2,5.511091E2,1.8466692E3,1.7776123E1,6.345725E2,4.3545856E1,7.173312E2,7.146131E1,4.7964777E2,1.455837E3,3.9083218E2,4.0251636E2,2.3205617E2,1.3636306E1,2.990955E1,7.0803795E1,6.4652734E2,1.2251499E1,5.920981E1,7.224753E1,4.0740024E2,8.949613E2,5.6087573E2,2.7699588E2,1.1383631E2],"tree_param":{"num_deleted":"0","num_feature":"115","num_nodes":"29","size_leaf_vector":"1"}},{"base_weights":[2.6959805E-2,-1.8695322E-1,1.5462707E-1,6.6236116E-4,-3.5010892E-1,1.356749E-1,1.5196595E0,3.3389337E-2,-4.6088815E-2,-0E0,-5.017546E-1,1.9660395E-1,-1.9310535E-1,-1.21981095E-4,5.714277E-2,-4.8599862E-3,9.657362E-3,-4.242695E-3,2.3477571E-2,-2.7032454E-2,-1.0330263E-2,2.8475814E-3,1.138763E-2,-1.5801704E-2,2.6183322E-3],"categories":[],"categories_nodes":[],"categories_segments":[],"categories_sizes":[],"default_left":[0,0,0,0,0,0,0,0,0,0,0,0,0,0,0,0,0,0,0,0,0,0,0,0,0],"id":25,"left_children":[1,3,5,7,9,11,13,-1,15,17,19,21,23,-1,-1,-1,-1,-1,-1,-1,-1,-1,-1,-1,-1],"loss_changes":[1.0405488E2,4.3624958E1,6.0945873E1,4.1819027E1,4.049611E1,4.7326675E1,3.7994537E1,0E0,4.1592567E1,3.769549E1,2.580095E1,4.239775E1,4.8590305E1,0E0,0E0,0E0,0E0,0E0,0E0,0E0,0E0,0E0,0E0,0E0,0E0],"parents":[2147483647,0,0,1,1,2,2,3,3,4,4,5,5,6,6,8,8,9,9,10,10,11,11,12,12],"right_children":[2,4,6,8,10,12,14,-1,16,18,20,22,24,-1,-1,-1,-1,-1,-1,-1,-1,-1,-1,-1,-1],"split_conditions":[-1.3939888E1,-1.6358248E1,1.0857142E1,-2.9E0,5.590168E-1,6E-1,1.0648064E1,3.3389337E-2,2.5E-1,3.75E-1,-1.9666667E0,4.744988E1,7E-1,-1.21981095E-4,5.714277E-2,-4.8599862E-3,9.657362E-3,-4.242695E-3,2.3477571E-2,-2.7032454E-2,-1.0330263E-2,2.8475814E-3,1.138763E-2,-1.5801704E-2,2.6183322E-3],"split_indices":[86,105,20,32,49,72,86,0,33,33,32,86,83,0,0,0,0,0,0,0,0,0,0,0,0],"split_type":[0,0,0,0,0,0,0,0,0,0,0,0,0,0,0,0,0,0,0,0,0,0,0,0,0],"sum_hessian":[3.8041243E3,1.4209962E3,2.3831282E3,6.6205853E2,7.589377E2,2.353819E3,2.9309109E1,1.9675972E1,6.4238257E2,2.3011044E2,5.288273E2,1.9870856E3,3.6673346E2,1.07552185E1,1.855389E1,4.7971817E2,1.6266437E2,1.9689563E2,3.3214813E1,6.547985E1,4.633474E2,1.5095854E3,4.7750006E2,1.4702023E2,2.1971323E2],"tree_param":{"num_deleted":"0","num_feature":"115","num_nodes":"25","size_leaf_vector":"1"}},{"base_weights":[-6.5057515E-3,-3.3348247E-1,6.0862675E-2,-3.9544463E-1,7.371518E-1,3.914542E-2,8.77407E-1,-1.9387233E-1,-6.6494775E-1,3.283272E-3,3.3457574E-2,-8.422007E-2,2.1040925E-1,-3.582136E-1,1.3930641E0,-2.3755169E-2,-9.919241E-4,-2.3160813E-2,-4.4990866E-3,-0E0,-8.888814E-3,7.1387365E-3,-4.891371E-3,-2.2918165E-2,1.0324897E-2,2.3871643E-2,6.624278E-2],"categories":[],"categories_nodes":[],"categories_segments":[],"categories_sizes":[],"default_left":[0,0,0,0,0,0,0,0,0,0,0,0,0,0,0,0,0,0,0,0,0,0,0,0,0,0,0],"id":26,"left_children":[1,3,5,7,9,11,13,15,17,-1,-1,19,21,23,25,-1,-1,-1,-1,-1,-1,-1,-1,-1,-1,-1,-1],"loss_changes":[8.4304054E1,4.4215843E1,5.6059975E1,3.3214912E1,1.2702419E1,6.542266E1,5.380078E1,4.168106E1,3.285601E1,0E0,0E0,4.11417E1,3.9733078E1,1.2580009E1,2.4248817E1,0E0,0E0,0E0,0E0,0E0,0E0,0E0,0E0,0E0,0E0,0E0,0E0],"parents":[2147483647,0,0,1,1,2,2,3,3,4,4,5,5,6,6,7,7,8,8,11,11,12,12,13,13,14,14],"right_children":[2,4,6,8,10,12,14,16,18,-1,-1,20,22,24,26,-1,-1,-1,-1,-1,-1,-1,-1,-1,-1,-1,-1],"split_conditions":[1.4731442E3,7.6666665E0,1.06E1,9.5238096E-1,8.3333336E-2,8E-1,-3E0,-1.6666666E0,1.1111111E-1,3.283272E-3,3.3457574E-2,4E-1,4.5055523E0,6.666667E-1,4E0,-2.3755169E-2,-9.919241E-4,-2.3160813E-2,-4.4990866E-3,-0E0,-8.888814E-3,7.1387365E-3,-4.891371E-3,-2.2918165E-2,1.0324897E-2,2.3871643E-2,6.624278E-2],"split_indices":[4,13,20,79,33,83,26,79,34,0,0,72,36,10,60,0,0,0,0,0,0,0,0,0,0,0,0],"split_type":[0,0,0,0,0,0,0,0,0,0,0,0,0,0,0,0,0,0,0,0,0,0,0,0,0,0,0],"sum_hessian":[3.820146E3,6.508483E2,3.1692976E3,6.171184E2,3.372992E1,3.0903706E3,7.892687E1,3.562178E2,2.6090057E2,1.8703186E1,1.5026734E1,1.7969354E3,1.2934353E3,2.3452326E1,5.5474545E1,5.7591854E1,2.9862595E2,1.6760016E2,9.330041E1,1.3735021E3,4.234333E2,1.0924242E3,2.010112E2,1.3348728E1,1.0103598E1,4.5105267E1,1.0369278E1],"tree_param":{"num_deleted":"0","num_feature":"115","num_nodes":"27","size_leaf_vector":"1"}},{"base_weights":[6.445952E-3,-2.7218392E-1,1.2642583E-1,-3.3990252E-1,2.081935E-1,4.2068028E-1,4.126102E-2,2.1224432E-1,-4.254513E-1,4.452207E-3,5.1076025E-2,-2.09542E-1,5.1319915E-1,-3.877885E-2,3.4544122E-1,1.4636263E-2,-1.3117502E-2,-1.2613066E-2,-1.5712675E-3,-1.0841132E-2,1.6489975E-2,9.744478E-3,-2.0505691E-2,5.8974875E-3,1.9749789E-2,1.8243015E-2,-2.0227816E-3,4.4805068E-3,2.2463188E-2],"categories":[],"categories_nodes":[],"categories_segments":[],"categories_sizes":[],"default_left":[0,0,0,0,0,0,0,0,0,0,0,0,0,0,0,0,0,0,0,0,0,0,0,0,0,0,0,0,0],"id":27,"left_children":[1,3,5,7,9,11,13,15,17,19,-1,21,23,25,27,-1,-1,-1,-1,-1,-1,-1,-1,-1,-1,-1,-1,-1,-1],"loss_changes":[1.2835164E2,3.7816116E1,6.716849E1,4.8193817E1,5.376801E1,3.5448868E1,5.084077E1,3.8851692E1,2.505629E1,3.9073685E1,0E0,2.993172E1,3.970108E1,5.364512E1,3.939777E1,0E0,0E0,0E0,0E0,0E0,0E0,0E0,0E0,0E0,0E0,0E0,0E0,0E0,0E0],"parents":[2147483647,0,0,1,1,2,2,3,3,4,4,5,5,6,6,7,7,8,8,9,9,11,11,12,12,13,13,14,14],"right_children":[2,4,6,8,10,12,14,16,18,20,-1,22,24,26,28,-1,-1,-1,-1,-1,-1,-1,-1,-1,-1,-1,-1,-1,-1],"split_conditions":[-2.250533E1,4.4444445E-1,1.4714512E3,-3.75E-1,3.6666667E0,-4.861111E-1,6.3333335E0,3.2863352E0,2.6E0,-4.240474E1,5.1076025E-2,1.6666667E-1,5E-1,3.7603307E-1,7.1428573E-1,1.4636263E-2,-1.3117502E-2,-1.2613066E-2,-1.5712675E-3,-1.0841132E-2,1.6489975E-2,9.744478E-3,-2.0505691E-2,5.8974875E-3,1.9749789E-2,1.8243015E-2,-2.0227816E-3,4.4805068E-3,2.2463188E-2],"split_indices":[86,33,85,80,59,80,5,38,69,86,0,29,16,43,21,0,0,0,0,0,0,0,0,0,0,0,0,0,0],"split_type":[0,0,0,0,0,0,0,0,0,0,0,0,0,0,0,0,0,0,0,0,0,0,0,0,0,0,0,0,0],"sum_hessian":[3.8337656E3,1.1525511E3,2.6812144E3,1.0111019E3,1.4144919E2,5.989115E2,2.082303E3,1.3488953E2,8.762124E2,1.300682E2,1.1380981E1,7.604318E1,5.2286835E2,1.6503342E3,4.319687E2,9.004235E1,4.484718E1,7.181562E2,1.5805624E2,7.8462135E1,5.160608E1,3.8843746E1,3.7199432E1,2.6415115E2,2.5871716E2,8.310776E1,1.5672264E3,3.3534055E2,9.662814E1],"tree_param":{"num_deleted":"0","num_feature":"115","num_nodes":"29","size_leaf_vector":"1"}},{"base_weights":[-3.60515E-3,-2.0958059E-1,1.2062873E-1,-3.2358995E-1,1.611229E-1,4.1896832E-1,5.2337933E-2,-4.3257686E-1,1.5355512E-3,-7.65743E-1,2.681104E-1,4.8830768E-1,-8.261683E-1,-1.8748796E-2,3.4034285E-1,-1.3159829E-2,-5.998751E-4,5.2795154E-3,-1.6608266E-2,-3.5854127E-2,-5.354596E-4,1.595806E-2,-1.4534727E-3,-4.408917E-4,1.7549146E-2,-1.5720649E-3,-3.3838134E-2,2.7270565E-2,-9.4296754E-4,-1.7940163E-3,1.402635E-2],"categories":[],"categories_nodes":[],"categories_segments":[],"categories_sizes":[],"default_left":[0,0,0,0,0,0,0,0,0,0,0,0,0,0,0,0,0,0,0,0,0,0,0,0,0,0,0,0,0,0,0],"id":28,"left_children":[1,3,5,7,9,11,13,15,17,19,21,23,25,27,29,-1,-1,-1,-1,-1,-1,-1,-1,-1,-1,-1,-1,-1,-1,-1,-1],"loss_changes":[9.756042E1,6.0801945E1,4.8330246E1,3.8963837E1,3.4203922E1,3.935353E1,3.97394E1,3.1447464E1,3.925331E1,1.7566072E1,3.718062E1,4.5596016E1,9.410097E0,3.279765E1,3.5114124E1,0E0,0E0,0E0,0E0,0E0,0E0,0E0,0E0,0E0,0E0,0E0,0E0,0E0,0E0,0E0,0E0],"parents":[2147483647,0,0,1,1,2,2,3,3,4,4,5,5,6,6,7,7,8,8,9,9,10,10,11,11,12,12,13,13,14,14],"right_children":[2,4,6,8,10,12,14,16,18,20,22,24,26,28,30,-1,-1,-1,-1,-1,-1,-1,-1,-1,-1,-1,-1,-1,-1,-1,-1],"split_conditions":[-1.35468645E1,6.3333335E0,1.4629786E3,4E0,1.4219586E3,5.555556E-1,7.1428573E-1,1.8333334E-1,1.25E0,6.25E0,8.125E0,-2.857143E-1,0E0,-1.2612864E1,4E0,-1.3159829E-2,-5.998751E-4,5.2795154E-3,-1.6608266E-2,-3.5854127E-2,-5.354596E-4,1.595806E-2,-1.4534727E-3,-4.408917E-4,1.7549146E-2,-1.5720649E-3,-3.3838134E-2,2.7270565E-2,-9.4296754E-4,-1.7940163E-3,1.402635E-2],"split_indices":[86,7,85,102,4,80,21,106,78,13,18,80,34,86,100,0,0,0,0,0,0,0,0,0,0,0,0,0,0,0,0],"split_type":[0,0,0,0,0,0,0,0,0,0,0,0,0,0,0,0,0,0,0,0,0,0,0,0,0,0,0,0,0,0,0],"sum_hessian":[3.8062615E3,1.4315483E3,2.3747131E3,1.0953315E3,3.3621677E2,4.3918625E2,1.9355269E3,8.1982886E2,2.7550272E2,3.2784843E1,3.0343192E2,4.1782227E2,2.1363958E1,1.5543358E3,3.81191E2,6.658339E2,1.5399493E2,2.1120459E2,6.429811E1,1.5737461E1,1.7047382E1,1.4093855E2,1.6249338E2,1.2473459E2,2.9308768E2,1.0178766E1,1.1185192E1,2.3189268E1,1.5311466E3,1.3349873E2,2.4769228E2],"tree_param":{"num_deleted":"0","num_feature":"115","num_nodes":"31","size_leaf_vector":"1"}},{"base_weights":[1.7543542E-4,-7.357166E-2,3.4580982E-1,-3.0857092E-1,-2.786539E-4,2.2466587E-2,5.1967317E-1,-3.4160733E-1,3.203645E-2,-1.6618213E-2,1.0857699E0,-1.6320726E-1,8.190492E-1,7.6480365E-1,-0E0,-1.1139062E-2,2.2514595E-3,7.899388E-3,-1.6426862E-3,-1.1495896E-2,4.770128E-2,-6.597161E-3,3.1690508E-2,3.7522685E-2,-8.0620535E-3,1.2814215E-2,3.3650383E-2,3.0517489E-2,-7.7975686E-3],"categories":[],"categories_nodes":[],"categories_segments":[],"categories_sizes":[],"default_left":[0,0,0,0,0,0,0,0,0,0,0,0,0,0,0,0,0,0,0,0,0,0,0,0,0,0,0,0,0],"id":29,"left_children":[1,3,5,7,9,11,13,15,-1,17,19,21,23,25,27,-1,-1,-1,-1,-1,-1,-1,-1,-1,-1,-1,-1,-1,-1],"loss_changes":[9.7489235E1,5.4241154E1,3.7723213E1,4.0552284E1,4.2629112E1,3.5747017E1,5.568303E1,3.318212E1,0E0,3.877435E1,4.8027634E1,2.91155E1,3.71333E1,4.1284348E1,5.5612354E1,0E0,0E0,0E0,0E0,0E0,0E0,0E0,0E0,0E0,0E0,0E0,0E0,0E0,0E0],"parents":[2147483647,0,0,1,1,2,2,3,3,4,4,5,5,6,6,7,7,9,9,10,10,11,11,12,12,13,13,14,14],"right_children":[2,4,6,8,10,12,14,16,-1,18,20,22,24,26,28,-1,-1,-1,-1,-1,-1,-1,-1,-1,-1,-1,-1,-1,-1],"split_conditions":[4.240474E1,-3.930427E1,4.428571E0,1.5827808E3,1.1E1,2E0,3.847077E0,6.25E0,3.203645E-2,-3.3333334E-1,-2.75E0,9.75E0,-6.666667E-1,-5.357143E-2,5E-1,-1.1139062E-2,2.2514595E-3,7.899388E-3,-1.6426862E-3,-1.1495896E-2,4.770128E-2,-6.597161E-3,3.1690508E-2,3.7522685E-2,-8.0620535E-3,1.2814215E-2,3.3650383E-2,3.0517489E-2,-7.7975686E-3],"split_indices":[86,86,17,85,20,58,37,13,0,64,26,20,78,78,67,0,0,0,0,0,0,0,0,0,0,0,0,0,0],"split_type":[0,0,0,0,0,0,0,0,0,0,0,0,0,0,0,0,0,0,0,0,0,0,0,0,0,0,0,0,0],"sum_hessian":[3.817615E3,3.1480056E3,6.6960956E2,7.457889E2,2.4022166E3,2.3553497E2,4.3407455E2,7.32978E2,1.2810897E1,2.369612E3,3.2604553E1,1.9284494E2,4.2690033E1,2.9399463E2,1.4007993E2,5.9082794E2,1.4215002E2,3.0240228E2,2.0672097E3,1.1739349E1,2.0865202E1,1.8251874E2,1.0326199E1,2.6189621E1,1.6500412E1,2.090769E2,8.491773E1,2.6724651E1,1.1335527E2],"tree_param":{"num_deleted":"0","num_feature":"115","num_nodes":"29","size_leaf_vector":"1"}},{"base_weights":[-3.3547264E-3,3.188766E-1,-7.2553456E-2,-2.4844317E-1,4.027942E-1,-1.263122E-1,3.048535E-1,-9.0948814E-1,1.7950751E-1,4.7290793E-1,-3.4354737E-1,-1.4549562E-1,8.631069E-1,4.4143578E-1,-4.5845407E-1,4.4077854E-3,-3.4822877E-2,3.0340184E-2,-6.119672E-3,9.311059E-3,2.9626096E-2,-1.9723417E-2,1.1238144E-2,-5.602455E-3,1.0604562E-3,-8.760226E-5,3.5372715E-2,2.1279382E-2,4.103189E-3,-3.3060294E-2,-1.6818956E-3],"categories":[],"categories_nodes":[],"categories_segments":[],"categories_sizes":[],"default_left":[0,0,0,0,0,0,0,0,0,0,0,0,0,0,0,0,0,0,0,0,0,0,0,0,0,0,0,0,0,0,0],"id":30,"left_children":[1,3,5,7,9,11,13,15,17,19,21,23,25,27,29,-1,-1,-1,-1,-1,-1,-1,-1,-1,-1,-1,-1,-1,-1,-1,-1],"loss_changes":[8.5543846E1,3.2601555E1,6.419491E1,2.5765507E1,3.1482681E1,5.2836746E1,4.1738575E1,1.9543037E1,2.5774933E1,3.734137E1,1.9628036E1,4.018856E1,2.5488209E1,3.7691475E1,2.0292051E1,0E0,0E0,0E0,0E0,0E0,0E0,0E0,0E0,0E0,0E0,0E0,0E0,0E0,0E0,0E0,0E0],"parents":[2147483647,0,0,1,1,2,2,3,3,4,4,5,5,6,6,7,7,8,8,9,9,10,10,11,11,12,12,13,13,14,14],"right_children":[2,4,6,8,10,12,14,16,18,20,22,24,26,28,30,-1,-1,-1,-1,-1,-1,-1,-1,-1,-1,-1,-1,-1,-1,-1,-1],"split_conditions":[1.4738618E3,-4.861111E-1,5.875E0,7.875E0,4.1666666E-1,7.2727275E-1,4.3333335E0,7E0,4.3333335E0,4.1666666E-1,5E-1,5.6666665E0,-1.6666667E-1,-3.3333334E-1,-4.3118358E-1,4.4077854E-3,-3.4822877E-2,3.0340184E-2,-6.119672E-3,9.311059E-3,2.9626096E-2,-1.9723417E-2,1.1238144E-2,-5.602455E-3,1.0604562E-3,-8.760226E-5,3.5372715E-2,2.1279382E-2,4.103189E-3,-3.3060294E-2,-1.6818956E-3],"split_indices":[85,80,17,18,80,43,24,6,17,34,99,7,72,32,86,0,0,0,0,0,0,0,0,0,0,0,0,0,0,0,0],"split_type":[0,0,0,0,0,0,0,0,0,0,0,0,0,0,0,0,0,0,0,0,0,0,0,0,0,0,0,0,0,0,0],"sum_hessian":[3.8313833E3,6.751597E2,3.1562234E3,8.6088745E1,5.89071E2,2.7646772E3,3.9154623E2,3.2596207E1,5.3492542E1,5.3961127E2,4.945973E1,2.714703E3,4.9974327E1,3.3330283E2,5.8243427E1,1.0565223E1,2.2030983E1,1.400763E1,3.9484913E1,4.7702383E2,6.2587406E1,3.176325E1,1.7696478E1,1.9140348E3,8.00668E2,2.0530565E1,2.9443764E1,1.3187733E2,2.0142549E2,1.5846779E1,4.239665E1],"tree_param":{"num_deleted":"0","num_feature":"115","num_nodes":"31","size_leaf_vector":"1"}},{"base_weights":[-6.123785E-3,3.7201646E-1,-6.185447E-2,-8.397774E-2,5.874112E-1,-1.06142335E-1,3.7677652E-1,3.042576E-2,-2.1414219E-1,-1.0050798E-1,8.2377917E-1,-8.869037E-2,-9.0424216E-1,8.479007E-1,7.577764E-2,-1.8077634E-2,6.493084E-3,2.0007422E-2,-1.0000443E-2,-8.394065E-3,2.6243567E-2,4.772223E-3,-3.462048E-3,-3.441545E-2,7.892988E-4,9.908599E-3,3.6541305E-2,1.4433895E-2,-6.483686E-3],"categories":[],"categories_nodes":[],"categories_segments":[],"categories_sizes":[],"default_left":[0,0,0,0,0,0,0,0,0,0,0,0,0,0,0,0,0,0,0,0,0,0,0,0,0,0,0,0,0],"id":31,"left_children":[1,3,5,7,9,11,13,-1,15,17,19,21,23,25,27,-1,-1,-1,-1,-1,-1,-1,-1,-1,-1,-1,-1,-1,-1],"loss_changes":[8.090886E1,4.8631905E1,6.5118576E1,2.7891617E1,5.4864143E1,4.204305E1,4.331131E1,0E0,3.6469772E1,2.475664E1,6.665677E1,4.1575073E1,2.8851036E1,3.1173729E1,3.2588078E1,0E0,0E0,0E0,0E0,0E0,0E0,0E0,0E0,0E0,0E0,0E0,0E0,0E0,0E0],"parents":[2147483647,0,0,1,1,2,2,3,3,4,4,5,5,6,6,8,8,9,9,10,10,11,11,12,12,13,13,14,14],"right_children":[2,4,6,8,10,12,14,-1,16,18,20,22,24,26,28,-1,-1,-1,-1,-1,-1,-1,-1,-1,-1,-1,-1,-1,-1],"split_conditions":[1.4648988E3,-7.6666665E-1,6.1E0,-4E0,-2.857143E-1,5.8E0,1.1E0,3.042576E-2,1.125E-1,3.3333334E-1,1.4071523E3,-1.5E0,3.6666667E0,6.123723E-1,1.6E0,-1.8077634E-2,6.493084E-3,2.0007422E-2,-1.0000443E-2,-8.394065E-3,2.6243567E-2,4.772223E-3,-3.462048E-3,-3.441545E-2,7.892988E-4,9.908599E-3,3.6541305E-2,1.4433895E-2,-6.483686E-3],"split_indices":[85,35,17,74,80,74,28,0,82,22,85,79,24,49,67,0,0,0,0,0,0,0,0,0,0,0,0,0,0],"split_type":[0,0,0,0,0,0,0,0,0,0,0,0,0,0,0,0,0,0,0,0,0,0,0,0,0,0,0,0,0],"sum_hessian":[3.8344666E3,4.9011948E2,3.3443472E3,1.576782E2,3.3244128E2,3.039914E3,3.0443317E2,1.1992614E1,1.456856E2,8.534798E1,2.4709329E2,2.9782476E3,6.166633E1,1.16423584E2,1.8800958E2,6.958248E1,7.610311E1,1.9961592E1,6.538638E1,3.998879E1,2.071045E2,4.4863794E2,2.5296096E3,4.011235E1,2.1553978E1,7.0013016E1,4.6410572E1,7.455455E1,1.1345503E2],"tree_param":{"num_deleted":"0","num_feature":"115","num_nodes":"29","size_leaf_vector":"1"}},{"base_weights":[2.7622583E-3,3.1009084E-1,-5.314649E-2,-7.712459E-1,3.7376842E-1,-1.1604229E-1,2.3000747E-1,6.068248E-3,-3.4016196E-2,4.2636913E-1,-7.052336E-1,7.249087E-1,-1.4132638E-1,3.7003553E-1,-2.618034E-1,1.3260884E-3,1.4693054E-2,2.5536734E-4,-3.204265E-2,4.0896377E-3,4.609629E-2,-5.3311153E-3,1.8000597E-3,-1.869655E-2,1.1008051E-2,1.6961351E-2,-1.2851739E-2],"categories":[],"categories_nodes":[],"categories_segments":[],"categories_sizes":[],"default_left":[0,0,0,0,0,0,0,0,0,0,0,0,0,0,0,0,0,0,0,0,0,0,0,0,0,0,0],"id":32,"left_children":[1,3,5,7,9,11,13,-1,-1,15,17,19,21,23,25,-1,-1,-1,-1,-1,-1,-1,-1,-1,-1,-1,-1],"loss_changes":[6.563207E1,4.131067E1,5.7599445E1,2.1177626E1,3.250882E1,5.6500324E1,4.078534E1,0E0,0E0,3.1974503E1,1.1281886E1,4.762991E1,3.9504276E1,3.702023E1,3.231086E1,0E0,0E0,0E0,0E0,0E0,0E0,0E0,0E0,0E0,0E0,0E0,0E0],"parents":[2147483647,0,0,1,1,2,2,3,3,4,4,5,5,6,6,9,9,10,10,11,11,12,12,13,13,14,14],"right_children":[2,4,6,8,10,12,14,-1,-1,16,18,20,22,24,26,-1,-1,-1,-1,-1,-1,-1,-1,-1,-1,-1,-1],"split_conditions":[1.4693462E3,-4E0,6.3333335E0,-1.8E0,5.555556E-1,-4.5E-1,2.7E0,6.068248E-3,-3.4016196E-2,-2.857143E-1,0E0,1.5249564E3,9.666667E0,-3.6E0,7.5E0,1.3260884E-3,1.4693054E-2,2.5536734E-4,-3.204265E-2,4.0896377E-3,4.609629E-2,-5.3311153E-3,1.8000597E-3,-1.869655E-2,1.1008051E-2,1.6961351E-2,-1.2851739E-2],"split_indices":[85,24,5,74,80,106,30,0,0,80,34,4,8,70,20,0,0,0,0,0,0,0,0,0,0,0,0],"split_type":[0,0,0,0,0,0,0,0,0,0,0,0,0,0,0,0,0,0,0,0,0,0,0,0,0,0,0],"sum_hessian":[3.812364E3,5.849673E2,3.2273967E3,3.0590532E1,5.543768E2,2.6425435E3,5.848534E2,1.1831357E1,1.8759174E1,5.30426E2,2.3950743E1,7.459341E1,2.56795E3,4.5597473E2,1.2887866E2,1.6145969E2,3.6896634E2,1.192466E1,1.2026083E1,5.2023514E1,2.2569891E1,1.9208542E3,6.4709576E2,2.5178051E1,4.307967E2,2.6106958E1,1.02771706E2],"tree_param":{"num_deleted":"0","num_feature":"115","num_nodes":"27","size_leaf_vector":"1"}},{"base_weights":[6.8611177E-3,-2.4235629E-1,9.128663E-2,5.9013414E-1,-2.8216925E-1,-4.3706855E-1,1.3249351E-1,1.2877045E0,-1.4304264E-1,2.9171202E-1,-3.439698E-1,2.0708326E-2,-5.280902E-1,8.3868533E-1,1.0290017E-1,5.16057E-2,5.7408246E-3,1.1022921E-2,-1.8666504E-2,-1.0399879E-2,2.352E-2,-2.1467913E-2,-6.8291174E-3,-6.5227835E-3,-2.3274917E-2,1.3771367E-2,5.485749E-2,1.0775696E-2,1.0564676E-3],"categories":[],"categories_nodes":[],"categories_segments":[],"categories_sizes":[],"default_left":[0,0,0,0,0,0,0,0,0,0,0,0,0,0,0,0,0,0,0,0,0,0,0,0,0,0,0,0,0],"id":33,"left_children":[1,3,5,7,9,11,13,15,17,19,21,-1,23,25,27,-1,-1,-1,-1,-1,-1,-1,-1,-1,-1,-1,-1,-1,-1],"loss_changes":[8.0401245E1,3.2513977E1,6.2302147E1,2.3673788E1,3.310775E1,2.5133247E1,5.5047615E1,1.7592152E1,9.676186E0,4.3203728E1,2.9670265E1,0E0,2.0152885E1,3.748456E1,5.0595825E1,0E0,0E0,0E0,0E0,0E0,0E0,0E0,0E0,0E0,0E0,0E0,0E0,0E0,0E0],"parents":[2147483647,0,0,1,1,2,2,3,3,4,4,5,5,6,6,7,7,8,8,9,9,10,10,12,12,13,13,14,14],"right_children":[2,4,6,8,10,12,14,16,18,20,22,-1,24,26,28,-1,-1,-1,-1,-1,-1,-1,-1,-1,-1,-1,-1,-1,-1],"split_conditions":[-2.9691273E1,-5E0,-3.1666667E0,3E0,-2.25E0,-3.9E0,-2.8888888E0,1.5333333E0,-5.6666665E0,6.753548E-1,1.4219586E3,2.0708326E-2,4E0,-2.9E0,1.4655565E3,5.16057E-2,5.7408246E-3,1.1022921E-2,-1.8666504E-2,-1.0399879E-2,2.352E-2,-2.1467913E-2,-6.8291174E-3,-6.5227835E-3,-2.3274917E-2,1.3771367E-2,5.485749E-2,1.0775696E-2,1.0564676E-3],"split_indices":[86,66,69,37,70,78,79,79,66,49,4,0,102,79,85,0,0,0,0,0,0,0,0,0,0,0,0,0,0],"split_type":[0,0,0,0,0,0,0,0,0,0,0,0,0,0,0,0,0,0,0,0,0,0,0,0,0,0,0,0,0],"sum_hessian":[3.8158594E3,9.638511E2,2.8520083E3,4.1984016E1,9.2186707E2,2.0407751E2,2.647931E3,2.0421583E1,2.1562433E1,8.838096E1,8.3348615E2,1.1990015E1,1.920875E2,1.0306521E2,2.5448657E3,1.0077988E1,1.03435955E1,1.1286481E1,1.0275952E1,4.2722954E1,4.5658005E1,9.6577896E1,7.369082E2,1.1861885E2,7.346864E1,8.855549E1,1.4509716E1,3.9384103E2,2.1510247E3],"tree_param":{"num_deleted":"0","num_feature":"115","num_nodes":"29","size_leaf_vector":"1"}},{"base_weights":[1.1733695E-2,-2.3964219E-1,1.18865766E-1,-1.2850885E-2,-4.1913417E-1,4.8613682E-1,7.677377E-2,3.482509E-2,-6.2740676E-2,3.3565286E-1,-4.7884E-1,3.8387007E-1,5.0485548E-2,1.7287131E-2,3.831941E-1,-4.226577E-3,1.5218175E-2,-6.159897E-3,4.7873985E-2,-8.753031E-3,-2.1945614E-2,1.636467E-2,-3.3567946E-3,-1.2249722E-2,1.5063356E-3,1.30840335E-2,-7.315952E-3],"categories":[],"categories_nodes":[],"categories_segments":[],"categories_sizes":[],"default_left":[0,0,0,0,0,0,0,0,0,0,0,0,0,0,0,0,0,0,0,0,0,0,0,0,0,0,0],"id":34,"left_children":[1,3,5,7,9,11,13,-1,15,17,19,21,-1,23,25,-1,-1,-1,-1,-1,-1,-1,-1,-1,-1,-1,-1],"loss_changes":[1.0286881E2,4.6402344E1,4.124241E1,3.572999E1,2.9193054E1,4.0496674E1,4.381622E1,0E0,3.5470196E1,4.599932E1,2.9330643E1,3.6956978E1,0E0,4.405502E1,3.7513493E1,0E0,0E0,0E0,0E0,0E0,0E0,0E0,0E0,0E0,0E0,0E0,0E0],"parents":[2147483647,0,0,1,1,2,2,3,3,4,4,5,5,6,6,8,8,9,9,10,10,11,11,13,13,14,14],"right_children":[2,4,6,8,10,12,14,-1,16,18,20,22,-1,24,26,-1,-1,-1,-1,-1,-1,-1,-1,-1,-1,-1,-1],"split_conditions":[-2.250533E1,-2.60555E1,-3.3333334E-1,-2.9E0,-2.2E0,-6.666667E-1,5.875E0,3.482509E-2,6.125E0,3.3333334E-1,3.8340578E0,8.3333336E-2,5.0485548E-2,-3.1666667E0,3.6E0,-4.226577E-3,1.5218175E-2,-6.159897E-3,4.7873985E-2,-8.753031E-3,-2.1945614E-2,1.636467E-2,-3.3567946E-3,-1.2249722E-2,1.5063356E-3,1.30840335E-2,-7.315952E-3],"split_indices":[86,105,64,32,29,65,17,0,19,63,37,72,0,69,26,0,0,0,0,0,0,0,0,0,0,0,0],"split_type":[0,0,0,0,0,0,0,0,0,0,0,0,0,0,0,0,0,0,0,0,0,0,0,0,0,0,0],"sum_hessian":[3.814075E3,1.138363E3,2.675712E3,5.0458408E2,6.3377905E2,2.7162668E2,2.4040852E3,1.4456009E1,4.9012805E2,4.5319557E1,5.884595E2,2.5822025E2,1.3406431E1,2.016173E3,3.8791235E2,4.251949E2,6.4933174E1,3.4918926E1,1.0400631E1,4.4936908E2,1.390904E2,1.6921333E2,8.900691E1,1.5481618E2,1.8613567E3,3.219623E2,6.595006E1],"tree_param":{"num_deleted":"0","num_feature":"115","num_nodes":"27","size_leaf_vector":"1"}},{"base_weights":[6.3375747E-3,-1.0377598E-1,1.75926E-1,-1.570849E-1,3.001207E-1,1.5328036E-1,4.412636E-2,-1.4233263E-1,-4.0211447E-2,-7.0748264E-1,4.2971167E-1,1.9711535E-1,-4.5482564E-1,-4.365205E-3,1.1404059E-2,-3.6103856E-2,1.2340571E-2,-1.9417798E-2,1.3892258E-2,3.134803E-2,4.2054374E-3,-1.972558E-2,5.4643145E-3],"categories":[],"categories_nodes":[],"categories_segments":[],"categories_sizes":[],"default_left":[0,0,0,0,0,0,0,0,0,0,0,0,0,0,0,0,0,0,0,0,0,0,0],"id":35,"left_children":[1,3,5,7,9,11,-1,13,-1,15,17,19,21,-1,-1,-1,-1,-1,-1,-1,-1,-1,-1],"loss_changes":[7.214208E1,5.055062E1,5.3734303E1,4.3480415E1,3.6644882E1,4.0308353E1,0E0,3.9878212E1,0E0,3.0773296E1,3.8449856E1,4.210886E1,2.3487387E1,0E0,0E0,0E0,0E0,0E0,0E0,0E0,0E0,0E0,0E0],"parents":[2147483647,0,0,1,1,2,2,3,3,4,4,5,5,7,7,9,9,10,10,11,11,12,12],"right_children":[2,4,6,8,10,12,-1,14,-1,16,18,20,22,-1,-1,-1,-1,-1,-1,-1,-1,-1,-1],"split_conditions":[1.1086119E1,5.7E0,1.0833333E1,6.6E0,1.4931061E3,3.6666667E0,4.412636E-2,7.6E0,-4.0211447E-2,7.3333335E0,-6.666667E-1,-4E-1,4.5134262E1,-4.365205E-3,1.1404059E-2,-3.6103856E-2,1.2340571E-2,-1.9417798E-2,1.3892258E-2,3.134803E-2,4.2054374E-3,-1.972558E-2,5.4643145E-3],"split_indices":[86,17,20,74,85,61,0,100,0,5,62,106,86,0,0,0,0,0,0,0,0,0,0],"split_type":[0,0,0,0,0,0,0,0,0,0,0,0,0,0,0,0,0,0,0,0,0,0,0],"sum_hessian":[3.8569207E3,2.3388699E3,1.5180507E3,2.0680022E3,2.7086758E2,1.5000271E3,1.8023615E1,2.0505232E3,1.7479134E1,2.925473E1,2.4161284E2,1.4012134E3,9.881368E1,1.9477756E3,1.0274754E2,1.7808483E1,1.1446247E1,2.1304264E1,2.2030858E2,3.3818607E1,1.3673948E3,6.579433E1,3.301936E1],"tree_param":{"num_deleted":"0","num_feature":"115","num_nodes":"23","size_leaf_vector":"1"}},{"base_weights":[2.9007702E-3,-2.7164823E-1,9.6713364E-2,3.0877674E-1,-3.3131433E-1,8.2303E-2,1.2140484E0,9.1712344E-1,-2.3702233E-1,-8.987305E-1,-2.631097E-1,1.6380517E-2,3.1257346E-1,-5.2587474E-3,2.0352397E0,-1.0191617E-2,3.615608E-2,-1.497615E-2,1.7200068E-2,-2.9838268E-2,-8.929821E-3,1.8554812E-2,-7.4907443E-3,9.702471E-3,-9.944285E-4,9.275853E-3,-1.3125238E-2,2.6149366E-2,6.3683525E-2],"categories":[],"categories_nodes":[],"categories_segments":[],"categories_sizes":[],"default_left":[0,0,0,0,0,0,0,0,0,0,0,0,0,0,0,0,0,0,0,0,0,0,0,0,0,0,0,0,0],"id":36,"left_children":[1,3,5,7,9,11,13,15,17,19,21,23,25,-1,27,-1,-1,-1,-1,-1,-1,-1,-1,-1,-1,-1,-1,-1,-1],"loss_changes":[9.859882E1,3.406984E1,4.552239E1,3.135608E1,3.34468E1,4.2773064E1,4.361387E1,3.2951004E1,1.8283361E1,1.3513123E1,2.9808617E1,4.5934166E1,3.1286804E1,0E0,3.3909683E0,0E0,0E0,0E0,0E0,0E0,0E0,0E0,0E0,0E0,0E0,0E0,0E0,0E0,0E0],"parents":[2147483647,0,0,1,1,2,2,3,3,4,4,5,5,6,6,7,7,8,8,9,9,10,10,11,11,12,12,14,14],"right_children":[2,4,6,8,10,12,14,16,18,20,22,24,26,-1,28,-1,-1,-1,-1,-1,-1,-1,-1,-1,-1,-1,-1,-1,-1],"split_conditions":[-2.9136784E1,-2.25E0,1.1E1,0E0,1.4160747E3,4.5134262E1,-2.75E0,-5.3333335E0,5.123457E-1,3.6666667E-1,-5.3333335E0,4.3333334E-1,7.5E-1,-5.2587474E-3,9.307079E0,-1.0191617E-2,3.615608E-2,-1.497615E-2,1.7200068E-2,-2.9838268E-2,-8.929821E-3,1.8554812E-2,-7.4907443E-3,9.702471E-3,-9.944285E-4,9.275853E-3,-1.3125238E-2,2.6149366E-2,6.3683525E-2],"split_indices":[86,70,20,62,4,86,26,61,43,30,23,43,73,0,86,0,0,0,0,0,0,0,0,0,0,0,0,0,0],"split_type":[0,0,0,0,0,0,0,0,0,0,0,0,0,0,0,0,0,0,0,0,0,0,0,0,0,0,0,0,0],"sum_hessian":[3.822785E3,9.7184906E2,2.8509358E3,8.9267166E1,8.825819E2,2.8179036E3,3.303225E1,4.133617E1,4.7931E1,9.062727E1,7.9195465E2,2.1935698E3,6.2433386E2,1.285111E1,2.0181139E1,1.1940265E1,2.9395905E1,3.5286396E1,1.2644601E1,5.622382E1,3.4403454E1,2.5633175E1,7.663215E2,2.8580695E2,1.907763E3,5.85274E2,3.9059826E1,1.0063511E1,1.0117628E1],"tree_param":{"num_deleted":"0","num_feature":"115","num_nodes":"29","size_leaf_vector":"1"}},{"base_weights":[9.234592E-3,-4.307717E-2,3.8779518E-1,-3.3368278E-1,1.1791479E-2,5.87873E-1,2.437021E-2,-3.7709662E-1,3.2707233E-2,-1.3866427E-2,7.868815E-1,-1.3805406E-2,6.6253555E-1,4.5526212E-1,-3.9620408E-1,9.455901E-3,-1.1304046E-2,8.130586E-3,-1.5492612E-3,4.8076432E-2,2.8107997E-3,9.071496E-3,2.8714342E-2,1.7215053E-2,-2.2677304E-2,-2.960614E-2,-1.8992806E-3],"categories":[],"categories_nodes":[],"categories_segments":[],"categories_sizes":[],"default_left":[0,0,0,0,0,0,0,0,0,0,0,0,0,0,0,0,0,0,0,0,0,0,0,0,0,0,0],"id":37,"left_children":[1,3,5,7,9,11,13,15,-1,17,19,-1,21,23,25,-1,-1,-1,-1,-1,-1,-1,-1,-1,-1,-1,-1],"loss_changes":[7.5621216E1,5.3519825E1,3.3607895E1,3.9384117E1,5.626553E1,2.6535103E1,3.097863E1,3.010012E1,0E0,4.4663403E1,6.861621E1,0E0,3.964277E1,2.8700577E1,2.14244E1,0E0,0E0,0E0,0E0,0E0,0E0,0E0,0E0,0E0,0E0,0E0,0E0],"parents":[2147483647,0,0,1,1,2,2,3,3,4,4,5,5,6,6,7,7,9,9,10,10,12,12,13,13,14,14],"right_children":[2,4,6,8,10,12,14,16,-1,18,20,-1,22,24,26,-1,-1,-1,-1,-1,-1,-1,-1,-1,-1,-1,-1],"split_conditions":[6E-1,-5.047695E1,3.3333334E-1,1.5827808E3,1.06E1,-1.75E0,3.0952382E-1,-3.6E0,3.2707233E-2,-3.3333334E-1,5.6666665E0,-1.3805406E-2,8E0,3E0,-2E0,9.455901E-3,-1.1304046E-2,8.130586E-3,-1.5492612E-3,4.8076432E-2,2.8107997E-3,9.071496E-3,2.8714342E-2,1.7215053E-2,-2.2677304E-2,-2.960614E-2,-1.8992806E-3],"split_indices":[43,86,60,85,20,26,78,26,0,64,13,0,14,83,23,0,0,0,0,0,0,0,0,0,0,0,0],"split_type":[0,0,0,0,0,0,0,0,0,0,0,0,0,0,0,0,0,0,0,0,0,0,0,0,0,0,0],"sum_hessian":[3.8113699E3,3.3507393E3,4.606307E2,5.3003687E2,2.8207024E3,2.9570636E2,1.6492435E2,5.1869446E2,1.1342399E1,2.7330474E3,8.765511E1,1.6913357E1,2.78793E2,8.145817E1,8.346618E1,4.567256E1,4.730219E2,3.3714172E2,2.3959055E3,3.0527092E1,5.7128017E1,1.7582828E2,1.0296471E2,7.0875824E1,1.0582346E1,2.168829E1,6.1777893E1],"tree_param":{"num_deleted":"0","num_feature":"115","num_nodes":"27","size_leaf_vector":"1"}},{"base_weights":[8.182184E-3,-4.0078722E-2,4.139847E-1,-1.1570952E-1,1.7399514E-1,7.491592E-1,1.3077332E-1,3.1585444E-2,-1.276073E-1,1.1372446E-1,9.0458816E-1,3.468959E-1,1.2938312E0,-1.3028906E-1,6.4701986E-1,-3.5147022E-3,2.2701675E-2,3.8378008E-3,-2.19313E-2,1.3734776E-4,3.944688E-2,1.3680487E-2,-2.5819262E-2,-7.6229423E-3,3.96615E-2,8.856309E-3,-1.2453373E-2,5.6649762E-5,2.7307285E-2],"categories":[],"categories_nodes":[],"categories_segments":[],"categories_sizes":[],"default_left":[0,0,0,0,0,0,0,0,0,0,0,0,0,0,0,0,0,0,0,0,0,0,0,0,0,0,0,0,0],"id":38,"left_children":[1,3,5,7,9,11,13,-1,15,17,19,21,23,25,27,-1,-1,-1,-1,-1,-1,-1,-1,-1,-1,-1,-1,-1,-1],"loss_changes":[7.513361E1,5.554259E1,3.832579E1,4.1959553E1,3.902397E1,3.9232826E1,3.0603315E1,0E0,3.4127506E1,3.309151E1,4.079261E1,3.2370865E1,3.7972992E1,2.7578297E1,2.1741083E1,0E0,0E0,0E0,0E0,0E0,0E0,0E0,0E0,0E0,0E0,0E0,0E0,0E0,0E0],"parents":[2147483647,0,0,1,1,2,2,3,3,4,4,5,5,6,6,8,8,9,9,10,10,11,11,12,12,13,13,14,14],"right_children":[2,4,6,8,10,12,14,-1,16,18,20,22,24,26,28,-1,-1,-1,-1,-1,-1,-1,-1,-1,-1,-1,-1,-1,-1],"split_conditions":[6.0507244E-1,2.2009289E1,-6.666667E-1,-5.266667E0,9.857142E0,-4E-1,9.3E0,3.1585444E-2,2E0,1.8E0,4.549725E0,5.2222223E0,-3.3333334E-1,-3.5E-1,-9E-1,-3.5147022E-3,2.2701675E-2,3.8378008E-3,-2.19313E-2,1.3734776E-4,3.944688E-2,1.3680487E-2,-2.5819262E-2,-7.6229423E-3,3.96615E-2,8.856309E-3,-1.2453373E-2,5.6649762E-5,2.7307285E-2],"split_indices":[43,86,60,35,20,31,18,0,9,78,39,19,34,68,35,0,0,0,0,0,0,0,0,0,0,0,0,0,0],"split_type":[0,0,0,0,0,0,0,0,0,0,0,0,0,0,0,0,0,0,0,0,0,0,0,0,0,0,0,0,0],"sum_hessian":[3.8289504E3,3.42418E3,4.0477042E2,2.5316213E3,8.9255853E2,1.8295654E2,2.2181389E2,1.8882563E1,2.5127388E3,8.2786707E2,6.469149E1,1.08165794E2,7.479075E1,1.4867773E2,7.313616E1,2.4842908E3,2.8447935E1,7.9844574E2,2.9421305E1,2.9059292E1,3.56322E1,9.609558E1,1.2070211E1,1.1499055E1,6.329169E1,6.409207E1,8.458566E1,3.1199331E1,4.1936832E1],"tree_param":{"num_deleted":"0","num_feature":"115","num_nodes":"29","size_leaf_vector":"1"}},{"base_weights":[-1.2121929E-2,-2.6059955E-1,6.9712296E-2,-2.9808143E-1,1.0664309E0,4.320391E-1,2.6862606E-2,9.537237E-2,-3.838925E-1,4.2371433E-2,7.0159785E-3,-5.897197E-1,5.997037E-1,1.3215755E-2,1.153043E0,1.3515608E-2,-1.531675E-2,2.6580362E-2,-1.0253188E-2,-2.9242357E-2,1.774737E-3,1.2488722E-2,5.2021313E-2,-2.2779496E-3,4.429981E-3,2.929802E-3,4.899578E-2],"categories":[],"categories_nodes":[],"categories_segments":[],"categories_sizes":[],"default_left":[0,0,0,0,0,0,0,0,0,0,0,0,0,0,0,0,0,0,0,0,0,0,0,0,0,0,0],"id":39,"left_children":[1,3,5,7,9,11,13,15,17,-1,-1,19,21,23,25,-1,-1,-1,-1,-1,-1,-1,-1,-1,-1,-1,-1],"loss_changes":[7.703105E1,4.7561546E1,4.4153122E1,3.103894E1,1.1394417E1,5.260343E1,3.9047043E1,5.333864E1,2.9798416E1,0E0,0E0,1.7157795E1,3.5196373E1,4.323689E1,2.4527866E1,0E0,0E0,0E0,0E0,0E0,0E0,0E0,0E0,0E0,0E0,0E0,0E0],"parents":[2147483647,0,0,1,1,2,2,3,3,4,4,5,5,6,6,7,7,8,8,11,11,12,12,13,13,14,14],"right_children":[2,4,6,8,10,12,14,16,18,-1,-1,20,22,24,26,-1,-1,-1,-1,-1,-1,-1,-1,-1,-1,-1,-1],"split_conditions":[-2.9691273E1,6.8E0,-3.3333334E-1,-1E0,7.25E0,6.2E0,1.1E1,8.333333E0,-1.1333333E1,4.2371433E-2,7.0159785E-3,3.3333335E-2,-6.666667E-1,1.3E0,3.2863352E0,1.3515608E-2,-1.531675E-2,2.6580362E-2,-1.0253188E-2,-2.9242357E-2,1.774737E-3,1.2488722E-2,5.2021313E-2,-2.2779496E-3,4.429981E-3,2.929802E-3,4.899578E-2],"split_indices":[86,102,64,69,11,12,20,18,65,0,0,33,65,83,36,0,0,0,0,0,0,0,0,0,0,0,0],"split_type":[0,0,0,0,0,0,0,0,0,0,0,0,0,0,0,0,0,0,0,0,0,0,0,0,0,0,0],"sum_hessian":[3.781674E3,9.3558276E2,2.8460913E3,9.122187E2,2.3364065E1,2.9786166E2,2.5482295E3,1.6306175E2,7.491569E2,1.0982814E1,1.2381251E1,4.0838863E1,2.570228E2,2.520807E3,2.7422684E1,1.0063076E2,6.2430992E1,1.1160488E1,7.379964E2,2.059804E1,2.0240822E1,2.4456474E2,1.2458071E1,1.5410464E3,9.797605E2,1.3565455E1,1.3857228E1],"tree_param":{"num_deleted":"0","num_feature":"115","num_nodes":"27","size_leaf_vector":"1"}},{"base_weights":[-3.0998357E-3,-9.502711E-2,2.0864959E-1,-3.4589726E-1,-3.9599344E-2,2.5420207E-1,-6.781095E-1,-5.715339E-1,-1.5070447E-2,-2.119786E-1,8.44059E-2,-4.5474816E-2,3.977868E-1,-2.0583278E-1,-1.3100739E0,-1.688264E-2,1.5597281E-2,8.363133E-3,-9.930532E-3,-9.324706E-3,2.0871202E-3,-1.3622562E-4,1.2654397E-2,-2.6655365E-3,3.8361717E-2,2.1650983E-2,6.9207563E-3,1.2901807E-2,-1.791068E-2,-1.1290461E-2,-4.657197E-2],"categories":[],"categories_nodes":[],"categories_segments":[],"categories_sizes":[],"default_left":[0,0,0,0,0,0,0,0,0,0,0,0,0,0,0,0,0,0,0,0,0,0,0,0,0,0,0,0,0,0,0],"id":40,"left_children":[1,3,5,7,9,11,13,15,17,19,21,23,25,27,29,-1,-1,-1,-1,-1,-1,-1,-1,-1,-1,-1,-1,-1,-1,-1,-1],"loss_changes":[7.449994E1,3.703839E1,4.7268486E1,3.5920223E1,4.6880436E1,4.7598686E1,1.6144697E1,3.680921E1,2.6969593E1,4.3769455E1,4.839915E1,3.5138752E1,4.1475105E1,1.4564498E1,8.568489E0,0E0,0E0,0E0,0E0,0E0,0E0,0E0,0E0,0E0,0E0,0E0,0E0,0E0,0E0,0E0,0E0],"parents":[2147483647,0,0,1,1,2,2,3,3,4,4,5,5,6,6,7,7,8,8,9,9,10,10,11,11,12,12,13,13,14,14],"right_children":[2,4,6,8,10,12,14,16,18,20,22,24,26,28,30,-1,-1,-1,-1,-1,-1,-1,-1,-1,-1,-1,-1,-1,-1,-1,-1],"split_conditions":[2.2009289E1,-5.408557E1,5.555556E-1,4.1666668E-2,-3.3333334E-1,8E0,5.555556E-1,1.2E1,4.037326E0,2E-1,4E-1,7.6666665E-1,-5E-1,2.8809721E0,-7.1428575E-2,-1.688264E-2,1.5597281E-2,8.363133E-3,-9.930532E-3,-9.324706E-3,2.0871202E-3,-1.3622562E-4,1.2654397E-2,-2.6655365E-3,3.8361717E-2,2.1650983E-2,6.9207563E-3,1.2901807E-2,-1.791068E-2,-1.1290461E-2,-4.657197E-2],"split_indices":[86,86,80,34,31,18,27,8,39,106,33,34,26,38,79,0,0,0,0,0,0,0,0,0,0,0,0,0,0,0,0],"split_type":[0,0,0,0,0,0,0,0,0,0,0,0,0,0,0,0,0,0,0,0,0,0,0,0,0,0,0,0,0,0,0],"sum_hessian":[3.8217996E3,2.6663687E3,1.1554309E3,4.7933545E2,2.1870332E3,1.1011196E3,5.4311325E1,2.834955E2,1.9583994E2,9.1448663E2,1.2725466E3,3.5712158E2,7.4399805E2,3.344941E1,2.0861914E1,2.6212967E2,2.1365833E1,1.0233498E2,9.350495E1,5.9163354E2,3.2285306E2,1.0512993E3,2.2124728E2,3.4656955E2,1.0552023E1,1.4876923E2,5.952288E2,1.3762804E1,1.9686607E1,1.0377842E1,1.0484071E1],"tree_param":{"num_deleted":"0","num_feature":"115","num_nodes":"31","size_leaf_vector":"1"}},{"base_weights":[-9.661697E-3,-6.107313E-2,3.6741573E-1,3.376319E-1,-1.0020475E-1,1.2954326E0,2.514666E-1,2.4087368E-1,4.7213316E-2,-1.2688121E-1,3.9820608E-1,1.8404793E0,-1.1888888E-2,6.052566E-1,5.3705217E-4,-1.0758154E-2,1.0207441E-2,-4.1278512E-5,-5.7584485E-3,4.7458347E-2,2.1252444E-4,6.017111E-2,8.714097E-3,1.9907001E-2,-2.176888E-2,1.8083574E-2,-2.8927478E-3],"categories":[],"categories_nodes":[],"categories_segments":[],"categories_sizes":[],"default_left":[0,0,0,0,0,0,0,0,0,0,0,0,0,0,0,0,0,0,0,0,0,0,0,0,0,0,0],"id":41,"left_children":[1,3,5,7,9,11,13,15,-1,17,19,21,-1,23,25,-1,-1,-1,-1,-1,-1,-1,-1,-1,-1,-1,-1],"loss_changes":[7.436019E1,5.2760403E1,4.838601E1,4.3778343E1,4.1041286E1,5.1308952E1,3.659414E1,3.2888573E1,0E0,3.7852703E1,9.147363E1,3.0259995E1,0E0,5.0333157E1,2.0875372E1,0E0,0E0,0E0,0E0,0E0,0E0,0E0,0E0,0E0,0E0,0E0,0E0],"parents":[2147483647,0,0,1,1,2,2,3,3,4,4,5,5,6,6,7,7,9,9,10,10,11,11,13,13,14,14],"right_children":[2,4,6,8,10,12,14,16,-1,18,20,22,-1,24,26,-1,-1,-1,-1,-1,-1,-1,-1,-1,-1,-1,-1],"split_conditions":[6E-1,1.4507284E3,2.1254393E-1,6.25E-1,6.4E0,4.637455E1,-1E0,-1E-1,4.7213316E-2,-4.1666668E-2,9.333333E0,3.3333334E-1,-1.1888888E-2,6.2E0,-1.45E0,-1.0758154E-2,1.0207441E-2,-4.1278512E-5,-5.7584485E-3,4.7458347E-2,2.1252444E-4,6.017111E-2,8.714097E-3,1.9907001E-2,-2.176888E-2,1.8083574E-2,-2.8927478E-3],"split_indices":[43,85,50,99,17,105,60,83,0,106,18,60,0,74,67,0,0,0,0,0,0,0,0,0,0,0,0],"split_type":[0,0,0,0,0,0,0,0,0,0,0,0,0,0,0,0,0,0,0,0,0,0,0,0,0,0,0],"sum_hessian":[3.8308574E3,3.373665E3,4.571924E2,2.9924738E2,3.0744175E3,4.7293324E1,4.0989908E2,2.8499725E2,1.4250115E1,2.9205383E3,1.5387917E2,3.6116657E1,1.1176664E1,1.6816522E2,2.4173386E2,5.5837505E1,2.2915976E2,1.3230526E3,1.5974858E3,2.9283863E1,1.245953E2,2.479653E1,1.1320128E1,1.5017862E2,1.7986603E1,3.1439663E1,2.1029419E2],"tree_param":{"num_deleted":"0","num_feature":"115","num_nodes":"27","size_leaf_vector":"1"}},{"base_weights":[2.86175E-3,-4.521292E-2,3.3817974E-1,1.8047976E-1,-1.132037E-1,6.79673E-1,8.760962E-2,-1.9056153E-1,3.2393366E-1,-1.327877E-1,8.585767E-1,9.0041083E-1,-5.8543924E-2,3.415246E-2,1.2970329E-2,-8.989557E-3,1.4945139E-2,2.5040869E-2,5.9940103E-3,1.9295124E-2,-3.8021177E-3,3.5880763E-2,-8.082702E-4,1.3694026E-2,5.3050328E-2,1.0155576E-2,-2.764666E-2,2.3587111E-2,-2.5424734E-3],"categories":[],"categories_nodes":[],"categories_segments":[],"categories_sizes":[],"default_left":[0,0,0,0,0,0,0,0,0,0,0,0,0,0,0,0,0,0,0,0,0,0,0,0,0,0,0,0,0],"id":42,"left_children":[1,3,5,7,9,11,13,15,17,19,21,23,25,-1,27,-1,-1,-1,-1,-1,-1,-1,-1,-1,-1,-1,-1,-1,-1],"loss_changes":[6.18071E1,5.148573E1,4.088575E1,4.154328E1,4.933026E1,3.330033E1,2.6616928E1,2.9706118E1,3.1184887E1,4.4447865E1,2.6596718E1,6.3648117E1,2.5468586E1,0E0,2.902535E1,0E0,0E0,0E0,0E0,0E0,0E0,0E0,0E0,0E0,0E0,0E0,0E0,0E0,0E0],"parents":[2147483647,0,0,1,1,2,2,3,3,4,4,5,5,6,6,7,7,8,8,9,9,10,10,11,11,12,12,14,14],"right_children":[2,4,6,8,10,12,14,16,18,20,22,24,26,-1,28,-1,-1,-1,-1,-1,-1,-1,-1,-1,-1,-1,-1,-1,-1],"split_conditions":[5.875E0,1.4828827E3,9.6E0,7.25E0,7.2727275E-1,3.1111112E-1,-2.4E0,1.477627E3,-6.666667E-1,-5.6666665E0,2.3333333E0,1.1333333E0,8.3333336E-2,3.415246E-2,-8.750291E0,-8.989557E-3,1.4945139E-2,2.5040869E-2,5.9940103E-3,1.9295124E-2,-3.8021177E-3,3.5880763E-2,-8.082702E-4,1.3694026E-2,5.3050328E-2,1.0155576E-2,-2.764666E-2,2.3587111E-2,-2.5424734E-3],"split_indices":[17,85,12,12,43,81,31,85,62,24,23,108,106,0,105,0,0,0,0,0,0,0,0,0,0,0,0,0,0],"split_type":[0,0,0,0,0,0,0,0,0,0,0,0,0,0,0,0,0,0,0,0,0,0,0,0,0,0,0,0,0],"sum_hessian":[3.8264521E3,3.3486519E3,4.7780023E2,7.737581E2,2.5748938E3,1.9986908E2,2.7793118E2,2.152737E2,5.584844E2,2.5266675E3,4.822622E1,1.5345891E2,4.6410168E1,1.23936615E1,2.655375E2,1.7871655E2,3.6557144E1,5.7958454E1,5.0052594E2,5.022201E1,2.4764456E3,2.823196E1,1.9994259E1,1.2251776E2,3.0941149E1,3.335101E1,1.3059157E1,2.68494E1,2.3868811E2],"tree_param":{"num_deleted":"0","num_feature":"115","num_nodes":"29","size_leaf_vector":"1"}},{"base_weights":[5.320671E-3,-2.26925E-1,8.560182E-2,-4.1858977E-1,-1.1993213E-2,7.160244E-2,1.1837046E0,-2.916789E-1,-8.481838E-1,3.678425E-2,-6.81777E-2,4.3074456E-1,2.9337963E-2,4.844552E-2,-2.1667774E-3,-1.0918963E-2,7.277307E-3,-8.695612E-3,-2.8963415E-2,-2.0421054E-2,4.5711664E-4,8.007948E-3,5.455153E-2,-9.512761E-4,6.3974108E-3],"categories":[],"categories_nodes":[],"categories_segments":[],"categories_sizes":[],"default_left":[0,0,0,0,0,0,0,0,0,0,0,0,0,0,0,0,0,0,0,0,0,0,0,0,0],"id":43,"left_children":[1,3,5,7,9,11,13,15,17,-1,19,21,23,-1,-1,-1,-1,-1,-1,-1,-1,-1,-1,-1,-1],"loss_changes":[7.155279E1,4.0547646E1,4.3472267E1,2.7533463E1,3.9163147E1,4.2720066E1,3.4818928E1,3.4783474E1,1.6808792E1,0E0,2.9502E1,5.498345E1,3.8624596E1,0E0,0E0,0E0,0E0,0E0,0E0,0E0,0E0,0E0,0E0,0E0,0E0],"parents":[2147483647,0,0,1,1,2,2,3,3,4,4,5,5,6,6,7,7,8,8,10,10,11,11,12,12],"right_children":[2,4,6,8,10,12,14,16,18,-1,20,22,24,-1,-1,-1,-1,-1,-1,-1,-1,-1,-1,-1,-1],"split_conditions":[-2.9136784E1,1.6E0,1.1E1,1.85E0,-2.9E0,-3.3333334E-1,1.16E1,7.1428573E-1,2.792848E0,3.678425E-2,3.0714285E-1,-6.666667E-1,6.3333335E0,4.844552E-2,-2.1667774E-3,-1.0918963E-2,7.277307E-3,-8.695612E-3,-2.8963415E-2,-2.0421054E-2,4.5711664E-4,8.007948E-3,5.455153E-2,-9.512761E-4,6.3974108E-3],"split_indices":[86,102,20,79,32,64,14,21,37,0,43,65,5,0,0,0,0,0,0,0,0,0,0,0,0],"split_type":[0,0,0,0,0,0,0,0,0,0,0,0,0,0,0,0,0,0,0,0,0,0,0,0,0],"sum_hessian":[3.8322822E3,9.8269995E2,2.8495823E3,5.177183E2,4.6498163E2,2.8169563E3,3.262585E1,4.0372064E2,1.13997665E2,1.4146491E1,4.5083514E2,2.9344748E2,2.523509E3,1.9533175E1,1.3092675E1,3.2398785E2,7.97328E1,4.619891E1,6.779875E1,4.4171894E1,4.0666327E2,2.79434E2,1.4013483E1,1.946565E3,5.7694403E2],"tree_param":{"num_deleted":"0","num_feature":"115","num_nodes":"25","size_leaf_vector":"1"}},{"base_weights":[-2.324246E-3,-4.331616E-2,3.8947293E-1,3.1809992E-1,-7.71684E-2,8.465238E-1,8.7837696E-2,6.760644E-2,1.0490371E0,-9.059644E-2,1.0104139E0,3.9722773E-1,1.413505E0,-1.9425459E-1,6.4929336E-1,1.9442957E-2,-3.9877496E-3,3.4615748E-2,-1.4947908E-2,-1.6097685E-2,-1.7486828E-3,4.3968704E-2,-3.7676026E-3,2.5786615E-3,3.4745988E-2,1.7785836E-2,4.8669543E-2,4.735997E-3,-1.5322444E-2,2.7948296E-2,-2.3999466E-3],"categories":[],"categories_nodes":[],"categories_segments":[],"categories_sizes":[],"default_left":[0,0,0,0,0,0,0,0,0,0,0,0,0,0,0,0,0,0,0,0,0,0,0,0,0,0,0,0,0,0,0],"id":44,"left_children":[1,3,5,7,9,11,13,15,17,19,21,23,25,27,29,-1,-1,-1,-1,-1,-1,-1,-1,-1,-1,-1,-1,-1,-1,-1,-1],"loss_changes":[6.1623783E1,4.257239E1,4.9782295E1,5.423683E1,4.663226E1,3.4817E1,3.5647797E1,3.676104E1,4.442949E1,3.5722237E1,3.4797024E1,2.411836E1,1.8938164E1,2.4520042E1,2.6683084E1,0E0,0E0,0E0,0E0,0E0,0E0,0E0,0E0,0E0,0E0,0E0,0E0,0E0,0E0,0E0,0E0],"parents":[2147483647,0,0,1,1,2,2,3,3,4,4,5,5,6,6,7,7,8,8,9,9,10,10,11,11,12,12,13,13,14,14],"right_children":[2,4,6,8,10,12,14,16,18,20,22,24,26,28,30,-1,-1,-1,-1,-1,-1,-1,-1,-1,-1,-1,-1,-1,-1,-1,-1],"split_conditions":[6.1E0,1.4507284E3,9.6E0,5.0299106E0,2E0,1E0,5.6666665E0,-2.2222222E-1,1.025E1,1.4219586E3,1E0,1.5415128E3,3.2E0,3.3333333E0,1.6666667E-1,1.9442957E-2,-3.9877496E-3,3.4615748E-2,-1.4947908E-2,-1.6097685E-2,-1.7486828E-3,4.3968704E-2,-3.7676026E-3,2.5786615E-3,3.4745988E-2,1.7785836E-2,4.8669543E-2,4.735997E-3,-1.5322444E-2,2.7948296E-2,-2.3999466E-3],"split_indices":[17,85,12,39,9,24,7,34,12,4,44,4,102,58,80,0,0,0,0,0,0,0,0,0,0,0,0,0,0,0,0],"split_type":[0,0,0,0,0,0,0,0,0,0,0,0,0,0,0,0,0,0,0,0,0,0,0,0,0,0,0,0,0,0,0],"sum_hessian":[3.832978E3,3.4725815E3,3.6039648E2,2.949943E2,3.1775872E3,1.409985E2,2.19398E2,2.2224487E2,7.274943E1,3.1416404E3,3.5946823E1,8.1607765E1,5.9390736E1,1.4721611E2,7.218188E1,5.2200363E1,1.7004451E2,6.088226E1,1.1867171E1,1.09593605E2,3.0320469E3,2.0972301E1,1.4974521E1,6.558837E1,1.6019392E1,2.8741556E1,3.0649181E1,7.754669E1,6.966942E1,4.3477478E1,2.8704403E1],"tree_param":{"num_deleted":"0","num_feature":"115","num_nodes":"31","size_leaf_vector":"1"}},{"base_weights":[-6.2362296E-3,-5.300788E-2,3.353704E-1,-1.2434835E-1,1.231698E-1,4.1550815E-1,-7.362499E-1,-3.0527374E-1,-1.2626771E-2,4.289385E-2,6.3130885E-1,3.431081E-1,4.329818E-2,7.2028977E-4,-3.060948E-2,-8.4178485E-3,2.1999663E-2,-2.927291E-3,6.2439176E-3,-3.752358E-3,5.9971176E-3,3.1609345E-2,6.0049724E-3,-2.7426393E-3,1.246422E-2],"categories":[],"categories_nodes":[],"categories_segments":[],"categories_sizes":[],"default_left":[0,0,0,0,0,0,0,0,0,0,0,0,0,0,0,0,0,0,0,0,0,0,0,0,0],"id":45,"left_children":[1,3,5,7,9,11,13,15,17,19,21,23,-1,-1,-1,-1,-1,-1,-1,-1,-1,-1,-1,-1,-1],"loss_changes":[6.1085407E1,4.2330063E1,4.042227E1,4.8397686E1,3.9449955E1,3.9026558E1,1.2559811E1,3.4910324E1,4.0780186E1,3.2116215E1,3.163367E1,2.9186947E1,0E0,0E0,0E0,0E0,0E0,0E0,0E0,0E0,0E0,0E0,0E0,0E0,0E0],"parents":[2147483647,0,0,1,1,2,2,3,3,4,4,5,5,6,6,7,7,8,8,9,9,10,10,11,11],"right_children":[2,4,6,8,10,12,14,16,18,20,22,24,-1,-1,-1,-1,-1,-1,-1,-1,-1,-1,-1,-1,-1],"split_conditions":[6E-1,5.6666665E0,2.6E0,-1.35468645E1,9.571428E0,7E0,-3E-1,1.578785E3,4.5E0,6E0,5.6666665E0,4.571429E0,4.329818E-2,7.2028977E-4,-3.060948E-2,-8.4178485E-3,2.1999663E-2,-2.927291E-3,6.2439176E-3,-3.752358E-3,5.9971176E-3,3.1609345E-2,6.0049724E-3,-2.7426393E-3,1.246422E-2],"split_indices":[43,7,69,86,18,39,30,85,13,13,13,17,0,0,0,0,0,0,0,0,0,0,0,0,0],"split_type":[0,0,0,0,0,0,0,0,0,0,0,0,0,0,0,0,0,0,0,0,0,0,0,0,0],"sum_hessian":[3.818642E3,3.361257E3,4.5738498E2,2.393497E3,9.6776E2,4.2735657E2,3.0028414E1,9.11421E2,1.482076E3,8.387103E2,1.2904965E2,4.0873495E2,1.8621618E1,1.2716101E1,1.7312311E1,8.900439E2,2.1377178E1,1.0614962E3,4.205798E2,4.237637E2,4.1494662E2,4.6625645E1,8.242401E1,1.0452436E2,3.042106E2],"tree_param":{"num_deleted":"0","num_feature":"115","num_nodes":"25","size_leaf_vector":"1"}},{"base_weights":[1.33643905E-2,-1.6492975E-1,1.2120753E-1,-2.054228E-1,4.5248273E-1,4.8252636E-1,5.560414E-2,-2.7048784E-1,1.6502412E-1,9.742703E-1,-2.7397275E-1,5.3748574E-2,4.1266614E-1,-1.8319225E-2,3.403952E-1,-7.2964313E-3,1.7909525E-2,-1.0310551E-3,5.095917E-2,5.0962593E-2,1.3519823E-2,-2.3578638E-2,8.006875E-3,7.7576838E-3,3.298607E-2,2.519055E-2,-1.0062283E-3,1.1487881E-2,-1.6075302E-2],"categories":[],"categories_nodes":[],"categories_segments":[],"categories_sizes":[],"default_left":[0,0,0,0,0,0,0,0,0,0,0,0,0,0,0,0,0,0,0,0,0,0,0,0,0,0,0,0,0],"id":46,"left_children":[1,3,5,7,9,11,13,15,17,19,21,-1,23,25,27,-1,-1,-1,-1,-1,-1,-1,-1,-1,-1,-1,-1,-1,-1],"loss_changes":[7.3355286E1,3.619803E1,5.622062E1,3.271815E1,3.4710236E1,3.9565887E1,4.2488113E1,2.4855736E1,7.9099655E1,2.074366E1,1.6707302E1,0E0,3.1448635E1,3.608874E1,4.9580635E1,0E0,0E0,0E0,0E0,0E0,0E0,0E0,0E0,0E0,0E0,0E0,0E0,0E0,0E0],"parents":[2147483647,0,0,1,1,2,2,3,3,4,4,5,5,6,6,7,7,8,8,9,9,10,10,12,12,13,13,14,14],"right_children":[2,4,6,8,10,12,14,16,18,20,22,-1,24,26,28,-1,-1,-1,-1,-1,-1,-1,-1,-1,-1,-1,-1,-1,-1],"split_conditions":[-1.35468645E1,7.6E0,4.6052632E-1,3.75E-1,2.9154758E0,-3.6E0,6E-1,6.8E0,3.6666667E0,-2.2222222E-1,-3.6666667E0,5.3748574E-2,1E0,-2.9E0,1.2777778E0,-7.2964313E-3,1.7909525E-2,-1.0310551E-3,5.095917E-2,5.0962593E-2,1.3519823E-2,-2.3578638E-2,8.006875E-3,7.7576838E-3,3.298607E-2,2.519055E-2,-1.0062283E-3,1.1487881E-2,-1.6075302E-2],"split_indices":[86,100,43,33,36,83,43,102,59,33,58,0,103,31,78,0,0,0,0,0,0,0,0,0,0,0,0,0,0],"split_type":[0,0,0,0,0,0,0,0,0,0,0,0,0,0,0,0,0,0,0,0,0,0,0,0,0,0,0,0,0],"sum_hessian":[3.8091724E3,1.4347024E3,2.37447E3,1.3484293E3,8.627305E1,3.617111E2,2.0127589E3,1.1478936E3,2.0053575E2,4.9693916E1,3.6579132E1,1.0895771E1,3.508153E2,1.5999221E3,4.1283673E2,1.1257314E3,2.216218E1,1.8324045E2,1.7295303E1,1.1101017E1,3.85929E1,1.6455626E1,2.0123508E1,3.1894867E2,3.1866657E1,3.0565838E1,1.5693563E3,3.6974896E2,4.308777E1],"tree_param":{"num_deleted":"0","num_feature":"115","num_nodes":"29","size_leaf_vector":"1"}},{"base_weights":[2.0910677E-2,-3.3672772E-2,3.0017656E-1,3.4219127E-2,-2.3202516E-1,4.269453E-2,2.56397E-1,-4.8548114E-2,3.4648862E-1,-3.3278796E-1,4.1177464E-1,-4.3684475E-2,4.184876E-1,-2.9483314E-3,4.608182E-3,-2.2357007E-2,1.0445981E-2,-2.0804673E-3,-1.2880044E-2,2.7801064E-3,4.1039366E-2,-5.891516E-3,2.4647351E-2,1.3677432E-2,-8.154607E-3],"categories":[],"categories_nodes":[],"categories_segments":[],"categories_sizes":[],"default_left":[0,0,0,0,0,0,0,0,0,0,0,0,0,0,0,0,0,0,0,0,0,0,0,0,0],"id":47,"left_children":[1,3,5,7,9,-1,11,13,15,17,19,21,23,-1,-1,-1,-1,-1,-1,-1,-1,-1,-1,-1,-1],"loss_changes":[5.8401634E1,4.319254E1,3.7091316E1,6.1834538E1,5.345595E1,0E0,2.9816582E1,3.061536E1,4.5447254E1,3.2085724E1,4.0633728E1,4.347797E1,3.8605698E1,0E0,0E0,0E0,0E0,0E0,0E0,0E0,0E0,0E0,0E0,0E0,0E0],"parents":[2147483647,0,0,1,1,2,2,3,3,4,4,6,6,7,7,8,8,9,9,10,10,11,11,12,12],"right_children":[2,4,6,8,10,-1,12,14,16,18,20,22,24,-1,-1,-1,-1,-1,-1,-1,-1,-1,-1,-1,-1],"split_conditions":[4.5134262E1,1.2857143E0,-4E0,7.1428573E-1,1.06E1,4.269453E-2,8.1E0,5.6666665E0,2.9E0,-1E0,1.25E-1,3.7416575E0,5.6E0,-2.9483314E-3,4.608182E-3,-2.2357007E-2,1.0445981E-2,-2.0804673E-3,-1.2880044E-2,2.7801064E-3,4.1039366E-2,-5.891516E-3,2.4647351E-2,1.3677432E-2,-8.154607E-3],"split_indices":[86,79,74,21,20,0,18,7,17,59,73,36,74,0,0,0,0,0,0,0,0,0,0,0,0],"split_type":[0,0,0,0,0,0,0,0,0,0,0,0,0,0,0,0,0,0,0,0,0,0,0,0,0],"sum_hessian":[3.8245623E3,3.201164E3,6.23398E2,2.386346E3,8.148183E2,1.52958E1,6.0810223E2,1.8881135E3,4.9823236E2,7.059351E2,1.0888317E2,2.138227E2,3.9427954E2,1.456161E3,4.3195255E2,2.5135199E1,4.7309717E2,3.0017194E2,4.0576315E2,9.019224E1,1.869093E1,1.8225053E2,3.1572147E1,3.370066E2,5.727297E1],"tree_param":{"num_deleted":"0","num_feature":"115","num_nodes":"25","size_leaf_vector":"1"}},{"base_weights":[-8.853935E-4,-1.8881695E-1,7.9975635E-2,2.4409774E-1,-2.5450593E-1,6.676495E-2,1.2256356E0,4.3950524E-2,3.7964072E-2,2.941832E-2,-2.753791E-1,2.3282342E-2,3.4685627E-1,1.7911931E-3,4.6112683E-2,-1.4916747E-2,1.1938074E-2,-4.454314E-3,-1.4439675E-2,1.5561238E-2,-1.8503508E-4,2.8673185E-2,5.451321E-3],"categories":[],"categories_nodes":[],"categories_segments":[],"categories_sizes":[],"default_left":[0,0,0,0,0,0,0,0,0,0,0,0,0,0,0,0,0,0,0,0,0,0,0],"id":48,"left_children":[1,3,5,7,9,11,13,15,-1,-1,17,19,21,-1,-1,-1,-1,-1,-1,-1,-1,-1,-1],"loss_changes":[5.795818E1,3.281992E1,3.99713E1,3.8545902E1,3.069664E1,3.2074814E1,2.0929466E1,3.833076E1,0E0,0E0,2.8585457E1,4.213148E1,3.5599716E1,0E0,0E0,0E0,0E0,0E0,0E0,0E0,0E0,