{"learner":{"attributes":{},"feature_names":["pts_avg_5","pts_trend","min_avg_5","min_trend","fga_avg_5","fga_trend","fg_pct_avg_5","fg_pct_trend","fg3a_avg_5","fg3a_trend","fg3_pct_avg_5","fg3_pct_trend","fta_avg_5","fta_trend","ft_pct_avg_5","ft_pct_trend","reb_avg_5","reb_trend","ast_avg_5","ast_trend","stl_avg_5","stl_trend","blk_avg_5","blk_trend","tov_avg_5","tov_trend","min_consistency","usage_avg_5","rest_days","is_home","team_pts_avg_5","opp_def_rating"],"feature_types":["float","float","float","float","float","float","float","float","float","float","float","float","float","float","float","float","float","float","float","float","float","float","float","float","float","float","float","float","float","int","float","float"],"gradient_booster":{"model":{"cats":{"enc":[],"feature_segments":[],"sorted_idx":[]},"gbtree_model_param":{"num_parallel_tree":"1","num_trees":"500"},"iteration_indptr":[0,1,2,3,4,5,6,7,8,9,10,11,12,13,14,15,16,17,18,19,20,21,22,23,24,25,26,27,28,29,30,31,32,33,34,35,36,37,38,39,40,41,42,43,44,45,46,47,48,49,50,51,52,53,54,55,56,57,58,59,60,61,62,63,64,65,66,67,68,69,70,71,72,73,74,75,76,77,78,79,80,81,82,83,84,85,86,87,88,89,90,91,92,93,94,95,96,97,98,99,100,101,102,103,104,105,106,107,108,109,110,111,112,113,114,115,116,117,118,119,120,121,122,123,124,125,126,127,128,129,130,131,132,133,134,135,136,137,138,139,140,141,142,143,144,145,146,147,148,149,150,151,152,153,154,155,156,157,158,159,160,161,162,163,164,165,166,167,168,169,170,171,172,173,174,175,176,177,178,179,180,181,182,183,184,185,186,187,188,189,190,191,192,193,194,195,196,197,198,199,200,201,202,203,204,205,206,207,208,209,210,211,212,213,214,215,216,217,218,219,220,221,222,223,224,225,226,227,228,229,230,231,232,233,234,235,236,237,238,239,240,241,242,243,244,245,246,247,248,249,250,251,252,253,254,255,256,257,258,259,260,261,262,263,264,265,266,267,268,269,270,271,272,273,274,275,276,277,278,279,280,281,282,283,284,285,286,287,288,289,290,291,292,293,294,295,296,297,298,299,300,301,302,303,304,305,306,307,308,309,310,311,312,313,314,315,316,317,318,319,320,321,322,323,324,325,326,327,328,329,330,331,332,333,334,335,336,337,338,339,340,341,342,343,344,345,346,347,348,349,350,351,352,353,354,355,356,357,358,359,360,361,362,363,364,365,366,367,368,369,370,371,372,373,374,375,376,377,378,379,380,381,382,383,384,385,386,387,388,389,390,391,392,393,394,395,396,397,398,399,400,401,402,403,404,405,406,407,408,409,410,411,412,413,414,415,416,417,418,419,420,421,422,423,424,425,426,427,428,429,430,431,432,433,434,435,436,437,438,439,440,441,442,443,444,445,446,447,448,449,450,451,452,453,454,455,456,457,458,459,460,461,462,463,464,465,466,467,468,469,470,471,472,473,474,475,476,477,478,479,480,481,482,483,484,485,486,487,488,489,490,491,492,493,494,495,496,497,498,499,500],"tree_info":[0,0,0,0,0,0,0,0,0,0,0,0,0,0,0,0,0,0,0,0,0,0,0,0,0,0,0,0,0,0,0,0,0,0,0,0,0,0,0,0,0,0,0,0,0,0,0,0,0,0,0,0,0,0,0,0,0,0,0,0,0,0,0,0,0,0,0,0,0,0,0,0,0,0,0,0,0,0,0,0,0,0,0,0,0,0,0,0,0,0,0,0,0,0,0,0,0,0,0,0,0,0,0,0,0,0,0,0,0,0,0,0,0,0,0,0,0,0,0,0,0,0,0,0,0,0,0,0,0,0,0,0,0,0,0,0,0,0,0,0,0,0,0,0,0,0,0,0,0,0,0,0,0,0,0,0,0,0,0,0,0,0,0,0,0,0,0,0,0,0,0,0,0,0,0,0,0,0,0,0,0,0,0,0,0,0,0,0,0,0,0,0,0,0,0,0,0,0,0,0,0,0,0,0,0,0,0,0,0,0,0,0,0,0,0,0,0,0,0,0,0,0,0,0,0,0,0,0,0,0,0,0,0,0,0,0,0,0,0,0,0,0,0,0,0,0,0,0,0,0,0,0,0,0,0,0,0,0,0,0,0,0,0,0,0,0,0,0,0,0,0,0,0,0,0,0,0,0,0,0,0,0,0,0,0,0,0,0,0,0,0,0,0,0,0,0,0,0,0,0,0,0,0,0,0,0,0,0,0,0,0,0,0,0,0,0,0,0,0,0,0,0,0,0,0,0,0,0,0,0,0,0,0,0,0,0,0,0,0,0,0,0,0,0,0,0,0,0,0,0,0,0,0,0,0,0,0,0,0,0,0,0,0,0,0,0,0,0,0,0,0,0,0,0,0,0,0,0,0,0,0,0,0,0,0,0,0,0,0,0,0,0,0,0,0,0,0,0,0,0,0,0,0,0,0,0,0,0,0,0,0,0,0,0,0,0,0,0,0,0,0,0,0,0,0,0,0,0,0,0,0,0,0,0,0,0,0,0,0,0,0,0,0,0,0,0,0,0,0,0,0,0,0,0,0,0,0,0,0,0,0,0,0,0,0,0,0,0,0,0,0,0,0,0,0,0,0,0,0,0,0,0,0,0,0,0,0,0,0,0,0,0,0,0,0,0,0,0,0,0],"trees":[{"base_weights":[7.7450825E-3,-3.0606143E0,7.281116E0,-5.310159E0,-6.959469E-1,4.5084743E0,1.1396024E1,-6.459364E0,-3.8336263E0,-1.9602369E0,7.5443834E-1,3.3683622E0,6.719E0,1.0060413E1,1.4586367E1,-7.887549E0,-5.924789E0,-4.371052E0,-2.9388258E0,-2.3947463E0,-9.4538254E-1,3.5778746E-1,4.136081E0,2.3883438E0,4.5286837E0,5.9671535E0,9.022071E0,7.3411665E0,1.102168E1,1.2465229E1,1.683608E1,-8.130337E0,-6.208999E0,-6.2797365E0,-4.844062E0,-5.9945908E0,-4.1892576E0,2.3022547E0,-3.0707169E0,-1.3375123E0,-2.6934102E0,-2.8753493E0,-4.5925897E-1,-9.903552E-1,1.0506642E0,7.1768527E0,2.9909265E0,8.872143E0,2.2369823E0,5.521811E0,2.4880185E0,1.0304739E1,5.57508E0,1.0079718E1,5.4328628E0,1.1122921E1,6.5620704E0,1.0666962E1,1.5343519E1,6.107437E0,1.293625E1,1.710331E1,5.3451266E0,-2.9045796E-1,-2.3658232E-1,-7.8110814E-2,-2.008968E-1,-1.8909128E-1,1.8228303E-1,-1.7782323E-1,-1.2857689E-1,-1.8489495E-1,7.228304E-2,-1.2924056E-1,-3.3976037E-2,2.086496E-1,-1.8110821E-2,1.5293534E-1,-9.448435E-2,-2.1725537E-2,-9.572335E-2,-1.0531405E-1,-7.019631E-2,-6.660471E-2,-2.2460197E-1,7.571035E-2,-2.3336837E-2,-5.4979455E-2,1.0112944E-2,2.8114362E-2,1.2846601E-1,3.2050332E-1,1.49041E-1,5.3809512E-2,1.8446393E-1,8.737149E-2,3.8258207E-1,5.4679576E-2,1.0519145E-1,2.097817E-1,1.3382764E-1,9.861363E-2,-1.5984876E-2,5.1112145E-1,2.5711578E-1,2.792907E-1,1.5506539E-1,5.206799E-1,2.746359E-1,2.353709E-2,2.2468577E-1,3.8818383E-1,1.095821E-1,-1.7608099E-2,2.0914292E-1,1.698104E-1,3.263512E-1,3.9654317E-1,7.7737147E-1,-3.96462E-2,2.7938914E-1,3.7818363E-1,9.22283E-1,5.212223E-1,1.7035379E-1,2.283039E-3,2.388184E-1],"categories":[],"categories_nodes":[],"categories_segments":[],"categories_sizes":[],"default_left":[0,0,0,0,0,0,0,0,0,0,0,0,0,0,0,0,0,0,0,0,0,0,0,0,0,0,0,0,0,0,0,0,0,0,0,0,0,0,0,0,0,0,0,0,0,0,0,0,0,0,0,0,0,0,0,0,0,0,0,0,0,0,0,0,0,0,0,0,0,0,0,0,0,0,0,0,0,0,0,0,0,0,0,0,0,0,0,0,0,0,0,0,0,0,0,0,0,0,0,0,0,0,0,0,0,0,0,0,0,0,0,0,0,0,0,0,0,0,0,0,0,0,0,0,0,0,0],"id":0,"left_children":[1,3,5,7,9,11,13,15,17,19,21,23,25,27,29,31,33,35,37,39,41,43,45,47,49,51,53,55,57,59,61,63,65,67,69,71,73,75,77,79,81,83,85,87,89,91,93,95,97,99,101,103,105,107,109,111,113,115,117,119,121,123,125,-1,-1,-1,-1,-1,-1,-1,-1,-1,-1,-1,-1,-1,-1,-1,-1,-1,-1,-1,-1,-1,-1,-1,-1,-1,-1,-1,-1,-1,-1,-1,-1,-1,-1,-1,-1,-1,-1,-1,-1,-1,-1,-1,-1,-1,-1,-1,-1,-1,-1,-1,-1,-1,-1,-1,-1,-1,-1,-1,-1,-1,-1,-1,-1],"loss_changes":[2.662009E5,4.462097E4,4.0325656E4,7.2699453E3,7.503177E3,5.310211E3,5.921E3,1.7978203E3,8.9314844E2,9.6168164E2,2.5550981E3,1.5789014E3,1.1911523E3,2.5513047E3,1.7848047E3,2.1645312E2,6.454844E2,3.2168555E2,4.978584E2,4.7950684E2,6.1507825E2,1.5955438E3,6.749656E2,7.2601465E2,1.2812842E3,8.694043E2,6.095586E2,7.1074023E2,9.7384375E2,5.768242E2,5.2273047E2,1.3929297E2,1.3549341E2,4.1928125E2,2.4066602E2,1.791875E2,3.7992188E2,2.4756952E2,4.6191016E2,3.8301685E2,3.3610352E2,3.8219543E2,5.019104E2,6.491187E2,4.097826E2,3.6517725E2,5.4475525E2,3.5602515E2,3.8491602E2,6.38251E2,5.110985E2,3.677173E2,7.1347656E2,7.431924E2,3.9564282E2,5.4981104E2,6.567051E2,6.677031E2,8.70501E2,4.1714282E2,8.0577344E2,5.045664E2,8.208061E1,0E0,0E0,0E0,0E0,0E0,0E0,0E0,0E0,0E0,0E0,0E0,0E0,0E0,0E0,0E0,0E0,0E0,0E0,0E0,0E0,0E0,0E0,0E0,0E0,0E0,0E0,0E0,0E0,0E0,0E0,0E0,0E0,0E0,0E0,0E0,0E0,0E0,0E0,0E0,0E0,0E0,0E0,0E0,0E0,0E0,0E0,0E0,0E0,0E0,0E0,0E0,0E0,0E0,0E0,0E0,0E0,0E0,0E0,0E0,0E0,0E0,0E0,0E0,0E0],"parents":[2147483647,0,0,1,1,2,2,3,3,4,4,5,5,6,6,7,7,8,8,9,9,10,10,11,11,12,12,13,13,14,14,15,15,16,16,17,17,18,18,19,19,20,20,21,21,22,22,23,23,24,24,25,25,26,26,27,27,28,28,29,29,30,30,31,31,32,32,33,33,34,34,35,35,36,36,37,37,38,38,39,39,40,40,41,41,42,42,43,43,44,44,45,45,46,46,47,47,48,48,49,49,50,50,51,51,52,52,53,53,54,54,55,55,56,56,57,57,58,58,59,59,60,60,61,61,62,62],"right_children":[2,4,6,8,10,12,14,16,18,20,22,24,26,28,30,32,34,36,38,40,42,44,46,48,50,52,54,56,58,60,62,64,66,68,70,72,74,76,78,80,82,84,86,88,90,92,94,96,98,100,102,104,106,108,110,112,114,116,118,120,122,124,126,-1,-1,-1,-1,-1,-1,-1,-1,-1,-1,-1,-1,-1,-1,-1,-1,-1,-1,-1,-1,-1,-1,-1,-1,-1,-1,-1,-1,-1,-1,-1,-1,-1,-1,-1,-1,-1,-1,-1,-1,-1,-1,-1,-1,-1,-1,-1,-1,-1,-1,-1,-1,-1,-1,-1,-1,-1,-1,-1,-1,-1,-1,-1,-1],"split_conditions":[1.18E1,7.2E0,1.58E1,5.4E0,9.4E0,4.2E0,1.96E1,3.2E0,1.8E0,2.4E0,4.6E0,1.34E1,1.48E1,4E0,7E0,4E-1,4.084E-1,-4.3333335E0,-1.9E0,-7E-1,3.98E-1,4.166E-1,-4.4366665E-2,-1.2E0,2.0333333E0,-4.9333334E0,2.8333333E0,-1.4333333E0,2E0,4.8E0,1.973E-1,1.4E0,1E0,3.6E0,-3.8733333E-2,4.7619048E-1,5.6E0,2.6E0,-1.4444444E0,7.7766664E-2,-2.5E-1,8.438009E0,-1E0,1.06E1,1.2666667E0,-5.5233333E-2,6.4E0,-6E-1,3.2E0,-1.1111111E-1,5.3572383E0,-2.2E0,1.2E0,-1.8666667E0,-3.3333335E-2,4.44E-2,4.360048E-1,3.718E-1,5.462E-1,-2.5E-1,3.3333334E-1,1.5E0,2.14E1,-2.9045796E-1,-2.3658232E-1,-7.8110814E-2,-2.008968E-1,-1.8909128E-1,1.8228303E-1,-1.7782323E-1,-1.2857689E-1,-1.8489495E-1,7.228304E-2,-1.2924056E-1,-3.3976037E-2,2.086496E-1,-1.8110821E-2,1.5293534E-1,-9.448435E-2,-2.1725537E-2,-9.572335E-2,-1.0531405E-1,-7.019631E-2,-6.660471E-2,-2.2460197E-1,7.571035E-2,-2.3336837E-2,-5.4979455E-2,1.0112944E-2,2.8114362E-2,1.2846601E-1,3.2050332E-1,1.49041E-1,5.3809512E-2,1.8446393E-1,8.737149E-2,3.8258207E-1,5.4679576E-2,1.0519145E-1,2.097817E-1,1.3382764E-1,9.861363E-2,-1.5984876E-2,5.1112145E-1,2.5711578E-1,2.792907E-1,1.5506539E-1,5.206799E-1,2.746359E-1,2.353709E-2,2.2468577E-1,3.8818383E-1,1.095821E-1,-1.7608099E-2,2.0914292E-1,1.698104E-1,3.263512E-1,3.9654317E-1,7.7737147E-1,-3.96462E-2,2.7938914E-1,3.7818363E-1,9.22283E-1,5.212223E-1,1.7035379E-1,2.283039E-3,2.388184E-1],"split_indices":[4,4,4,4,4,12,4,4,12,12,12,4,4,12,12,14,14,3,13,13,6,14,15,25,1,1,1,13,20,8,15,4,12,5,11,23,8,12,25,11,25,26,9,4,25,11,12,17,12,25,26,19,8,17,9,11,27,6,6,23,15,25,4,0,0,0,0,0,0,0,0,0,0,0,0,0,0,0,0,0,0,0,0,0,0,0,0,0,0,0,0,0,0,0,0,0,0,0,0,0,0,0,0,0,0,0,0,0,0,0,0,0,0,0,0,0,0,0,0,0,0,0,0,0,0,0,0],"split_type":[0,0,0,0,0,0,0,0,0,0,0,0,0,0,0,0,0,0,0,0,0,0,0,0,0,0,0,0,0,0,0,0,0,0,0,0,0,0,0,0,0,0,0,0,0,0,0,0,0,0,0,0,0,0,0,0,0,0,0,0,0,0,0,0,0,0,0,0,0,0,0,0,0,0,0,0,0,0,0,0,0,0,0,0,0,0,0,0,0,0,0,0,0,0,0,0,0,0,0,0,0,0,0,0,0,0,0,0,0,0,0,0,0,0,0,0,0,0,0,0,0,0,0,0,0,0,0],"sum_hessian":[1.1926E4,8.388E3,3.538E3,4.298E3,4.09E3,2.115E3,1.423E3,2.415E3,1.883E3,2.185E3,1.905E3,1.397E3,7.18E2,1.006E3,4.17E2,6.54E2,1.761E3,1.174E3,7.09E2,1.529E3,6.56E2,1.706E3,1.99E2,7.59E2,6.38E2,5.44E2,1.74E2,2.65E2,7.41E2,2.18E2,1.99E2,5.68E2,8.6E1,1.322E3,4.39E2,1.15E2,1.059E3,1.7E1,6.92E2,3.38E2,1.191E3,1.31E2,5.25E2,5.79E2,1.127E3,5.3E1,1.46E2,1.6E1,7.43E2,4.28E2,2.1E2,4.3E1,5.01E2,1.33E2,4.1E1,4.3E1,2.22E2,6.88E2,5.3E1,1.6E1,2.02E2,1.94E2,5E0,7.2E1,4.96E2,1.1E1,7.5E1,1.32E3,2E0,1.46E2,2.93E2,1.13E2,2E0,1.019E3,4E1,6E0,1.1E1,6E0,6.86E2,2.55E2,8.3E1,3.57E2,8.34E2,1.16E2,1.5E1,5E1,4.75E2,3.54E2,2.25E2,1.09E3,3.7E1,1.9E1,3.4E1,1.07E2,3.9E1,7E0,9E0,5.62E2,1.81E2,1.77E2,2.51E2,1.66E2,4.4E1,7E0,3.6E1,4.7E1,4.54E2,1.3E1,1.2E2,1.3E1,2.8E1,3.4E1,9E0,1.2E1,2.1E2,2.9E1,6.59E2,4.6E1,7E0,5E0,1.1E1,2E2,2E0,1.89E2,5E0,2E0,3E0],"tree_param":{"num_deleted":"0","num_feature":"32","num_nodes":"127","size_leaf_vector":"1"}},{"base_weights":[-7.2190545E-2,-3.0745757E0,6.8305016E0,-5.3356924E0,-7.8215384E-1,4.1193733E0,1.1301151E1,-6.505469E0,-4.3972836E0,-1.9213668E0,4.925804E-1,3.2447512E0,5.702287E0,9.721587E0,1.4009838E1,-7.821586E0,-6.079528E0,-4.794923E0,-3.5582023E0,-1.1584711E0,-2.4677782E0,1.7047007E0,-4.9013E-1,3.9154992E0,1.9864893E0,4.492759E0,7.47658E0,1.10280905E1,7.8649044E0,1.49036255E1,1.1364808E1,2.1143055E0,-7.8925242E0,-6.3147097E0,-4.584624E0,-4.9558434E0,-3.0068908E0,-3.0587525E0,-4.8719873E0,-2.371993E0,-3.4513587E-1,-3.2640047E0,-1.7912748E0,2.7975342E0,4.9508893E-1,-8.518149E-1,1.5374119E0,6.323771E0,3.5496693E0,-6.814187E-1,2.5229366E0,5.2852187E0,1.6468632E0,8.786024E0,5.899052E0,1.5392198E1,1.0661849E1,4.0655413E0,8.827013E0,5.1447115E0,1.5103973E1,1.0527947E1,1.6721746E1,-2.9513454E-3,8.653978E-2,-2.828644E-1,-2.2414158E-1,-1.903628E-1,7.255964E-2,1.615797E-2,-1.4331667E-1,-1.9604154E-1,-1.434154E-1,-2.3856513E-2,-1.4119945E-1,2.0133747E-2,-9.6916184E-2,-1.8198296E-1,-1.03216365E-1,-4.291419E-2,-1.16128534E-1,1.1924648E-1,-1.6505808E-2,-1.0468349E-1,-2.8183836E-2,-6.6571E-2,-1.8538713E-2,1.06928974E-1,3.218573E-2,-1.928984E-2,4.061233E-2,9.193114E-2,-2.9081976E-2,3.0750765E-2,1.7723256E-1,8.925708E-2,2.2667143E-1,1.3910867E-1,8.104725E-2,2.0022985E-2,-9.288217E-2,1.9567232E-1,6.5725796E-2,1.9002856E-1,1.1113361E-1,2.4068835E-1,2.4723837E-2,-7.986908E-2,2.7208167E-1,2.5981793E-1,1.3420632E-1,5.6309775E-2,4.83326E-1,3.157924E-1,7.1526855E-1,1.8482895E-1,3.635825E-2,2.936409E-1,1.9129765E-1,2.0882915E-1,-2.4243984E-2,1.0166325E-1,4.5674187E-1,3.5006902E-1,2.2298613E-1,7.853953E-2,5.24624E-1],"categories":[],"categories_nodes":[],"categories_segments":[],"categories_sizes":[],"default_left":[0,0,0,0,0,0,0,0,0,0,0,0,0,0,0,0,0,0,0,0,0,0,0,0,0,0,0,0,0,0,0,0,0,0,0,0,0,0,0,0,0,0,0,0,0,0,0,0,0,0,0,0,0,0,0,0,0,0,0,0,0,0,0,0,0,0,0,0,0,0,0,0,0,0,0,0,0,0,0,0,0,0,0,0,0,0,0,0,0,0,0,0,0,0,0,0,0,0,0,0,0,0,0,0,0,0,0,0,0,0,0,0,0,0,0,0,0,0,0,0,0,0,0,0,0,0,0],"id":1,"left_children":[1,3,5,7,9,11,13,15,17,19,21,23,25,27,29,31,33,35,37,39,41,43,45,47,49,51,53,55,57,59,61,63,65,67,69,71,73,75,77,79,81,83,85,87,89,91,93,95,97,99,101,103,105,107,109,111,113,115,117,119,121,123,125,-1,-1,-1,-1,-1,-1,-1,-1,-1,-1,-1,-1,-1,-1,-1,-1,-1,-1,-1,-1,-1,-1,-1,-1,-1,-1,-1,-1,-1,-1,-1,-1,-1,-1,-1,-1,-1,-1,-1,-1,-1,-1,-1,-1,-1,-1,-1,-1,-1,-1,-1,-1,-1,-1,-1,-1,-1,-1,-1,-1,-1,-1,-1,-1],"loss_changes":[2.480523E5,4.3230844E4,4.392664E4,4.580758E3,6.017385E3,3.1103594E3,5.721125E3,9.990625E2,7.6135156E2,9.092207E2,2.330751E3,1.2227393E3,1.6896934E3,2.0188281E3,1.01740625E3,3.359746E2,4.6853125E2,4.3971094E2,4.798506E2,9.022865E2,6.8039307E2,1.156603E3,7.940407E2,8.1451855E2,7.301958E2,1.0738184E3,6.174512E2,6.462383E2,1.2873672E3,6.496094E2,4.1122852E2,7.101986E0,2.2069922E2,3.426289E2,1.9597168E2,3.6960156E2,4.9624548E2,3.53937E2,3.3124512E2,5.124094E2,4.8852042E2,3.02771E2,3.4543945E2,6.0449E2,4.0837186E2,4.2569305E2,3.6119016E2,4.890454E2,7.500674E2,2.8216925E2,5.488386E2,5.984082E2,5.494458E2,5.918574E2,5.5174756E2,3.2913965E2,5.898047E2,4.4099585E2,6.157988E2,1.0293263E2,4.6335938E2,3.2292578E2,1.27010254E2,0E0,0E0,0E0,0E0,0E0,0E0,0E0,0E0,0E0,0E0,0E0,0E0,0E0,0E0,0E0,0E0,0E0,0E0,0E0,0E0,0E0,0E0,0E0,0E0,0E0,0E0,0E0,0E0,0E0,0E0,0E0,0E0,0E0,0E0,0E0,0E0,0E0,0E0,0E0,0E0,0E0,0E0,0E0,0E0,0E0,0E0,0E0,0E0,0E0,0E0,0E0,0E0,0E0,0E0,0E0,0E0,0E0,0E0,0E0,0E0,0E0,0E0,0E0,0E0],"parents":[2147483647,0,0,1,1,2,2,3,3,4,4,5,5,6,6,7,7,8,8,9,9,10,10,11,11,12,12,13,13,14,14,15,15,16,16,17,17,18,18,19,19,20,20,21,21,22,22,23,23,24,24,25,25,26,26,27,27,28,28,29,29,30,30,31,31,32,32,33,33,34,34,35,35,36,36,37,37,38,38,39,39,40,40,41,41,42,42,43,43,44,44,45,45,46,46,47,47,48,48,49,49,50,50,51,51,52,52,53,53,54,54,55,55,56,56,57,57,58,58,59,59,60,60,61,61,62,62],"right_children":[2,4,6,8,10,12,14,16,18,20,22,24,26,28,30,32,34,36,38,40,42,44,46,48,50,52,54,56,58,60,62,64,66,68,70,72,74,76,78,80,82,84,86,88,90,92,94,96,98,100,102,104,106,108,110,112,114,116,118,120,122,124,126,-1,-1,-1,-1,-1,-1,-1,-1,-1,-1,-1,-1,-1,-1,-1,-1,-1,-1,-1,-1,-1,-1,-1,-1,-1,-1,-1,-1,-1,-1,-1,-1,-1,-1,-1,-1,-1,-1,-1,-1,-1,-1,-1,-1,-1,-1,-1,-1,-1,-1,-1,-1,-1,-1,-1,-1,-1,-1,-1,-1,-1,-1,-1,-1],"split_conditions":[1.5E1,8.8E0,2.12E1,5.8E0,1.18E1,4.2E0,2.66E1,3E0,7.8E0,4.372E-1,4.528E-1,4.192E-1,1.9E1,4.946E-1,6.8733335E-2,8.66E1,2.18E1,2.7E1,5.076E-1,2.4E1,1.02E1,3.238E-1,2.2E0,4.056E-1,1.56E1,1.5333333E0,4.466667E-3,-3.1333334E0,1.8E0,2.98E1,1.04E1,1.26E1,6.6E0,5.6E0,1.8E0,-5E-1,3.59E-1,1.9493588E0,2.16E1,2E0,2.4E0,3.2E0,1.6E0,7.048E-1,1.3E1,-1.1E0,4.8E0,-8.75E-1,1.3333334E-1,4.669047E0,-2.3333333E0,4.8E-1,-2.2E0,4.866E-1,-3.4966666E-2,2.4E0,3.1103334E-1,4.324E-1,1.138E2,4.1666666E-1,3.6E0,1.527E-1,-2.5666666E0,-2.9513454E-3,8.653978E-2,-2.828644E-1,-2.2414158E-1,-1.903628E-1,7.255964E-2,1.615797E-2,-1.4331667E-1,-1.9604154E-1,-1.434154E-1,-2.3856513E-2,-1.4119945E-1,2.0133747E-2,-9.6916184E-2,-1.8198296E-1,-1.03216365E-1,-4.291419E-2,-1.16128534E-1,1.1924648E-1,-1.6505808E-2,-1.0468349E-1,-2.8183836E-2,-6.6571E-2,-1.8538713E-2,1.06928974E-1,3.218573E-2,-1.928984E-2,4.061233E-2,9.193114E-2,-2.9081976E-2,3.0750765E-2,1.7723256E-1,8.925708E-2,2.2667143E-1,1.3910867E-1,8.104725E-2,2.0022985E-2,-9.288217E-2,1.9567232E-1,6.5725796E-2,1.9002856E-1,1.1113361E-1,2.4068835E-1,2.4723837E-2,-7.986908E-2,2.7208167E-1,2.5981793E-1,1.3420632E-1,5.6309775E-2,4.83326E-1,3.157924E-1,7.1526855E-1,1.8482895E-1,3.635825E-2,2.936409E-1,1.9129765E-1,2.0882915E-1,-2.4243984E-2,1.0166325E-1,4.5674187E-1,3.5006902E-1,2.2298613E-1,7.853953E-2,5.24624E-1],"split_indices":[0,0,0,0,0,12,0,0,0,6,6,10,0,6,15,30,2,2,6,2,0,10,24,6,0,13,7,5,24,2,8,2,2,18,16,21,6,26,2,12,8,12,24,14,0,25,12,5,5,26,5,6,5,14,15,12,15,10,30,21,12,15,13,0,0,0,0,0,0,0,0,0,0,0,0,0,0,0,0,0,0,0,0,0,0,0,0,0,0,0,0,0,0,0,0,0,0,0,0,0,0,0,0,0,0,0,0,0,0,0,0,0,0,0,0,0,0,0,0,0,0,0,0,0,0,0,0],"split_type":[0,0,0,0,0,0,0,0,0,0,0,0,0,0,0,0,0,0,0,0,0,0,0,0,0,0,0,0,0,0,0,0,0,0,0,0,0,0,0,0,0,0,0,0,0,0,0,0,0,0,0,0,0,0,0,0,0,0,0,0,0,0,0,0,0,0,0,0,0,0,0,0,0,0,0,0,0,0,0,0,0,0,0,0,0,0,0,0,0,0,0,0,0,0,0,0,0,0,0,0,0,0,0,0,0,0,0,0,0,0,0,0,0,0,0,0,0,0,0,0,0,0,0,0,0,0,0],"sum_hessian":[1.1967E4,8.34E3,3.627E3,4.198E3,4.142E3,2.259E3,1.368E3,1.866E3,2.332E3,2.187E3,1.955E3,1.457E3,8.02E2,8.67E2,5.01E2,4.52E2,1.414E3,1.579E3,7.53E2,9.14E2,1.273E3,8.75E2,1.08E3,9.49E2,5.08E2,4.79E2,3.23E2,5.06E2,3.61E2,3.71E2,1.3E2,3E0,4.49E2,1.219E3,1.95E2,1.447E3,1.32E2,5.48E2,2.05E2,3.66E2,5.48E2,5.83E2,6.9E2,4.59E2,4.16E2,9.17E2,1.63E2,1.23E2,8.26E2,8.5E1,4.23E2,3.74E2,1.05E2,1.74E2,1.49E2,3.6E1,4.7E2,7.4E1,2.87E2,8E0,3.63E2,1.15E2,1.5E1,1E0,2E0,9.2E1,3.57E2,1.215E3,4E0,7E0,1.88E2,1.41E2,1.306E3,5.8E1,7.4E1,2.4E1,5.24E2,1.1E2,9.5E1,2.26E2,1.4E2,2.4E1,5.24E2,5.31E2,5.2E1,5.05E2,1.85E2,3.17E2,1.42E2,1.79E2,2.37E2,2.6E1,8.91E2,1.47E2,1.6E1,3.4E1,8.9E1,3.6E2,4.66E2,5.5E1,3E1,3.1E1,3.92E2,2.23E2,1.51E2,1.1E1,9.4E1,4E0,1.7E2,4.9E1,1E2,2E0,3.4E1,4.67E2,3E0,4.2E1,3.2E1,2.04E2,8.3E1,6E0,2E0,4E0,3.59E2,8.2E1,3.3E1,1E0,1.4E1],"tree_param":{"num_deleted":"0","num_feature":"32","num_nodes":"127","size_leaf_vector":"1"}},{"base_weights":[-6.4462E-3,-3.4242156E0,5.777532E0,-5.220429E0,-1.2288935E0,3.4396694E0,1.09858E1,-6.2845535E0,-3.9733121E0,-1.9566472E0,6.650108E-2,2.3049042E0,5.290224E0,9.427187E0,1.4055428E1,-7.111083E0,-5.534599E0,2.0814435E0,-4.019336E0,-2.9915028E0,-1.5430458E0,-2.0748211E-1,2.241761E0,1.7494429E0,4.773915E0,5.869535E0,2.9922934E0,1.0608469E1,7.656926E0,1.0725144E1,1.4537688E1,-7.7869983E0,-6.538815E0,-5.7014847E0,-3.5406477E0,5.16033E0,-1.5325184E-1,-4.4057026E0,-3.2649896E0,9.7761804E-1,-3.1401532E0,8.732383E0,-1.5753635E0,-9.9178344E-1,3.826691E-1,-3.9237533E0,2.7095828E0,7.6137197E-1,2.3602622E0,4.1521306E0,8.573565E0,5.208007E0,7.114053E0,3.3187554E0,-3.9870455E0,9.968842E0,1.2888051E1,4.291233E0,8.588627E0,-1.7823756E0,1.139133E1,1.2680381E1,1.5715319E1,-1.3472019E-1,-2.3946372E-1,-1.5364737E-2,-1.9771801E-1,-1.3547008E-1,-1.786495E-1,-6.1343264E-2,-1.6414677E-1,2.52394E-1,-7.906082E-2,-1.3806999E-1,-5.2067447E-2,-1.20782115E-1,-6.9916025E-2,2.0495255E-1,-6.03165E-2,-8.230417E-2,-1.2569885E-1,5.545894E-2,2.997349E-1,1.4710666E-1,-4.8753493E-2,1.0194504E-1,-3.653928E-2,-7.3060663E-3,4.792419E-2,-1.7900284E-1,-2.0621767E-2,-7.158535E-2,9.640116E-2,5.960609E-3,7.276785E-2,-6.0575493E-2,7.512044E-2,1.0935958E-1,2.0052582E-1,3.7168336E-1,1.1661587E-1,1.3847552E-1,1.8573311E-1,2.2067998E-1,-9.875546E-3,1.6387418E-1,7.4250534E-2,-1.7567968E-1,2.2428095E-2,3.02856E-1,2.6728088E-2,8.068021E-2,4.0259686E-1,1.9717932E-1,2.1135358E-2,2.4461147E-1,4.78813E-1,-9.087286E-3,-9.33116E-2,2.7236384E-1,4.4603765E-1,3.86694E-1,-7.727625E-2,4.302045E-1,5.4162806E-1],"categories":[],"categories_nodes":[],"categories_segments":[],"categories_sizes":[],"default_left":[0,0,0,0,0,0,0,0,0,0,0,0,0,0,0,0,0,0,0,0,0,0,0,0,0,0,0,0,0,0,0,0,0,0,0,0,0,0,0,0,0,0,0,0,0,0,0,0,0,0,0,0,0,0,0,0,0,0,0,0,0,0,0,0,0,0,0,0,0,0,0,0,0,0,0,0,0,0,0,0,0,0,0,0,0,0,0,0,0,0,0,0,0,0,0,0,0,0,0,0,0,0,0,0,0,0,0,0,0,0,0,0,0,0,0,0,0,0,0,0,0,0,0,0,0],"id":2,"left_children":[1,3,5,7,9,11,13,15,17,19,21,23,25,27,29,31,33,35,37,39,41,43,45,47,49,51,53,55,57,59,61,63,65,67,69,71,-1,73,75,77,79,81,83,85,87,89,91,93,95,97,99,101,103,105,107,109,111,113,115,117,119,121,123,-1,-1,-1,-1,-1,-1,-1,-1,-1,-1,-1,-1,-1,-1,-1,-1,-1,-1,-1,-1,-1,-1,-1,-1,-1,-1,-1,-1,-1,-1,-1,-1,-1,-1,-1,-1,-1,-1,-1,-1,-1,-1,-1,-1,-1,-1,-1,-1,-1,-1,-1,-1,-1,-1,-1,-1,-1,-1,-1,-1,-1,-1],"loss_changes":[2.3577658E5,2.955625E4,5.390283E4,5.4466094E3,3.1818374E3,6.411539E3,6.4316406E3,1.3385938E3,5.381094E2,9.2033105E2,7.245865E2,2.5946416E3,1.5293105E3,1.8280234E3,5.82875E2,3.5677344E2,3.6914844E2,3.584114E2,5.355879E2,3.665166E2,5.2715137E2,5.002644E2,4.029051E2,9.342822E2,7.8657227E2,7.261328E2,5.5095557E2,6.661758E2,1.1202617E3,5.369082E2,6.734219E2,2.7160352E2,1.7670312E2,2.9716016E2,2.5743274E2,3.0110806E2,0E0,6.456719E2,4.4791602E2,4.1607767E2,2.3586914E2,2.4855652E1,5.050249E2,4.64879E2,4.6975076E2,6.2017624E1,3.3370074E2,5.557594E2,6.081719E2,3.6190088E2,8.1020605E2,3.2594922E2,5.7689844E2,3.952544E2,1.0171469E2,4.8425E2,5.931074E2,6.663578E2,7.9321484E2,6.9168243E0,3.3936182E2,5.443965E2,5.130469E2,0E0,0E0,0E0,0E0,0E0,0E0,0E0,0E0,0E0,0E0,0E0,0E0,0E0,0E0,0E0,0E0,0E0,0E0,0E0,0E0,0E0,0E0,0E0,0E0,0E0,0E0,0E0,0E0,0E0,0E0,0E0,0E0,0E0,0E0,0E0,0E0,0E0,0E0,0E0,0E0,0E0,0E0,0E0,0E0,0E0,0E0,0E0,0E0,0E0,0E0,0E0,0E0,0E0,0E0,0E0,0E0,0E0,0E0,0E0,0E0,0E0,0E0],"parents":[2147483647,0,0,1,1,2,2,3,3,4,4,5,5,6,6,7,7,8,8,9,9,10,10,11,11,12,12,13,13,14,14,15,15,16,16,17,17,18,18,19,19,20,20,21,21,22,22,23,23,24,24,25,25,26,26,27,27,28,28,29,29,30,30,31,31,32,32,33,33,34,34,35,35,37,37,38,38,39,39,40,40,41,41,42,42,43,43,44,44,45,45,46,46,47,47,48,48,49,49,50,50,51,51,52,52,53,53,54,54,55,55,56,56,57,57,58,58,59,59,60,60,61,61,62,62],"right_children":[2,4,6,8,10,12,14,16,18,20,22,24,26,28,30,32,34,36,38,40,42,44,46,48,50,52,54,56,58,60,62,64,66,68,70,72,-1,74,76,78,80,82,84,86,88,90,92,94,96,98,100,102,104,106,108,110,112,114,116,118,120,122,124,-1,-1,-1,-1,-1,-1,-1,-1,-1,-1,-1,-1,-1,-1,-1,-1,-1,-1,-1,-1,-1,-1,-1,-1,-1,-1,-1,-1,-1,-1,-1,-1,-1,-1,-1,-1,-1,-1,-1,-1,-1,-1,-1,-1,-1,-1,-1,-1,-1,-1,-1,-1,-1,-1,-1,-1,-1,-1,-1,-1,-1,-1],"split_conditions":[1.06E1,8.8E0,2.12E1,5.2E0,1.2E1,1.34E1,2.7E1,3.8E0,-1.2E0,7.2E0,2.4E0,4.4E0,2.9333334E0,4.946E-1,2E0,6E-1,2.46E1,3.872E-1,7.8E0,-1.7E0,2.592E-1,2.62E1,3.5E-1,2.6E0,7.6615925E0,4.2E0,1.47184925E1,2.52E1,1.8E0,1.1401755E0,1.07E2,-3.2E0,-1.9E0,2E0,2.038E-1,7.8E0,-1.5325184E-1,2.74E1,1.4E0,-2.9166666E-1,4.35E-1,9E0,2.2513433E-1,8E-1,3.2015345E-1,6.666667E-2,1.22E1,6.8E0,-2.0166667E-1,6.6E0,2.78E1,1.12E2,1.46757145E1,4.302E-1,5.0726604E-1,1.18E1,9.7E1,4.324E-1,9.4E0,2.82E1,5E0,1.2E1,8.8E0,-1.3472019E-1,-2.3946372E-1,-1.5364737E-2,-1.9771801E-1,-1.3547008E-1,-1.786495E-1,-6.1343264E-2,-1.6414677E-1,2.52394E-1,-7.906082E-2,-1.3806999E-1,-5.2067447E-2,-1.20782115E-1,-6.9916025E-2,2.0495255E-1,-6.03165E-2,-8.230417E-2,-1.2569885E-1,5.545894E-2,2.997349E-1,1.4710666E-1,-4.8753493E-2,1.0194504E-1,-3.653928E-2,-7.3060663E-3,4.792419E-2,-1.7900284E-1,-2.0621767E-2,-7.158535E-2,9.640116E-2,5.960609E-3,7.276785E-2,-6.0575493E-2,7.512044E-2,1.0935958E-1,2.0052582E-1,3.7168336E-1,1.1661587E-1,1.3847552E-1,1.8573311E-1,2.2067998E-1,-9.875546E-3,1.6387418E-1,7.4250534E-2,-1.7567968E-1,2.2428095E-2,3.02856E-1,2.6728088E-2,8.068021E-2,4.0259686E-1,1.9717932E-1,2.1135358E-2,2.4461147E-1,4.78813E-1,-9.087286E-3,-9.33116E-2,2.7236384E-1,4.4603765E-1,3.86694E-1,-7.727625E-2,4.302045E-1,5.4162806E-1],"split_indices":[4,0,0,4,0,4,0,4,25,4,24,12,1,6,24,12,2,10,0,13,6,2,14,18,26,12,31,0,24,26,30,1,19,28,10,4,0,2,12,21,10,0,27,18,27,13,0,16,11,12,2,30,31,6,27,8,30,10,18,0,18,8,12,0,0,0,0,0,0,0,0,0,0,0,0,0,0,0,0,0,0,0,0,0,0,0,0,0,0,0,0,0,0,0,0,0,0,0,0,0,0,0,0,0,0,0,0,0,0,0,0,0,0,0,0,0,0,0,0,0,0,0,0,0,0],"split_type":[0,0,0,0,0,0,0,0,0,0,0,0,0,0,0,0,0,0,0,0,0,0,0,0,0,0,0,0,0,0,0,0,0,0,0,0,0,0,0,0,0,0,0,0,0,0,0,0,0,0,0,0,0,0,0,0,0,0,0,0,0,0,0,0,0,0,0,0,0,0,0,0,0,0,0,0,0,0,0,0,0,0,0,0,0,0,0,0,0,0,0,0,0,0,0,0,0,0,0,0,0,0,0,0,0,0,0,0,0,0,0,0,0,0,0,0,0,0,0,0,0,0,0,0,0],"sum_hessian":[1.1925E4,7.496E3,4.429E3,4.122E3,3.374E3,3.058E3,1.371E3,2.222E3,1.9E3,2.16E3,1.214E3,1.897E3,1.161E3,9.12E2,4.59E2,1.053E3,1.169E3,1.4E1,1.886E3,6.15E2,1.545E3,1.079E3,1.35E2,1.55E3,3.47E2,9.26E2,2.35E2,5.44E2,3.68E2,6.1E1,3.98E2,4.77E2,5.76E2,1.077E3,9.2E1,1E1,4E0,1.244E3,6.42E2,2.2E1,5.93E2,4E0,1.541E3,4.63E2,6.16E2,9E0,1.26E2,5.93E2,9.57E2,3E2,4.7E1,6.08E2,3.18E2,2.25E2,1E1,4.29E2,1.15E2,8.1E1,2.87E2,3E0,5.8E1,1.59E2,2.39E2,2.8E1,4.49E2,5E0,5.71E2,1.93E2,8.84E2,5.3E1,3.9E1,7E0,3E0,1.158E3,8.6E1,3.52E2,2.9E2,7E0,1.5E1,4.33E2,1.6E2,1E0,3E0,1.1E1,1.53E3,2.2E1,4.41E2,4.07E2,2.09E2,5E0,4E0,1.1E1,1.15E2,4.44E2,1.49E2,3E1,9.27E2,2.52E2,4.8E1,2.5E1,2.2E1,3.83E2,2.25E2,3.08E2,1E1,6.2E1,1.63E2,7E0,3E0,4.23E2,6E0,6E0,1.09E2,4.9E1,3.2E1,2.73E2,1.4E1,2E0,1E0,3.7E1,2.1E1,1.57E2,2E0,1.55E2,8.4E1],"tree_param":{"num_deleted":"0","num_feature":"32","num_nodes":"125","size_leaf_vector":"1"}},{"base_weights":[-1.1792029E-2,-2.8829656E0,6.5034757E0,-5.2142425E0,-9.719537E-1,3.878028E0,1.0771521E1,-6.598485E0,-4.413128E0,-2.0069242E0,6.4642334E-1,2.6395636E0,5.113073E0,9.546928E0,1.4625703E1,-7.1811895E0,-6.045924E0,-4.8037143E0,-3.2226033E0,-2.8893378E0,-1.4701058E0,2.5195703E-1,3.5336978E0,1.7631254E0,3.8740141E0,4.1460485E0,6.601013E0,8.550465E0,1.1169717E1,1.571344E1,1.2473971E1,-8.82539E0,-6.9620533E0,-2.3165436E0,-6.139719E0,-4.8558187E0,1.257334E0,7.5930142E0,-3.3282046E0,-3.849203E0,-2.245362E0,-1.5742766E0,3.0950134E0,-7.193367E-1,7.715712E-1,1.1438287E0,5.0391583E0,-1.3947567E0,2.03328E0,5.0373855E0,2.517651E0,7.947312E0,3.7244885E0,8.610322E0,5.6697598E0,5.5297217E0,9.308055E0,1.2998761E1,9.644633E0,5.891757E0,1.5963621E1,1.3313505E1,6.342321E0,-2.7328676E-1,-9.2458166E-2,-1.8218583E-1,-2.1927473E-1,-2.0068394E-1,6.4890506E-3,-5.5499175E-3,-1.8548553E-1,-1.471393E-1,-1.0225856E-2,-1.9040301E-1,1.2962796E-1,2.741984E-1,-2.1246958E-3,-8.069381E-2,-1.2696157E-1,-1.0374272E-1,-1.5869732E-1,-1.4920343E-1,-6.2167007E-2,-4.829875E-2,1.8454151E-1,1.2629507E-1,-1.5983239E-1,2.0584214E-1,-2.5767168E-2,1.4456041E-1,2.0331483E-2,3.932905E-1,1.616403E-2,3.0512009E-2,1.9484854E-1,1.1915417E-1,-8.205486E-2,-4.935404E-2,6.7969E-2,1.881079E-1,1.0820315E-1,9.381351E-2,-6.1378074E-3,1.8017646E-2,2.7173454E-1,1.1763163E-1,-5.470705E-2,1.679113E-1,2.9441595E-1,2.3127025E-1,1.3897535E-1,3.75419E-1,1.3044797E-1,2.0821431E-1,2.9944763E-1,3.959617E-1,2.8520435E-2,6.4206564E-1,2.782528E-1,2.2764418E-1,-6.429804E-2,4.895874E-1,2.6013035E-1,4.9209976E-1,3.3166507E-1,2.2797477E-1,-4.9110934E-2],"categories":[],"categories_nodes":[],"categories_segments":[],"categories_sizes":[],"default_left":[0,0,0,0,0,0,0,0,0,0,0,0,0,0,0,0,0,0,0,0,0,0,0,0,0,0,0,0,0,0,0,0,0,0,0,0,0,0,0,0,0,0,0,0,0,0,0,0,0,0,0,0,0,0,0,0,0,0,0,0,0,0,0,0,0,0,0,0,0,0,0,0,0,0,0,0,0,0,0,0,0,0,0,0,0,0,0,0,0,0,0,0,0,0,0,0,0,0,0,0,0,0,0,0,0,0,0,0,0,0,0,0,0,0,0,0,0,0,0,0,0,0,0,0,0,0,0],"id":3,"left_children":[1,3,5,7,9,11,13,15,17,19,21,23,25,27,29,31,33,35,37,39,41,43,45,47,49,51,53,55,57,59,61,63,65,67,69,71,73,75,77,79,81,83,85,87,89,91,93,95,97,99,101,103,105,107,109,111,113,115,117,119,121,123,125,-1,-1,-1,-1,-1,-1,-1,-1,-1,-1,-1,-1,-1,-1,-1,-1,-1,-1,-1,-1,-1,-1,-1,-1,-1,-1,-1,-1,-1,-1,-1,-1,-1,-1,-1,-1,-1,-1,-1,-1,-1,-1,-1,-1,-1,-1,-1,-1,-1,-1,-1,-1,-1,-1,-1,-1,-1,-1,-1,-1,-1,-1,-1,-1],"loss_changes":[2.2376678E5,3.698561E4,4.095925E4,4.118297E3,7.6458706E3,3.4540117E3,6.4350625E3,3.973711E2,1.0875078E3,1.3145215E3,2.0275482E3,1.2200669E3,1.6043145E3,1.6185625E3,5.857344E2,1.7671875E2,2.3378125E2,5.695078E2,6.9799316E2,6.416299E2,8.290044E2,7.919215E2,7.6417676E2,5.701577E2,7.289551E2,1.0760977E3,7.8385547E2,1.4612188E3,9.9041016E2,4.4160938E2,5.1784375E2,9.270117E1,1.3709766E2,2.1188962E2,1.7633398E2,3.8828906E2,4.0015848E2,7.177994E1,3.256001E2,2.1893164E2,2.881931E2,4.7715723E2,3.8863428E2,5.846389E2,3.8493262E2,6.010691E2,7.604426E2,3.9211212E2,5.2765405E2,4.2185498E2,3.6398596E2,5.4934375E2,6.8656934E2,4.491709E2,6.136572E2,1.0595493E3,7.7110156E2,4.1869336E2,7.660547E2,1.1167673E2,4.088203E2,5.3028906E2,1.7290015E2,0E0,0E0,0E0,0E0,0E0,0E0,0E0,0E0,0E0,0E0,0E0,0E0,0E0,0E0,0E0,0E0,0E0,0E0,0E0,0E0,0E0,0E0,0E0,0E0,0E0,0E0,0E0,0E0,0E0,0E0,0E0,0E0,0E0,0E0,0E0,0E0,0E0,0E0,0E0,0E0,0E0,0E0,0E0,0E0,0E0,0E0,0E0,0E0,0E0,0E0,0E0,0E0,0E0,0E0,0E0,0E0,0E0,0E0,0E0,0E0,0E0,0E0,0E0,0E0],"parents":[2147483647,0,0,1,1,2,2,3,3,4,4,5,5,6,6,7,7,8,8,9,9,10,10,11,11,12,12,13,13,14,14,15,15,16,16,17,17,18,18,19,19,20,20,21,21,22,22,23,23,24,24,25,25,26,26,27,27,28,28,29,29,30,30,31,31,32,32,33,33,34,34,35,35,36,36,37,37,38,38,39,39,40,40,41,41,42,42,43,43,44,44,45,45,46,46,47,47,48,48,49,49,50,50,51,51,52,52,53,53,54,54,55,55,56,56,57,57,58,58,59,59,60,60,61,61,62,62],"right_children":[2,4,6,8,10,12,14,16,18,20,22,24,26,28,30,32,34,36,38,40,42,44,46,48,50,52,54,56,58,60,62,64,66,68,70,72,74,76,78,80,82,84,86,88,90,92,94,96,98,100,102,104,106,108,110,112,114,116,118,120,122,124,126,-1,-1,-1,-1,-1,-1,-1,-1,-1,-1,-1,-1,-1,-1,-1,-1,-1,-1,-1,-1,-1,-1,-1,-1,-1,-1,-1,-1,-1,-1,-1,-1,-1,-1,-1,-1,-1,-1,-1,-1,-1,-1,-1,-1,-1,-1,-1,-1,-1,-1,-1,-1,-1,-1,-1,-1,-1,-1,-1,-1,-1,-1,-1,-1],"split_conditions":[1.16E1,8.2E0,2.12E1,4.2E0,9.4E0,3.2E0,2.84E1,3.2E0,6.6E0,7.4E0,4.4E0,1.34E1,1.9E1,1.8E1,3.33E-2,1.4E0,-2.9836667E-1,4.52833E-1,-1.2E0,4.084E-1,5.4E0,4.166E-1,1.04E1,1.2E1,8E-1,-4.6666665E0,4.466E-1,1.8E0,-5.3333336E-1,2.6E0,3.7333333E0,4.3333334E-1,-1.6333333E0,3.166E-1,-4.5E-1,5.4E0,-3.2E0,7.8E0,8.3333336E-2,3.1432503E-1,5E0,1.64E1,1.3186666E-1,-4E0,-7.5E-1,-2.5E-1,2.9664793E0,1.4E0,1.4E0,6E-1,5.4037023E0,2.4E0,5.5E0,3.18E1,-7E-1,-2.9333334E0,4.8E0,3.2666667E0,1.2E0,2.14E1,2.5E1,4.88E-1,1.4E0,-2.7328676E-1,-9.2458166E-2,-1.8218583E-1,-2.1927473E-1,-2.0068394E-1,6.4890506E-3,-5.5499175E-3,-1.8548553E-1,-1.471393E-1,-1.0225856E-2,-1.9040301E-1,1.2962796E-1,2.741984E-1,-2.1246958E-3,-8.069381E-2,-1.2696157E-1,-1.0374272E-1,-1.5869732E-1,-1.4920343E-1,-6.2167007E-2,-4.829875E-2,1.8454151E-1,1.2629507E-1,-1.5983239E-1,2.0584214E-1,-2.5767168E-2,1.4456041E-1,2.0331483E-2,3.932905E-1,1.616403E-2,3.0512009E-2,1.9484854E-1,1.1915417E-1,-8.205486E-2,-4.935404E-2,6.7969E-2,1.881079E-1,1.0820315E-1,9.381351E-2,-6.1378074E-3,1.8017646E-2,2.7173454E-1,1.1763163E-1,-5.470705E-2,1.679113E-1,2.9441595E-1,2.3127025E-1,1.3897535E-1,3.75419E-1,1.3044797E-1,2.0821431E-1,2.9944763E-1,3.959617E-1,2.8520435E-2,6.4206564E-1,2.782528E-1,2.2764418E-1,-6.429804E-2,4.895874E-1,2.6013035E-1,4.9209976E-1,3.3166507E-1,2.2797477E-1,-4.9110934E-2],"split_indices":[4,0,0,4,4,12,0,4,4,4,12,4,0,4,15,4,11,27,25,14,12,14,4,0,1,1,6,24,1,18,5,9,1,6,15,18,1,4,21,27,4,0,7,5,23,11,26,24,18,22,26,18,1,2,5,1,12,19,24,4,4,6,22,0,0,0,0,0,0,0,0,0,0,0,0,0,0,0,0,0,0,0,0,0,0,0,0,0,0,0,0,0,0,0,0,0,0,0,0,0,0,0,0,0,0,0,0,0,0,0,0,0,0,0,0,0,0,0,0,0,0,0,0,0,0,0,0],"split_type":[0,0,0,0,0,0,0,0,0,0,0,0,0,0,0,0,0,0,0,0,0,0,0,0,0,0,0,0,0,0,0,0,0,0,0,0,0,0,0,0,0,0,0,0,0,0,0,0,0,0,0,0,0,0,0,0,0,0,0,0,0,0,0,0,0,0,0,0,0,0,0,0,0,0,0,0,0,0,0,0,0,0,0,0,0,0,0,0,0,0,0,0,0,0,0,0,0,0,0,0,0,0,0,0,0,0,0,0,0,0,0,0,0,0,0,0,0,0,0,0,0,0,0,0,0,0,0],"sum_hessian":[1.196E4,8.302E3,3.658E3,3.739E3,4.563E3,2.266E3,1.392E3,1.368E3,2.371E3,2.783E3,1.78E3,1.133E3,1.133E3,1.059E3,3.33E2,6.6E2,7.08E2,1.783E3,5.88E2,1.051E3,1.732E3,1.567E3,2.13E2,6.64E2,4.69E2,6.89E2,4.44E2,6.6E2,3.99E2,2.17E2,1.16E2,7.3E1,5.87E2,1.8E1,6.9E2,1.768E3,1.5E1,5E0,5.83E2,4.2E2,6.31E2,1.694E3,3.8E1,5.46E2,1.021E3,8.3E1,1.3E2,5.2E1,6.12E2,2.51E2,2.18E2,6.7E1,6.22E2,1.38E2,3.06E2,1.34E2,5.26E2,1.78E2,2.21E2,6E0,2.11E2,1.01E2,1.5E1,6.9E1,4E0,1.7E2,4.17E2,6E0,1.2E1,5E0,6.85E2,1.749E3,1.9E1,4E0,1.1E1,4E0,1E0,3.44E2,2.39E2,3.33E2,8.7E1,3.6E1,5.95E2,1.687E3,7E0,3.4E1,4E0,9E0,5.37E2,2.2E1,9.99E2,3E0,8E1,3.5E1,9.5E1,1E1,4.2E1,3.6E1,5.76E2,1.33E2,1.18E2,1.78E2,4E1,9E0,5.8E1,6.01E2,2.1E1,4.1E1,9.7E1,1.01E2,2.05E2,1.8E1,1.16E2,1.19E2,4.07E2,1.75E2,3E0,5E0,2.16E2,5E0,1E0,2E2,1.1E1,4E1,6.1E1,1.3E1,2E0],"tree_param":{"num_deleted":"0","num_feature":"32","num_nodes":"127","size_leaf_vector":"1"}},{"base_weights":[2.50754E-3,-2.7543309E0,6.2867002E0,-5.094237E0,-8.9004135E-1,3.8740695E0,1.0335776E1,-6.420281E0,-4.318846E0,-1.9862467E0,5.818691E-1,2.6743083E0,5.0495543E0,9.004809E0,1.3315205E1,-6.751747E0,-5.3086905E0,-4.737346E0,-3.0631166E0,-3.8621051E0,-1.7655108E0,1.721616E-1,3.40635E0,2.1988928E0,5.73578E0,5.4489346E0,1.8525176E0,9.881659E0,7.4664607E0,1.23442955E1,1.6038198E1,-7.290095E0,-6.1143017E0,-5.5966372E0,-1.7446451E0,-3.6054342E0,-4.954398E0,8.285346E0,-3.1758163E0,-4.9955645E0,-2.6842327E0,-1.8516749E0,1.2148552E0,-8.073824E-1,7.162954E-1,5.226439E0,1.9519488E0,7.370974E-1,2.6000683E0,1.1529925E1,4.4946404E0,4.788638E0,6.8718596E0,4.232102E0,4.3699843E-1,8.57723E0,1.124236E1,7.087652E0,5.2163273E-1,8.279632E0,1.2879745E1,8.987898E0,1.684262E1,-2.1960087E-1,2.03345E-2,-1.9892445E-1,-1.4790973E-1,-6.1487865E-2,-1.72654E-1,2.1528499E-1,-1.13567084E-1,-1.13339685E-1,1.4971624E-1,-1.867326E-1,-1.418335E-1,2.9910958E-1,-2.0928239E-3,-1.4883064E-2,-1.0287351E-1,9.702043E-2,-1.5414806E-1,-1.7155016E-2,-1.05318405E-1,-9.726338E-2,-5.0928917E-2,-9.125594E-2,8.168931E-2,-1.9919554E-2,-1.8376072E-1,1.3802775E-2,7.1485244E-2,6.925306E-2,2.078061E-1,1.1799673E-1,2.5256572E-2,4.1381028E-2,-4.282754E-2,1.653209E-1,7.2330765E-2,3.668832E-1,-8.9369E-2,1.6730991E-1,1.5216395E-2,1.8454929E-1,1.2515207E-1,3.4437943E-1,1.9483371E-1,1.7068113E-1,-3.560511E-2,1.0280737E-1,-1.7482882E-2,2.5087875E-1,6.8389666E-1,2.825766E-1,3.7520745E-1,1.0059326E-1,2.338773E-1,1.1621838E-1,3.6814004E-1,4.0526882E-1,2.8946564E-1,4.1122016E-1,1.2974492E-1,5.246092E-1,2.3189841E-1],"categories":[],"categories_nodes":[],"categories_segments":[],"categories_sizes":[],"default_left":[0,0,0,0,0,0,0,0,0,0,0,0,0,0,0,0,0,0,0,0,0,0,0,0,0,0,0,0,0,0,0,0,0,0,0,0,0,0,0,0,0,0,0,0,0,0,0,0,0,0,0,0,0,0,0,0,0,0,0,0,0,0,0,0,0,0,0,0,0,0,0,0,0,0,0,0,0,0,0,0,0,0,0,0,0,0,0,0,0,0,0,0,0,0,0,0,0,0,0,0,0,0,0,0,0,0,0,0,0,0,0,0,0,0,0,0,0,0,0,0,0,0,0,0,0],"id":4,"left_children":[1,3,5,7,9,11,13,15,17,19,21,23,25,27,29,31,33,35,37,39,41,43,45,47,49,51,53,55,57,59,61,63,65,67,69,71,73,75,77,79,81,83,85,87,89,91,93,95,97,99,101,103,105,107,109,111,113,115,-1,117,119,121,123,-1,-1,-1,-1,-1,-1,-1,-1,-1,-1,-1,-1,-1,-1,-1,-1,-1,-1,-1,-1,-1,-1,-1,-1,-1,-1,-1,-1,-1,-1,-1,-1,-1,-1,-1,-1,-1,-1,-1,-1,-1,-1,-1,-1,-1,-1,-1,-1,-1,-1,-1,-1,-1,-1,-1,-1,-1,-1,-1,-1,-1,-1],"loss_changes":[2.0612695E5,3.6071367E4,3.540161E4,3.7426875E3,7.429784E3,3.1949297E3,5.2494062E3,4.619375E2,1.203125E3,1.0859111E3,2.2744907E3,1.6291597E3,1.4557109E3,1.1928359E3,9.0183594E2,3.1129297E2,3.1350684E2,4.0864453E2,7.706719E2,3.5640576E2,6.0906934E2,9.162775E2,6.489358E2,5.7161816E2,1.0340698E3,9.254375E2,4.3266736E2,9.5966016E2,1.1733652E3,5.7022656E2,4.4979102E2,1.378164E2,2.6145898E2,1.5180176E2,4.8233344E2,4.3862305E2,3.8904297E2,8.516431E1,3.8995117E2,1.8103223E2,2.3889172E2,4.864878E2,4.3839978E2,4.6415884E2,4.707099E2,5.298152E2,3.0459644E2,2.967151E2,4.0874268E2,3.0030957E2,5.4096436E2,5.629248E2,4.8362305E2,3.8580133E2,2.5201494E2,7.492344E2,5.4616406E2,8.572969E2,0E0,6.3832275E2,4.2464453E2,2.2681006E2,4.167754E2,0E0,0E0,0E0,0E0,0E0,0E0,0E0,0E0,0E0,0E0,0E0,0E0,0E0,0E0,0E0,0E0,0E0,0E0,0E0,0E0,0E0,0E0,0E0,0E0,0E0,0E0,0E0,0E0,0E0,0E0,0E0,0E0,0E0,0E0,0E0,0E0,0E0,0E0,0E0,0E0,0E0,0E0,0E0,0E0,0E0,0E0,0E0,0E0,0E0,0E0,0E0,0E0,0E0,0E0,0E0,0E0,0E0,0E0,0E0,0E0,0E0,0E0],"parents":[2147483647,0,0,1,1,2,2,3,3,4,4,5,5,6,6,7,7,8,8,9,9,10,10,11,11,12,12,13,13,14,14,15,15,16,16,17,17,18,18,19,19,20,20,21,21,22,22,23,23,24,24,25,25,26,26,27,27,28,28,29,29,30,30,31,31,32,32,33,33,34,34,35,35,36,36,37,37,38,38,39,39,40,40,41,41,42,42,43,43,44,44,45,45,46,46,47,47,48,48,49,49,50,50,51,51,52,52,53,53,54,54,55,55,56,56,57,57,59,59,60,60,61,61,62,62],"right_children":[2,4,6,8,10,12,14,16,18,20,22,24,26,28,30,32,34,36,38,40,42,44,46,48,50,52,54,56,58,60,62,64,66,68,70,72,74,76,78,80,82,84,86,88,90,92,94,96,98,100,102,104,106,108,110,112,114,116,-1,118,120,122,124,-1,-1,-1,-1,-1,-1,-1,-1,-1,-1,-1,-1,-1,-1,-1,-1,-1,-1,-1,-1,-1,-1,-1,-1,-1,-1,-1,-1,-1,-1,-1,-1,-1,-1,-1,-1,-1,-1,-1,-1,-1,-1,-1,-1,-1,-1,-1,-1,-1,-1,-1,-1,-1,-1,-1,-1,-1,-1,-1,-1,-1,-1],"split_conditions":[1.16E1,8.2E0,2.12E1,4.2E0,9.2E0,1.34E1,2.72E1,3.666E-1,6.6E0,6E0,4.4E0,5E0,4.2E0,4.99E-1,1.8E0,3.2E0,6E0,2E0,-1.2E0,2.14E1,4.8E0,4.166E-1,4.3333334E-1,3.958E-1,-3.5333333E0,1.54E1,2.3E0,2.36E1,9.8E0,2E0,4E0,2E0,1.2942857E1,-1.2222222E0,-4E-1,4.183086E-1,1.8E0,7.8E0,-4.4333334E0,-7.3333335E-1,2.36E1,1.9E1,2E-1,7E0,3.22E1,1.04E1,1.6E0,3.838E-1,-9E-1,6.2E0,8.666667E-1,-3.3333334E-1,-2.4166666E-1,7.6E0,1.1785101E1,3.0226666E-1,-2.857143E-1,1.6E0,5.2163273E-1,3.04E1,5.1033333E-2,1.7619047E0,3.9E0,-2.1960087E-1,2.03345E-2,-1.9892445E-1,-1.4790973E-1,-6.1487865E-2,-1.72654E-1,2.1528499E-1,-1.13567084E-1,-1.13339685E-1,1.4971624E-1,-1.867326E-1,-1.418335E-1,2.9910958E-1,-2.0928239E-3,-1.4883064E-2,-1.0287351E-1,9.702043E-2,-1.5414806E-1,-1.7155016E-2,-1.05318405E-1,-9.726338E-2,-5.0928917E-2,-9.125594E-2,8.168931E-2,-1.9919554E-2,-1.8376072E-1,1.3802775E-2,7.1485244E-2,6.925306E-2,2.078061E-1,1.1799673E-1,2.5256572E-2,4.1381028E-2,-4.282754E-2,1.653209E-1,7.2330765E-2,3.668832E-1,-8.9369E-2,1.6730991E-1,1.5216395E-2,1.8454929E-1,1.2515207E-1,3.4437943E-1,1.9483371E-1,1.7068113E-1,-3.560511E-2,1.0280737E-1,-1.7482882E-2,2.5087875E-1,6.8389666E-1,2.825766E-1,3.7520745E-1,1.0059326E-1,2.338773E-1,1.1621838E-1,3.6814004E-1,4.0526882E-1,2.8946564E-1,4.1122016E-1,1.2974492E-1,5.246092E-1,2.3189841E-1],"split_indices":[4,0,0,4,4,4,0,14,4,4,12,12,1,6,20,4,28,28,25,2,12,14,13,6,1,4,5,0,18,24,16,20,31,13,19,27,16,4,1,25,2,2,8,18,2,4,24,6,25,8,5,25,15,8,31,15,13,24,0,0,7,1,5,0,0,0,0,0,0,0,0,0,0,0,0,0,0,0,0,0,0,0,0,0,0,0,0,0,0,0,0,0,0,0,0,0,0,0,0,0,0,0,0,0,0,0,0,0,0,0,0,0,0,0,0,0,0,0,0,0,0,0,0,0,0],"split_type":[0,0,0,0,0,0,0,0,0,0,0,0,0,0,0,0,0,0,0,0,0,0,0,0,0,0,0,0,0,0,0,0,0,0,0,0,0,0,0,0,0,0,0,0,0,0,0,0,0,0,0,0,0,0,0,0,0,0,0,0,0,0,0,0,0,0,0,0,0,0,0,0,0,0,0,0,0,0,0,0,0,0,0,0,0,0,0,0,0,0,0,0,0,0,0,0,0,0,0,0,0,0,0,0,0,0,0,0,0,0,0,0,0,0,0,0,0,0,0,0,0,0,0,0,0],"sum_hessian":[1.1896E4,8.269E3,3.627E3,3.666E3,4.603E3,2.274E3,1.353E3,1.35E3,2.316E3,2.638E3,1.965E3,1.127E3,1.147E3,9.38E2,4.15E2,1.036E3,3.14E2,1.735E3,5.81E2,2.76E2,2.362E3,1.717E3,2.48E2,9.77E2,1.5E2,1.019E3,1.28E2,5.94E2,3.44E2,3.1E2,1.05E2,5.56E2,4.8E2,2.9E2,2.4E1,2.82E2,1.453E3,5E0,5.76E2,1.39E2,1.37E2,2.296E3,6.6E1,6.13E2,1.104E3,1.09E2,1.39E2,2.11E2,7.66E2,2.5E1,1.25E2,6.99E2,3.2E2,4.7E1,8.1E1,3.07E2,2.87E2,3.33E2,1.1E1,3.8E1,2.72E2,1.2E1,9.3E1,5.54E2,2E0,3.31E2,1.49E2,1.3E1,2.77E2,4E0,2E1,2.77E2,5E0,2.16E2,1.237E3,4E0,1E0,5E1,5.26E2,2E0,1.37E2,3.9E1,9.8E1,2.27E2,2.069E3,1.7E1,4.9E1,5.98E2,1.5E1,9.58E2,1.46E2,4.1E1,6.8E1,4.9E1,9E1,1.63E2,4.8E1,4.5E1,7.21E2,2.4E1,1E0,9.8E1,2.7E1,2.15E2,4.84E2,2.2E1,2.98E2,3.7E1,1E1,2E1,6.1E1,3.04E2,3E0,1.21E2,1.66E2,5.4E1,2.79E2,1.9E1,1.9E1,2.25E2,4.7E1,5E0,7E0,8.6E1,7E0],"tree_param":{"num_deleted":"0","num_feature":"32","num_nodes":"125","size_leaf_vector":"1"}},{"base_weights":[-1.9512454E-2,-2.8113406E0,5.823318E0,-4.75985E0,-7.5406057E-1,3.572204E0,9.913954E0,-5.999508E0,-3.9796355E0,-1.7059944E0,4.2845085E-1,2.79626E0,5.0383315E0,8.291179E0,1.19622135E1,-6.954393E0,-5.6281595E0,-4.7618613E0,-3.5543795E0,-2.9288723E0,-1.4778507E0,1.1265299E0,-8.001396E-1,3.5927176E0,1.7872189E0,6.409109E0,3.3601785E0,9.084606E0,6.0854897E0,1.2427478E1,7.1707406E0,2.5381317E0,-7.0028687E0,-5.1586223E0,-6.2213206E0,-5.7711234E0,-4.2864113E0,-3.9206839E0,-2.5582728E0,-3.2711706E0,1.7571411E0,-1.931235E0,-8.2889795E-1,2.0517669E0,2.204521E-1,-1.3926768E-1,-1.788322E0,5.075887E0,3.0275023E0,3.6996672E0,1.1487963E0,1.0796522E1,6.12059E0,4.8185034E0,2.027127E0,9.47967E0,5.7861714E0,2.3731976E0,7.2526326E0,1.1732006E1,1.4853628E1,-7.6479584E-1,8.509263E0,1.1010865E-1,4.10727E-3,-2.1220183E-1,-2.0266619E-2,-1.5622547E-1,6.71719E-2,-9.557136E-2,-1.9357595E-1,-1.8421672E-1,-1.3778785E-1,-1.9424357E-1,-1.1897501E-1,-1.2917706E-1,-9.0491764E-2,-8.085878E-2,1.3365522E-1,-7.8510284E-2,-1.7106903E-1,-9.847414E-2,1.0858114E-1,-6.59475E-2,-2.1453587E-2,6.6789617E-3,-4.6213347E-2,-6.668289E-2,6.873616E-2,1.2700276E-1,1.7683512E-3,8.268724E-2,-1.1242397E-2,-5.999581E-2,1.08465225E-1,1.4224279E-1,3.7986758E-1,8.498965E-2,2.3681206E-1,1.3965589E-1,2.865216E-2,-8.066116E-3,5.460123E-2,4.1083065E-1,1.7374644E-1,2.2231852E-1,1.5580228E-1,-8.999E-3,1.6005461E-1,2.6685273E-2,1.0812473E-1,2.8093183E-1,1.0102166E0,1.01491496E-1,3.2351187E-1,1.08023755E-1,-9.060054E-2,2.4204516E-1,7.8715645E-2,3.650389E-1,2.3678063E-1,4.5586613E-1,3.674526E-2,-7.3767E-2,1.0329137E-1,1.662013E-1,3.4487414E-1],"categories":[],"categories_nodes":[],"categories_segments":[],"categories_sizes":[],"default_left":[0,0,0,0,0,0,0,0,0,0,0,0,0,0,0,0,0,0,0,0,0,0,0,0,0,0,0,0,0,0,0,0,0,0,0,0,0,0,0,0,0,0,0,0,0,0,0,0,0,0,0,0,0,0,0,0,0,0,0,0,0,0,0,0,0,0,0,0,0,0,0,0,0,0,0,0,0,0,0,0,0,0,0,0,0,0,0,0,0,0,0,0,0,0,0,0,0,0,0,0,0,0,0,0,0,0,0,0,0,0,0,0,0,0,0,0,0,0,0,0,0,0,0,0,0,0,0],"id":5,"left_children":[1,3,5,7,9,11,13,15,17,19,21,23,25,27,29,31,33,35,37,39,41,43,45,47,49,51,53,55,57,59,61,63,65,67,69,71,73,75,77,79,81,83,85,87,89,91,93,95,97,99,101,103,105,107,109,111,113,115,117,119,121,123,125,-1,-1,-1,-1,-1,-1,-1,-1,-1,-1,-1,-1,-1,-1,-1,-1,-1,-1,-1,-1,-1,-1,-1,-1,-1,-1,-1,-1,-1,-1,-1,-1,-1,-1,-1,-1,-1,-1,-1,-1,-1,-1,-1,-1,-1,-1,-1,-1,-1,-1,-1,-1,-1,-1,-1,-1,-1,-1,-1,-1,-1,-1,-1,-1],"loss_changes":[1.9564834E5,3.2530438E4,3.567511E4,4.0074219E3,4.4460117E3,2.8334062E3,4.474453E3,5.310469E2,8.349844E2,6.0610596E2,1.5120865E3,1.3107764E3,1.9682871E3,1.2940117E3,1.2618438E3,2.230039E2,2.918125E2,4.066504E2,5.967617E2,5.5592505E2,5.415388E2,9.418379E2,4.1705756E2,7.516865E2,8.809387E2,5.351992E2,7.503452E2,6.8139453E2,8.7967285E2,7.554453E2,6.01334E2,7.653187E0,1.9335352E2,2.4857227E2,3.3669336E2,9.584668E1,4.0577148E2,4.099082E2,4.4444946E2,4.9398926E2,2.3711856E2,3.510752E2,5.697331E2,5.7415186E2,3.6853278E2,2.6285608E2,2.998686E2,5.7683594E2,6.070923E2,4.7023364E2,5.191121E2,3.2678882E2,4.9736133E2,4.934702E2,3.6637006E2,1.0875312E3,7.2013184E2,3.485291E2,5.714971E2,6.2870703E2,5.359043E2,7.262281E1,3.6196216E2,0E0,0E0,0E0,0E0,0E0,0E0,0E0,0E0,0E0,0E0,0E0,0E0,0E0,0E0,0E0,0E0,0E0,0E0,0E0,0E0,0E0,0E0,0E0,0E0,0E0,0E0,0E0,0E0,0E0,0E0,0E0,0E0,0E0,0E0,0E0,0E0,0E0,0E0,0E0,0E0,0E0,0E0,0E0,0E0,0E0,0E0,0E0,0E0,0E0,0E0,0E0,0E0,0E0,0E0,0E0,0E0,0E0,0E0,0E0,0E0,0E0,0E0,0E0,0E0],"parents":[2147483647,0,0,1,1,2,2,3,3,4,4,5,5,6,6,7,7,8,8,9,9,10,10,11,11,12,12,13,13,14,14,15,15,16,16,17,17,18,18,19,19,20,20,21,21,22,22,23,23,24,24,25,25,26,26,27,27,28,28,29,29,30,30,31,31,32,32,33,33,34,34,35,35,36,36,37,37,38,38,39,39,40,40,41,41,42,42,43,43,44,44,45,45,46,46,47,47,48,48,49,49,50,50,51,51,52,52,53,53,54,54,55,55,56,56,57,57,58,58,59,59,60,60,61,61,62,62],"right_children":[2,4,6,8,10,12,14,16,18,20,22,24,26,28,30,32,34,36,38,40,42,44,46,48,50,52,54,56,58,60,62,64,66,68,70,72,74,76,78,80,82,84,86,88,90,92,94,96,98,100,102,104,106,108,110,112,114,116,118,120,122,124,126,-1,-1,-1,-1,-1,-1,-1,-1,-1,-1,-1,-1,-1,-1,-1,-1,-1,-1,-1,-1,-1,-1,-1,-1,-1,-1,-1,-1,-1,-1,-1,-1,-1,-1,-1,-1,-1,-1,-1,-1,-1,-1,-1,-1,-1,-1,-1,-1,-1,-1,-1,-1,-1,-1,-1,-1,-1,-1,-1,-1,-1,-1,-1,-1],"split_conditions":[1.46E1,8.8E0,2.12E1,5.4E0,1.18E1,1.82E1,2.56E1,3E0,1.9E1,2.04E1,4.99E-1,3.654E-1,1.1E0,5.158E-1,1.527E-1,8.66E1,2.258E-1,2.6088256E-1,2.8991842E-1,4.8565066E-1,3.1910115E-1,3.274E-1,1.7E0,-2.2333333E0,-5E-1,1.2E-1,3.634E-1,1.6666666E0,1.8E0,1.8E0,-3.3333334E-1,-7E-1,1.1666666E0,4.7077274E-1,-3.7333333E0,1.4285715E-1,9.84E1,1.8E0,4.414072E-1,7.127412E0,8E-1,3.02E1,2.602E-1,2.2E0,-1.7E0,1.0837857E1,3.5E0,-2.3666666E0,5.2427214E-1,2E-1,8E-1,-1.1111111E-1,4.528E-1,-6.333333E-1,1.98E1,3.1103334E-1,3.904E-1,1.3273254E1,1.18E2,5.3333335E0,4.06E1,3E0,3.6469164E0,1.1010865E-1,4.10727E-3,-2.1220183E-1,-2.0266619E-2,-1.5622547E-1,6.71719E-2,-9.557136E-2,-1.9357595E-1,-1.8421672E-1,-1.3778785E-1,-1.9424357E-1,-1.1897501E-1,-1.2917706E-1,-9.0491764E-2,-8.085878E-2,1.3365522E-1,-7.8510284E-2,-1.7106903E-1,-9.847414E-2,1.0858114E-1,-6.59475E-2,-2.1453587E-2,6.6789617E-3,-4.6213347E-2,-6.668289E-2,6.873616E-2,1.2700276E-1,1.7683512E-3,8.268724E-2,-1.1242397E-2,-5.999581E-2,1.08465225E-1,1.4224279E-1,3.7986758E-1,8.498965E-2,2.3681206E-1,1.3965589E-1,2.865216E-2,-8.066116E-3,5.460123E-2,4.1083065E-1,1.7374644E-1,2.2231852E-1,1.5580228E-1,-8.999E-3,1.6005461E-1,2.6685273E-2,1.0812473E-1,2.8093183E-1,1.0102166E0,1.01491496E-1,3.2351187E-1,1.08023755E-1,-9.060054E-2,2.4204516E-1,7.8715645E-2,3.650389E-1,2.3678063E-1,4.5586613E-1,3.674526E-2,-7.3767E-2,1.0329137E-1,1.662013E-1,3.4487414E-1],"split_indices":[0,0,0,0,0,0,0,0,2,2,6,10,1,6,15,30,10,27,27,27,27,10,1,1,9,10,10,9,24,20,23,1,9,27,1,23,30,12,27,26,24,2,10,16,13,31,17,1,27,23,20,25,6,21,0,15,10,31,30,1,2,28,26,0,0,0,0,0,0,0,0,0,0,0,0,0,0,0,0,0,0,0,0,0,0,0,0,0,0,0,0,0,0,0,0,0,0,0,0,0,0,0,0,0,0,0,0,0,0,0,0,0,0,0,0,0,0,0,0,0,0,0,0,0,0,0,0],"split_type":[0,0,0,0,0,0,0,0,0,0,0,0,0,0,0,0,0,0,0,0,0,0,0,0,0,0,0,0,0,0,0,0,0,0,0,0,0,0,0,0,0,0,0,0,0,0,0,0,0,0,0,0,0,0,0,0,0,0,0,0,0,0,0,0,0,0,0,0,0,0,0,0,0,0,0,0,0,0,0,0,0,0,0,0,0,0,0,0,0,0,0,0,0,0,0,0,0,0,0,0,0,0,0,0,0,0,0,0,0,0,0,0,0,0,0,0,0,0,0,0,0,0,0,0,0,0,0],"sum_hessian":[1.1992E4,8.115E3,3.877E3,4.167E3,3.948E3,2.502E3,1.375E3,1.607E3,2.56E3,2.187E3,1.761E3,1.638E3,8.64E2,7.7E2,6.05E2,4.45E2,1.162E3,8.98E2,1.662E3,3.42E2,1.845E3,1.123E3,6.38E2,9.14E2,7.24E2,4.74E2,3.9E2,5.64E2,2.06E2,5.5E2,5.5E1,2E0,4.43E2,6.54E2,5.08E2,2.84E2,6.14E2,1.213E3,4.49E2,3.19E2,2.3E1,1.085E3,7.6E2,5.55E2,5.68E2,3.83E2,2.55E2,2.5E2,6.64E2,1.8E2,5.44E2,2.7E1,4.47E2,1.85E2,2.05E2,5.02E2,6.2E1,5E1,1.56E2,4.32E2,1.18E2,8E0,4.7E1,1E0,1E0,4.38E2,5E0,6.5E2,4E0,3.7E1,4.71E2,2.13E2,7.1E1,7.6E1,5.38E2,8.48E2,3.65E2,4.41E2,8E0,2.53E2,6.6E1,6E0,1.7E1,8.89E2,1.96E2,3.07E2,4.53E2,2.9E1,5.26E2,2.1E1,5.47E2,2.8E1,3.55E2,2.46E2,9E0,2.41E2,9E0,6.4E2,2.4E1,1.33E2,4.7E1,1.75E2,3.69E2,1.6E1,1.1E1,1.84E2,2.63E2,1.7E1,1.68E2,1.2E2,8.5E1,5.01E2,1E0,4.3E1,1.9E1,4.1E1,9E0,1.32E2,2.4E1,3.86E2,4.6E1,1.15E2,3E0,6E0,2E0,2.5E1,2.2E1],"tree_param":{"num_deleted":"0","num_feature":"32","num_nodes":"127","size_leaf_vector":"1"}},{"base_weights":[6.353723E-3,-3.0244975E0,5.15577E0,-4.8227105E0,-1.2878553E0,3.0423548E0,9.845727E0,-6.064734E0,-4.117883E0,-2.1766288E0,-3.6364073E-1,1.9606797E0,4.852314E0,8.118447E0,1.1907616E1,-6.51499E0,-5.315675E0,-4.4756327E0,-3.0177517E0,-3.755822E0,-1.9693395E0,-1.5988781E0,2.6374263E-1,1.4700725E0,4.050861E0,5.2392235E0,2.2567992E0,7.3158603E0,1.0020046E1,1.1079742E1,1.4890572E1,-6.5460515E0,1.2533748E-1,-5.373012E0,3.3880487E-1,-4.509547E0,3.5535676E0,-7.634143E-2,-3.2774696E0,-4.3410363E0,-1.1165354E0,-2.1304142E0,-6.4799136E-1,9.679611E-1,-1.8964181E0,-5.687029E-1,9.64683E-1,3.7626004E0,1.2276143E0,6.1232944E0,2.7409093E0,4.654414E0,6.495418E0,3.8550642E0,3.478678E-1,3.6946695E0,8.030078E0,9.660632E0,1.9525045E1,8.181852E0,1.1839325E1,-8.439954E-2,1.5121605E1,-1.4097542E-1,-2.0182985E-1,-1.5467122E-1,-2.1542367E-1,-7.842695E-2,7.406643E-2,-1.3781896E-1,-4.935423E-2,1.5017068E-1,-1.6055955E-2,1.0990582E-1,-3.470778E-2,-1.084805E-1,-4.1264758E-2,-1.4361937E-1,-7.1101086E-3,-6.161139E-2,1.4546448E-1,-7.332514E-2,-3.5032056E-2,-6.4527555E-3,-1.4969395E-1,-1.9208366E-2,1.0893258E-1,-1.6728702E-1,-5.2102935E-2,-2.1111488E-2,1.8958752E-1,6.748166E-2,1.1192287E-2,3.2934508E-1,9.6374035E-2,2.0391477E-2,5.2012984E-2,1.2514634E-1,2.3962705E-1,1.5728177E-1,4.3896317E-2,1.6320531E-1,1.13291845E-1,9.887757E-2,2.1200475E-1,-3.72924E-2,1.454397E-1,-1.18715726E-1,3.6977153E-2,2.3393445E-1,6.6929474E-2,1.8718444E-1,2.6251265E-1,3.425762E-1,2.4188165E-1,8.776363E-1,2.9347014E-1,2.6862147E-1,6.0849044E-2,3.1347066E-1,4.0215734E-1,-6.0979053E-2,5.7181075E-2,4.7894856E-1,2.995198E-1],"categories":[],"categories_nodes":[],"categories_segments":[],"categories_sizes":[],"default_left":[0,0,0,0,0,0,0,0,0,0,0,0,0,0,0,0,0,0,0,0,0,0,0,0,0,0,0,0,0,0,0,0,0,0,0,0,0,0,0,0,0,0,0,0,0,0,0,0,0,0,0,0,0,0,0,0,0,0,0,0,0,0,0,0,0,0,0,0,0,0,0,0,0,0,0,0,0,0,0,0,0,0,0,0,0,0,0,0,0,0,0,0,0,0,0,0,0,0,0,0,0,0,0,0,0,0,0,0,0,0,0,0,0,0,0,0,0,0,0,0,0,0,0,0,0],"id":6,"left_children":[1,3,5,7,9,11,13,15,17,19,21,23,25,27,29,31,33,35,37,39,41,43,45,47,49,51,53,55,57,59,61,63,-1,65,67,69,71,73,75,77,79,81,83,85,87,89,91,93,95,97,99,101,103,105,107,109,111,113,115,117,119,121,123,-1,-1,-1,-1,-1,-1,-1,-1,-1,-1,-1,-1,-1,-1,-1,-1,-1,-1,-1,-1,-1,-1,-1,-1,-1,-1,-1,-1,-1,-1,-1,-1,-1,-1,-1,-1,-1,-1,-1,-1,-1,-1,-1,-1,-1,-1,-1,-1,-1,-1,-1,-1,-1,-1,-1,-1,-1,-1,-1,-1,-1,-1],"loss_changes":[1.854281E5,2.3349617E4,4.360192E4,3.1912812E3,3.1255234E3,5.934332E3,4.771828E3,4.1326172E2,9.102031E2,6.276621E2,1.4472858E3,1.9444653E3,1.1279746E3,1.0667617E3,1.3685859E3,3.0136328E2,1.6522266E2,4.977422E2,4.4206934E2,3.4113184E2,3.640581E2,4.8222632E2,7.2349854E2,8.524895E2,9.632544E2,6.948535E2,4.532547E2,1.3384961E3,5.595293E2,9.8171094E2,4.5796094E2,2.4442578E2,0E0,1.590039E2,4.4195385E1,4.185078E2,5.017814E1,1.9821817E2,3.3758594E2,3.3403613E2,2.4476303E2,4.592788E2,3.5228513E2,2.8499918E2,3.2166284E2,5.317633E2,5.106681E2,5.4825244E2,3.8595996E2,4.7244385E2,7.0516345E2,4.4652734E2,5.452842E2,4.160548E2,2.6767807E2,5.171124E2,5.142246E2,5.0646875E2,3.7736377E2,4.8077246E2,7.0029297E2,1.5507788E1,4.038672E2,0E0,0E0,0E0,0E0,0E0,0E0,0E0,0E0,0E0,0E0,0E0,0E0,0E0,0E0,0E0,0E0,0E0,0E0,0E0,0E0,0E0,0E0,0E0,0E0,0E0,0E0,0E0,0E0,0E0,0E0,0E0,0E0,0E0,0E0,0E0,0E0,0E0,0E0,0E0,0E0,0E0,0E0,0E0,0E0,0E0,0E0,0E0,0E0,0E0,0E0,0E0,0E0,0E0,0E0,0E0,0E0,0E0,0E0,0E0,0E0,0E0,0E0],"parents":[2147483647,0,0,1,1,2,2,3,3,4,4,5,5,6,6,7,7,8,8,9,9,10,10,11,11,12,12,13,13,14,14,15,15,16,16,17,17,18,18,19,19,20,20,21,21,22,22,23,23,24,24,25,25,26,26,27,27,28,28,29,29,30,30,31,31,33,33,34,34,35,35,36,36,37,37,38,38,39,39,40,40,41,41,42,42,43,43,44,44,45,45,46,46,47,47,48,48,49,49,50,50,51,51,52,52,53,53,54,54,55,55,56,56,57,57,58,58,59,59,60,60,61,61,62,62],"right_children":[2,4,6,8,10,12,14,16,18,20,22,24,26,28,30,32,34,36,38,40,42,44,46,48,50,52,54,56,58,60,62,64,-1,66,68,70,72,74,76,78,80,82,84,86,88,90,92,94,96,98,100,102,104,106,108,110,112,114,116,118,120,122,124,-1,-1,-1,-1,-1,-1,-1,-1,-1,-1,-1,-1,-1,-1,-1,-1,-1,-1,-1,-1,-1,-1,-1,-1,-1,-1,-1,-1,-1,-1,-1,-1,-1,-1,-1,-1,-1,-1,-1,-1,-1,-1,-1,-1,-1,-1,-1,-1,-1,-1,-1,-1,-1,-1,-1,-1,-1,-1,-1,-1,-1,-1],"split_conditions":[1.06E1,8.2E0,2.12E1,4.2E0,8.4E0,1.34E1,2.56E1,2.454E-1,6.6E0,1.86E1,1.6E0,4.4E0,3.9666667E0,1.8E1,1.8E0,2.8666666E0,2.2666667E0,4.755712E-1,-4.4333334E0,1.02E1,5.833333E-1,-1.2222222E0,9.4E0,-2.1666667E0,-1.19E-2,1.54E1,3.572E-1,1.6E0,2.64E-1,2.2E0,4.0244988E-1,-3.0666666E0,1.2533748E-1,1.617E-1,2.6666667E-4,2.4666667E0,3.3333335E-2,2.4E0,2.7E1,1.8E0,4.4444445E-1,1.6E0,4.7619048E-1,3.556E-1,-2.4333334E0,6.25E-1,2.566E-1,-2.1E0,1.46E1,4.7644515E0,-8.666667E-1,-8.3333336E-2,3.718E-1,2.82E1,1.6666668E-2,-7.5E-2,4.8E0,-4.3333334E-1,2.82E-1,6.5333333E0,1.98E1,2.6E1,1E0,-1.4097542E-1,-2.0182985E-1,-1.5467122E-1,-2.1542367E-1,-7.842695E-2,7.406643E-2,-1.3781896E-1,-4.935423E-2,1.5017068E-1,-1.6055955E-2,1.0990582E-1,-3.470778E-2,-1.084805E-1,-4.1264758E-2,-1.4361937E-1,-7.1101086E-3,-6.161139E-2,1.4546448E-1,-7.332514E-2,-3.5032056E-2,-6.4527555E-3,-1.4969395E-1,-1.9208366E-2,1.0893258E-1,-1.6728702E-1,-5.2102935E-2,-2.1111488E-2,1.8958752E-1,6.748166E-2,1.1192287E-2,3.2934508E-1,9.6374035E-2,2.0391477E-2,5.2012984E-2,1.2514634E-1,2.3962705E-1,1.5728177E-1,4.3896317E-2,1.6320531E-1,1.13291845E-1,9.887757E-2,2.1200475E-1,-3.72924E-2,1.454397E-1,-1.18715726E-1,3.6977153E-2,2.3393445E-1,6.6929474E-2,1.8718444E-1,2.6251265E-1,3.425762E-1,2.4188165E-1,8.776363E-1,2.9347014E-1,2.6862147E-1,6.0849044E-2,3.1347066E-1,4.0215734E-1,-6.0979053E-2,5.7181075E-2,4.7894856E-1,2.995198E-1],"split_indices":[4,0,0,4,4,4,0,14,4,2,12,12,1,4,20,5,5,27,1,0,21,13,4,5,15,4,10,24,15,24,27,1,0,11,11,17,13,16,2,24,21,24,23,14,5,10,10,13,0,26,3,13,6,2,11,15,12,1,10,1,4,0,21,0,0,0,0,0,0,0,0,0,0,0,0,0,0,0,0,0,0,0,0,0,0,0,0,0,0,0,0,0,0,0,0,0,0,0,0,0,0,0,0,0,0,0,0,0,0,0,0,0,0,0,0,0,0,0,0,0,0,0,0,0,0],"split_type":[0,0,0,0,0,0,0,0,0,0,0,0,0,0,0,0,0,0,0,0,0,0,0,0,0,0,0,0,0,0,0,0,0,0,0,0,0,0,0,0,0,0,0,0,0,0,0,0,0,0,0,0,0,0,0,0,0,0,0,0,0,0,0,0,0,0,0,0,0,0,0,0,0,0,0,0,0,0,0,0,0,0,0,0,0,0,0,0,0,0,0,0,0,0,0,0,0,0,0,0,0,0,0,0,0,0,0,0,0,0,0,0,0,0,0,0,0,0,0,0,0,0,0,0,0],"sum_hessian":[1.1879E4,7.478E3,4.401E3,3.673E3,3.805E3,3.035E3,1.366E3,1.327E3,2.346E3,1.939E3,1.866E3,1.901E3,1.134E3,7.46E2,6.2E2,8.24E2,5.03E2,1.768E3,5.78E2,2.23E2,1.716E3,6.28E2,1.238E3,1.541E3,3.6E2,9.86E2,1.48E2,5.28E2,2.18E2,4.89E2,1.31E2,8.22E2,2E0,4.98E2,5E0,1.761E3,7E0,4.7E1,5.31E2,1.82E2,4.1E1,1.529E3,1.87E2,6.5E1,5.63E2,5.66E2,6.72E2,1.46E2,1.395E3,1.38E2,2.22E2,6.76E2,3.1E2,8E1,6.8E1,8.8E1,4.4E2,2.12E2,6E0,1.04E2,3.85E2,2E0,1.29E2,7.6E1,7.46E2,4.48E2,5E1,2E0,3E0,1.71E3,5.1E1,5E0,2E0,1E1,3.7E1,4.5E2,8.1E1,1.64E2,1.8E1,3.6E1,5E0,1.152E3,3.77E2,1.71E2,1.6E1,4.1E1,2.4E1,2.2E1,5.41E2,5.56E2,1E1,2.11E2,4.61E2,9E0,1.37E2,6.71E2,7.24E2,6.9E1,6.9E1,7.4E1,1.48E2,3.54E2,3.22E2,4.8E1,2.62E2,1.3E1,6.7E1,1.1E1,5.7E1,2.2E1,6.6E1,1.29E2,3.11E2,9.8E1,1.14E2,2E0,4E0,9.2E1,1.2E1,2.08E2,1.77E2,1E0,1E0,1.09E2,2E1],"tree_param":{"num_deleted":"0","num_feature":"32","num_nodes":"125","size_leaf_vector":"1"}},{"base_weights":[-1.0900765E-2,-2.9544313E0,4.9853487E0,-4.92933E0,-1.4956859E0,3.0212867E0,9.51375E0,-5.9650764E0,-4.1864758E0,-2.1436512E0,-4.643298E-2,2.0508978E0,4.6194315E0,8.431845E0,1.301777E1,-6.4170675E0,-5.3415384E0,-4.641067E0,-3.5161421E0,-2.9950616E0,-1.5998286E0,2.7869902E0,-2.2601096E-1,1.5226072E0,4.334979E0,4.9960403E0,1.6704543E0,1.1359682E1,7.793522E0,9.833151E0,1.3713314E1,-6.4673486E0,-8.256953E-1,4.7160816E-1,-5.415045E0,-4.6750565E0,1.7777191E-1,-3.018678E0,-4.721208E0,-1.6859294E0,-3.2227585E0,-6.765336E-1,-1.99059E0,3.7853854E0,-3.186032E0,-4.4129524E-1,1.845512E0,4.6008344E0,1.3779415E0,6.5390816E0,2.9796824E0,2.7317877E0,5.329017E0,1.1401054E0,8.909732E0,1.0239742E1,1.41115265E1,6.2148128E0,8.843079E0,1.0554263E1,1.5840983E0,1.386164E1,9.0341663E-1,-1.5259741E-1,-2.0033565E-1,-9.2255436E-2,1.1845525E-1,-3.721368E-2,1.1215601E-1,-1.6515626E-1,-8.116045E-2,-1.4856692E-1,-1.11742035E-1,-1.2580189E-1,-7.471857E-2,-2.0926212E-1,-1.2497745E-1,-6.808632E-2,4.7916014E-2,-8.206276E-2,-1.1917226E-1,-3.4586545E-2,3.476939E-2,-6.692117E-2,-3.876686E-3,-5.418949E-3,1.4394604E-1,-1.4306223E-1,9.455028E-2,-3.7568364E-2,1.1945342E-3,6.9910884E-2,-1.1017187E-1,1.7569676E-1,-2.5211686E-2,2.3571465E-2,5.8061875E-2,2.1155734E-1,7.1275624E-4,1.5440899E-1,5.4754E-2,-1.4517146E-1,9.74038E-2,1.2678178E-1,1.8177688E-1,1.3198873E-1,9.900785E-3,2.2709722E-2,3.3392835E-1,3.2246688E-1,6.091215E-2,4.3518105E-1,-7.829107E-2,4.2503265E-1,1.7945713E-1,2.0966405E-1,2.9347807E-1,3.5753137E-1,1.569758E-1,-8.367767E-2,2.0661613E-1,-1.03021614E-1,4.18317E-1,7.891305E-2,-1.6472034E-2],"categories":[],"categories_nodes":[],"categories_segments":[],"categories_sizes":[],"default_left":[0,0,0,0,0,0,0,0,0,0,0,0,0,0,0,0,0,0,0,0,0,0,0,0,0,0,0,0,0,0,0,0,0,0,0,0,0,0,0,0,0,0,0,0,0,0,0,0,0,0,0,0,0,0,0,0,0,0,0,0,0,0,0,0,0,0,0,0,0,0,0,0,0,0,0,0,0,0,0,0,0,0,0,0,0,0,0,0,0,0,0,0,0,0,0,0,0,0,0,0,0,0,0,0,0,0,0,0,0,0,0,0,0,0,0,0,0,0,0,0,0,0,0,0,0],"id":7,"left_children":[1,3,5,7,9,11,13,15,17,19,21,23,25,27,29,31,33,35,37,39,41,43,45,47,49,51,53,55,57,59,61,63,65,67,69,71,-1,73,75,77,79,81,83,85,87,89,91,93,95,97,99,101,103,105,107,109,111,113,115,117,119,121,123,-1,-1,-1,-1,-1,-1,-1,-1,-1,-1,-1,-1,-1,-1,-1,-1,-1,-1,-1,-1,-1,-1,-1,-1,-1,-1,-1,-1,-1,-1,-1,-1,-1,-1,-1,-1,-1,-1,-1,-1,-1,-1,-1,-1,-1,-1,-1,-1,-1,-1,-1,-1,-1,-1,-1,-1,-1,-1,-1,-1,-1,-1],"loss_changes":[1.7617055E5,2.1708656E4,3.9469773E4,2.4386797E3,4.07263E3,4.7965234E3,4.9815625E3,3.4196875E2,5.52916E2,1.3828682E3,6.8295807E2,2.3222515E3,1.2910703E3,1.8345781E3,5.6289453E2,2.1085547E2,2.4483691E2,4.263672E2,4.4075098E2,3.424336E2,6.5925635E2,4.8913525E2,5.6362396E2,6.9235767E2,1.0618867E3,7.672832E2,5.0431393E2,4.1640625E2,1.3501328E3,3.4019043E2,4.7388672E2,1.8751953E2,9.8058426E1,4.9382973E1,1.2192383E2,2.7314453E2,0E0,3.245288E2,2.4632373E2,3.3893942E2,3.5190527E2,4.787307E2,5.7448096E2,2.7802893E2,1.3539853E2,4.4640982E2,3.26926E2,4.8320923E2,4.9368774E2,4.5758447E2,5.5611145E2,5.4207983E2,7.016621E2,3.3124698E2,1.5455481E2,5.340908E2,3.6768945E2,5.487363E2,8.148906E2,3.3671533E2,1.5836435E2,4.0784375E2,1.1478156E1,0E0,0E0,0E0,0E0,0E0,0E0,0E0,0E0,0E0,0E0,0E0,0E0,0E0,0E0,0E0,0E0,0E0,0E0,0E0,0E0,0E0,0E0,0E0,0E0,0E0,0E0,0E0,0E0,0E0,0E0,0E0,0E0,0E0,0E0,0E0,0E0,0E0,0E0,0E0,0E0,0E0,0E0,0E0,0E0,0E0,0E0,0E0,0E0,0E0,0E0,0E0,0E0,0E0,0E0,0E0,0E0,0E0,0E0,0E0,0E0,0E0,0E0],"parents":[2147483647,0,0,1,1,2,2,3,3,4,4,5,5,6,6,7,7,8,8,9,9,10,10,11,11,12,12,13,13,14,14,15,15,16,16,17,17,18,18,19,19,20,20,21,21,22,22,23,23,24,24,25,25,26,26,27,27,28,28,29,29,30,30,31,31,32,32,33,33,34,34,35,35,37,37,38,38,39,39,40,40,41,41,42,42,43,43,44,44,45,45,46,46,47,47,48,48,49,49,50,50,51,51,52,52,53,53,54,54,55,55,56,56,57,57,58,58,59,59,60,60,61,61,62,62],"right_children":[2,4,6,8,10,12,14,16,18,20,22,24,26,28,30,32,34,36,38,40,42,44,46,48,50,52,54,56,58,60,62,64,66,68,70,72,-1,74,76,78,80,82,84,86,88,90,92,94,96,98,100,102,104,106,108,110,112,114,116,118,120,122,124,-1,-1,-1,-1,-1,-1,-1,-1,-1,-1,-1,-1,-1,-1,-1,-1,-1,-1,-1,-1,-1,-1,-1,-1,-1,-1,-1,-1,-1,-1,-1,-1,-1,-1,-1,-1,-1,-1,-1,-1,-1,-1,-1,-1,-1,-1,-1,-1,-1,-1,-1,-1,-1,-1,-1,-1,-1,-1,-1,-1,-1,-1],"split_conditions":[1.06E1,6.2E0,2.12E1,4.2E0,1.18E1,1.34E1,2.84E1,4.2E0,1.4E0,8.8E0,1.0837857E1,4.4E0,4.266667E0,-2.8E0,4.2E0,2.2E0,-2.9836667E-1,4.755712E-1,3E0,-2.9166666E-1,2.498E-1,1.6E0,1.56E1,-1.8666667E0,-8.333333E-1,1.8E0,4.834E-1,3.3333334E-1,2.32E1,1.2333333E0,5.9333334E0,2E0,9E-1,5.4E0,1.0691118E1,2.2222222E-1,1.7777191E-1,-5.34E-2,-2.7333333E0,2E0,4.466667E-3,9.4E0,5.714286E-1,2E-1,3.8002452E-1,1.2303889E1,3.3946666E-1,3.809524E-1,1.18E1,1.5826666E-1,-1.19E-2,4.2E0,4.360048E-1,1.1565E1,1.9433333E-2,5E0,2.76E1,-2.583E-1,5.4E0,4.376E-1,4.6666665E0,7.5E-2,2.92E1,-1.5259741E-1,-2.0033565E-1,-9.2255436E-2,1.1845525E-1,-3.721368E-2,1.1215601E-1,-1.6515626E-1,-8.116045E-2,-1.4856692E-1,-1.11742035E-1,-1.2580189E-1,-7.471857E-2,-2.0926212E-1,-1.2497745E-1,-6.808632E-2,4.7916014E-2,-8.206276E-2,-1.1917226E-1,-3.4586545E-2,3.476939E-2,-6.692117E-2,-3.876686E-3,-5.418949E-3,1.4394604E-1,-1.4306223E-1,9.455028E-2,-3.7568364E-2,1.1945342E-3,6.9910884E-2,-1.1017187E-1,1.7569676E-1,-2.5211686E-2,2.3571465E-2,5.8061875E-2,2.1155734E-1,7.1275624E-4,1.5440899E-1,5.4754E-2,-1.4517146E-1,9.74038E-2,1.2678178E-1,1.8177688E-1,1.3198873E-1,9.900785E-3,2.2709722E-2,3.3392835E-1,3.2246688E-1,6.091215E-2,4.3518105E-1,-7.829107E-2,4.2503265E-1,1.7945713E-1,2.0966405E-1,2.9347807E-1,3.5753137E-1,1.569758E-1,-8.367767E-2,2.0661613E-1,-1.03021614E-1,4.18317E-1,7.891305E-2,-1.6472034E-2],"split_indices":[4,4,0,4,0,4,0,0,12,0,31,12,1,1,18,12,11,27,28,23,10,13,0,13,3,12,10,21,0,19,3,28,3,0,26,23,0,7,3,12,7,4,21,22,27,31,15,3,4,11,15,8,27,31,15,28,0,15,8,10,1,10,0,0,0,0,0,0,0,0,0,0,0,0,0,0,0,0,0,0,0,0,0,0,0,0,0,0,0,0,0,0,0,0,0,0,0,0,0,0,0,0,0,0,0,0,0,0,0,0,0,0,0,0,0,0,0,0,0,0,0,0,0,0,0],"split_type":[0,0,0,0,0,0,0,0,0,0,0,0,0,0,0,0,0,0,0,0,0,0,0,0,0,0,0,0,0,0,0,0,0,0,0,0,0,0,0,0,0,0,0,0,0,0,0,0,0,0,0,0,0,0,0,0,0,0,0,0,0,0,0,0,0,0,0,0,0,0,0,0,0,0,0,0,0,0,0,0,0,0,0,0,0,0,0,0,0,0,0,0,0,0,0,0,0,0,0,0,0,0,0,0,0,0,0,0,0,0,0,0,0,0,0,0,0,0,0,0,0,0,0,0,0],"sum_hessian":[1.1977E4,7.537E3,4.44E3,3.201E3,4.336E3,3.098E3,1.342E3,1.334E3,1.867E3,2.996E3,1.34E3,1.929E3,1.169E3,1.028E3,3.14E2,7.68E2,5.66E2,1.109E3,7.58E2,1.166E3,1.83E3,7.9E1,1.261E3,1.568E3,3.61E2,1.036E3,1.33E2,1.81E2,8.47E2,5.9E1,2.55E2,7.61E2,7E0,7E0,5.59E2,1.106E3,3E0,5.39E2,2.19E2,1.74E2,9.92E2,5.45E2,1.285E3,6.8E1,1.1E1,1.143E3,1.18E2,6.9E1,1.499E3,1.36E2,2.25E2,1.34E2,9.02E2,1.25E2,8E0,1.32E2,4.9E1,3.41E2,5.06E2,5.4E1,5E0,2.52E2,3E0,1.04E2,6.57E2,5E0,2E0,5E0,2E0,5.4E2,1.9E1,8.53E2,2.53E2,1.65E2,3.74E2,4.1E1,1.78E2,1.48E2,2.6E1,6.04E2,3.88E2,4.33E2,1.12E2,1.138E3,1.47E2,1.4E1,5.4E1,9E0,2E0,4.25E2,7.18E2,1.09E2,9E0,5.6E1,1.3E1,7.28E2,7.71E2,1.26E2,1E1,7.7E1,1.48E2,8E0,1.26E2,3.62E2,5.4E2,2.4E1,1.01E2,2E0,6E0,1.24E2,8E0,4.8E1,1E0,8E0,3.33E2,1.73E2,3.33E2,4.2E1,1.2E1,3E0,2E0,1E0,2.51E2,1E0,2E0],"tree_param":{"num_deleted":"0","num_feature":"32","num_nodes":"125","size_leaf_vector":"1"}},{"base_weights":[3.3141937E-2,-2.9158194E0,4.7616086E0,-4.73609E0,-1.501885E0,2.8526878E0,9.218766E0,-6.0658E0,-4.3167615E0,-2.3204253E0,-6.409477E-1,1.9015517E0,4.488836E0,7.66735E0,1.1253518E1,-6.351373E0,-4.4340644E0,-4.8804474E0,-3.8878849E0,-2.8277416E0,-1.6924957E0,-1.3746302E0,1.4050539E-1,1.4005316E0,4.2329717E0,3.658546E0,5.5698237E0,6.7465677E0,9.730182E0,9.804592E0,1.2567117E1,-7.9202595E0,-6.124776E0,7.9704806E-2,-4.5792246E0,-4.9723687E0,3.9822438E-1,-3.2990787E0,-4.3238935E0,2.61158E-1,-2.9256008E0,6.5820622E0,-1.743081E0,-1.5786467E0,7.5365573E-1,-1.3390017E0,6.188628E-1,3.3937461E0,1.2056333E0,3.0179884E0,6.3852444E0,4.099351E0,1.9387733E0,6.6489854E0,4.562494E0,3.7796571E0,7.323853E0,1.8915398E1,9.373049E0,1.2206265E1,8.590355E0,1.273839E1,1.8233099E0,-2.4590163E-1,-9.571584E-2,9.551373E-2,-1.8439619E-1,-1.4429031E-1,1.3420481E-2,-1.7533426E-1,-1.394174E-1,1.5537113E-1,-8.466509E-2,-1.4211234E-1,-8.7868154E-2,-1.4251016E-1,-1.0393321E-1,-6.971585E-2,1.0317167E-1,-4.4170506E-2,-9.4437376E-2,-2.7588852E-2,3.1688443E-1,-7.940631E-3,-6.0226154E-2,-3.9880324E-2,-9.317115E-2,-8.216127E-3,1.8139651E-1,-5.433664E-2,7.852175E-2,6.6838875E-2,4.2116526E-3,3.2932118E-1,8.483452E-2,3.9687455E-2,-4.0113226E-2,1.07513815E-1,-6.104955E-2,2.1152695E-1,1.2411968E-2,1.4146653E-1,7.045239E-2,2.6603428E-1,3.998688E-2,2.0612739E-1,-2.3534667E-2,-5.179009E-4,1.4736067E-1,1.518033E-1,1.1517144E-2,2.0791973E-1,3.2817543E-1,8.6477023E-1,3.242307E-1,3.1673458E-1,2.0789558E-1,4.166145E-1,2.3244628E-1,2.2021753E-1,3.6416548E-1,4.7185326E-1,3.6550158E-1,1.9918023E-1,-1.5617508E-1],"categories":[],"categories_nodes":[],"categories_segments":[],"categories_sizes":[],"default_left":[0,0,0,0,0,0,0,0,0,0,0,0,0,0,0,0,0,0,0,0,0,0,0,0,0,0,0,0,0,0,0,0,0,0,0,0,0,0,0,0,0,0,0,0,0,0,0,0,0,0,0,0,0,0,0,0,0,0,0,0,0,0,0,0,0,0,0,0,0,0,0,0,0,0,0,0,0,0,0,0,0,0,0,0,0,0,0,0,0,0,0,0,0,0,0,0,0,0,0,0,0,0,0,0,0,0,0,0,0,0,0,0,0,0,0,0,0,0,0,0,0,0,0,0,0],"id":8,"left_children":[1,3,5,7,9,11,13,15,17,19,21,23,25,27,29,31,33,35,37,39,41,43,45,47,49,51,53,55,57,59,61,63,65,-1,67,69,71,73,75,77,79,81,83,85,87,89,91,93,95,97,99,101,103,105,107,109,111,113,115,117,119,121,123,-1,-1,-1,-1,-1,-1,-1,-1,-1,-1,-1,-1,-1,-1,-1,-1,-1,-1,-1,-1,-1,-1,-1,-1,-1,-1,-1,-1,-1,-1,-1,-1,-1,-1,-1,-1,-1,-1,-1,-1,-1,-1,-1,-1,-1,-1,-1,-1,-1,-1,-1,-1,-1,-1,-1,-1,-1,-1,-1,-1,-1,-1],"loss_changes":[1.6688252E5,1.8963945E4,3.9086617E4,1.7703516E3,2.9230664E3,5.002426E3,4.263711E3,3.3064258E2,5.740469E2,6.7278906E2,1.1606302E3,2.3746357E3,1.0414062E3,1.4254023E3,1.00735156E3,1.8363477E2,1.3362549E2,5.14375E2,3.4463672E2,3.5593848E2,4.103711E2,4.5450012E2,6.9511487E2,6.481565E2,9.221201E2,5.0148535E2,5.2624414E2,9.0748047E2,6.099883E2,7.3209375E2,5.4353125E2,7.714746E1,1.360586E2,0E0,1.3652466E2,2.6715625E2,3.071421E2,3.049497E2,2.7675098E2,3.1194424E2,3.6334766E2,1.8888809E2,3.7011035E2,3.5867822E2,5.0200623E2,4.5312952E2,5.7096265E2,6.0843506E2,4.583401E2,6.705813E2,5.0985303E2,5.6507324E2,5.717224E2,4.0956543E2,4.290869E2,3.9373462E2,5.7240234E2,3.3125806E2,6.012832E2,5.9678613E2,7.712461E2,3.1119922E2,2.3767886E2,0E0,0E0,0E0,0E0,0E0,0E0,0E0,0E0,0E0,0E0,0E0,0E0,0E0,0E0,0E0,0E0,0E0,0E0,0E0,0E0,0E0,0E0,0E0,0E0,0E0,0E0,0E0,0E0,0E0,0E0,0E0,0E0,0E0,0E0,0E0,0E0,0E0,0E0,0E0,0E0,0E0,0E0,0E0,0E0,0E0,0E0,0E0,0E0,0E0,0E0,0E0,0E0,0E0,0E0,0E0,0E0,0E0,0E0,0E0,0E0,0E0,0E0],"parents":[2147483647,0,0,1,1,2,2,3,3,4,4,5,5,6,6,7,7,8,8,9,9,10,10,11,11,12,12,13,13,14,14,15,15,16,16,17,17,18,18,19,19,20,20,21,21,22,22,23,23,24,24,25,25,26,26,27,27,28,28,29,29,30,30,31,31,32,32,34,34,35,35,36,36,37,37,38,38,39,39,40,40,41,41,42,42,43,43,44,44,45,45,46,46,47,47,48,48,49,49,50,50,51,51,52,52,53,53,54,54,55,55,56,56,57,57,58,58,59,59,60,60,61,61,62,62],"right_children":[2,4,6,8,10,12,14,16,18,20,22,24,26,28,30,32,34,36,38,40,42,44,46,48,50,52,54,56,58,60,62,64,66,-1,68,70,72,74,76,78,80,82,84,86,88,90,92,94,96,98,100,102,104,106,108,110,112,114,116,118,120,122,124,-1,-1,-1,-1,-1,-1,-1,-1,-1,-1,-1,-1,-1,-1,-1,-1,-1,-1,-1,-1,-1,-1,-1,-1,-1,-1,-1,-1,-1,-1,-1,-1,-1,-1,-1,-1,-1,-1,-1,-1,-1,-1,-1,-1,-1,-1,-1,-1,-1,-1,-1,-1,-1,-1,-1,-1,-1,-1,-1,-1,-1,-1],"split_conditions":[1.04E1,6.2E0,2.12E1,3.4E0,1.04E1,1.34E1,2.58E1,4E-1,3E-1,8.8E0,2.4E0,4.4E0,3.8E0,1.8E1,5.6E0,1.4E0,9.672958E0,3.0333333E0,-4E-1,-1.5E0,-8.888889E-1,2.2E0,8E0,-2.3333333E0,5.0990195E0,2.1666667E0,1.3333334E-1,1.6E0,1.2E0,4.88E-1,2.8E0,3.6666667E-1,-1.3333334E0,7.9704806E-2,9.864077E0,-2.6666668E-1,1.334E-1,1E0,7.6E0,7.2E0,1.266E-1,-5.0333333E0,-2E-1,3.8E0,8E-1,6.333333E-1,-1.3E0,-2.1E0,6E0,1.973E-1,7.723334E-2,1E0,-2.0166667E-1,2.0833333E-1,-2.2E0,4.4E-1,8.2E0,2.3E-1,1.5833334E0,8.6666666E-2,8.6E0,-2.1E0,1.7666667E0,-2.4590163E-1,-9.571584E-2,9.551373E-2,-1.8439619E-1,-1.4429031E-1,1.3420481E-2,-1.7533426E-1,-1.394174E-1,1.5537113E-1,-8.466509E-2,-1.4211234E-1,-8.7868154E-2,-1.4251016E-1,-1.0393321E-1,-6.971585E-2,1.0317167E-1,-4.4170506E-2,-9.4437376E-2,-2.7588852E-2,3.1688443E-1,-7.940631E-3,-6.0226154E-2,-3.9880324E-2,-9.317115E-2,-8.216127E-3,1.8139651E-1,-5.433664E-2,7.852175E-2,6.6838875E-2,4.2116526E-3,3.2932118E-1,8.483452E-2,3.9687455E-2,-4.0113226E-2,1.07513815E-1,-6.104955E-2,2.1152695E-1,1.2411968E-2,1.4146653E-1,7.045239E-2,2.6603428E-1,3.998688E-2,2.0612739E-1,-2.3534667E-2,-5.179009E-4,1.4736067E-1,1.518033E-1,1.1517144E-2,2.0791973E-1,3.2817543E-1,8.6477023E-1,3.242307E-1,3.1673458E-1,2.0789558E-1,4.166145E-1,2.3244628E-1,2.2021753E-1,3.6416548E-1,4.7185326E-1,3.6550158E-1,1.9918023E-1,-1.5617508E-1],"split_indices":[4,4,0,4,0,4,0,14,14,0,12,12,12,4,18,4,31,5,5,13,23,24,4,5,26,5,13,24,24,6,20,5,21,0,26,21,14,12,0,4,10,3,15,18,22,21,5,13,28,15,7,22,11,15,3,10,18,10,5,15,12,5,3,0,0,0,0,0,0,0,0,0,0,0,0,0,0,0,0,0,0,0,0,0,0,0,0,0,0,0,0,0,0,0,0,0,0,0,0,0,0,0,0,0,0,0,0,0,0,0,0,0,0,0,0,0,0,0,0,0,0,0,0,0,0],"split_type":[0,0,0,0,0,0,0,0,0,0,0,0,0,0,0,0,0,0,0,0,0,0,0,0,0,0,0,0,0,0,0,0,0,0,0,0,0,0,0,0,0,0,0,0,0,0,0,0,0,0,0,0,0,0,0,0,0,0,0,0,0,0,0,0,0,0,0,0,0,0,0,0,0,0,0,0,0,0,0,0,0,0,0,0,0,0,0,0,0,0,0,0,0,0,0,0,0,0,0,0,0,0,0,0,0,0,0,0,0,0,0,0,0,0,0,0,0,0,0,0,0,0,0,0,0],"sum_hessian":[1.1966E4,7.37E3,4.596E3,3.221E3,4.149E3,3.219E3,1.377E3,7.69E2,2.452E3,2.126E3,2.023E3,2.037E3,1.182E3,7.84E2,5.93E2,6.52E2,1.17E2,1.055E3,1.397E3,1.174E3,9.52E2,1.043E3,9.8E2,1.678E3,3.59E2,6.71E2,5.11E2,5.45E2,2.39E2,2.86E2,3.07E2,7.8E1,5.74E2,2E0,1.15E2,1.037E3,1.8E1,5.98E2,7.99E2,3.6E1,1.138E3,5E0,9.47E2,9.52E2,9.1E1,2.39E2,7.41E2,1.48E2,1.53E3,2.31E2,1.28E2,5.33E2,1.38E2,2.44E2,2.67E2,9E1,4.55E2,7E0,2.32E2,9.3E1,1.93E2,3.02E2,5E0,7.3E1,5E0,1E0,5.73E2,1.1E2,5E0,2.77E2,7.6E2,7E0,1.1E1,1.2E2,4.78E2,5.31E2,2.68E2,2E1,1.6E1,1.52E2,9.86E2,2E0,3E0,1.44E2,8.03E2,8.2E2,1.32E2,7.7E1,1.4E1,2.14E2,2.5E1,1.69E2,5.72E2,9E0,1.39E2,1.463E3,6.7E1,2.08E2,2.3E1,1.15E2,1.3E1,3.93E2,1.4E2,1E1,1.28E2,2.37E2,7E0,1.9E1,2.48E2,6.5E1,2.5E1,4.13E2,4.2E1,2E0,5E0,1.54E2,7.8E1,6.6E1,2.7E1,1.45E2,4.8E1,4.3E1,2.59E2,3E0,2E0],"tree_param":{"num_deleted":"0","num_feature":"32","num_nodes":"125","size_leaf_vector":"1"}},{"base_weights":[-9.83078E-3,-2.481683E0,5.0547786E0,-4.375214E0,-8.639729E-1,3.0136518E0,8.850712E0,-5.1519995E0,-3.7709777E0,-1.9295533E0,2.3154329E-1,2.3301153E0,4.2616706E0,7.8593626E0,1.2011622E1,-5.903757E0,-4.7309184E0,5.69464E-1,-3.8434908E0,-1.018067E0,-2.168277E0,9.5029944E-1,-9.952942E-1,3.4022748E0,1.6843442E0,5.565673E0,2.9157634E0,9.229086E0,6.9561734E0,1.5383989E1,1.1264915E1,-3.1590652E0,-6.1034365E0,-4.771677E0,3.068073E0,3.6711261E0,-3.343205E0,-3.920388E0,-4.199261E-1,-1.9994893E0,4.569482E-1,-2.72894E0,-1.6366104E0,-1.3201362E0,1.2390208E0,-1.7750427E-1,-1.810558E0,3.9395633E0,1.5087918E0,2.534946E0,1.0757885E0,5.9230814E0,2.0034559E0,3.3107817E0,-1.9311765E-1,9.379078E0,-7.674548E-1,2.9206686E0,7.5273924E0,8.205726E0,1.7155203E1,1.2504554E1,9.044881E0,1.8282646E-1,-1.0628258E-1,-1.92283E-1,-1.4422294E-1,1.07288845E-1,-1.4398472E-1,2.0338678E-1,-8.7098E-2,2.5994459E-3,1.8160672E-1,8.902196E-2,-1.5083279E-1,-1.053996E-1,-1.2981594E-1,-9.358176E-2,6.553677E-2,-1.05304986E-1,-3.031655E-2,8.7585665E-2,-2.5806976E-2,-9.532167E-2,-5.205218E-2,-2.941165E-2,-6.871902E-2,5.1473785E-2,-7.041489E-2,4.2432018E-2,-6.2801465E-2,9.648756E-2,-1.3377704E-2,-7.0337065E-2,-1.4351566E-2,5.021258E-2,1.3045263E-1,8.802454E-2,-2.7148789E-2,5.378684E-2,1.327381E-1,1.6505625E-2,6.877126E-2,2.0271544E-1,1.2227869E-1,1.15422234E-1,-9.283776E-3,6.694023E-2,1.4116272E-1,4.139123E-2,-1.1159714E-1,2.6469585E-1,3.8057587E-1,-5.7800945E-2,9.282008E-2,1.6386065E-1,7.2829397E-3,2.3838434E-1,1.399531E-1,3.9068902E-1,1.2453489E-2,7.4480055E-3,5.386315E-1,3.8479167E-1,4.709978E-2,2.9238155E-1,1.0808211E-1],"categories":[],"categories_nodes":[],"categories_segments":[],"categories_sizes":[],"default_left":[0,0,0,0,0,0,0,0,0,0,0,0,0,0,0,0,0,0,0,0,0,0,0,0,0,0,0,0,0,0,0,0,0,0,0,0,0,0,0,0,0,0,0,0,0,0,0,0,0,0,0,0,0,0,0,0,0,0,0,0,0,0,0,0,0,0,0,0,0,0,0,0,0,0,0,0,0,0,0,0,0,0,0,0,0,0,0,0,0,0,0,0,0,0,0,0,0,0,0,0,0,0,0,0,0,0,0,0,0,0,0,0,0,0,0,0,0,0,0,0,0,0,0,0,0,0,0],"id":9,"left_children":[1,3,5,7,9,11,13,15,17,19,21,23,25,27,29,31,33,35,37,39,41,43,45,47,49,51,53,55,57,59,61,63,65,67,69,71,73,75,77,79,81,83,85,87,89,91,93,95,97,99,101,103,105,107,109,111,113,115,117,119,121,123,125,-1,-1,-1,-1,-1,-1,-1,-1,-1,-1,-1,-1,-1,-1,-1,-1,-1,-1,-1,-1,-1,-1,-1,-1,-1,-1,-1,-1,-1,-1,-1,-1,-1,-1,-1,-1,-1,-1,-1,-1,-1,-1,-1,-1,-1,-1,-1,-1,-1,-1,-1,-1,-1,-1,-1,-1,-1,-1,-1,-1,-1,-1,-1,-1],"loss_changes":[1.4905084E5,2.4504754E4,3.0229195E4,1.7106406E3,5.0387744E3,2.157713E3,4.1829062E3,4.8171484E2,6.559004E2,4.7388623E2,1.8782917E3,1.1325254E3,1.5598203E3,1.2248789E3,6.4258984E2,2.953047E2,3.442793E2,4.370255E2,5.361992E2,6.6102515E2,5.121172E2,8.8200366E2,5.243829E2,6.217588E2,5.294053E2,5.674238E2,5.4589966E2,6.234492E2,1.434875E3,5.712256E2,6.271953E2,1.6715536E2,1.8095703E2,2.5678125E2,1.5265817E2,1.702709E2,1.8500827E2,3.1566602E2,3.302275E2,4.0579932E2,5.9610046E2,3.6976562E2,3.805874E2,4.7796048E2,6.9960815E2,3.6034827E2,2.7916797E2,4.3739014E2,4.774393E2,5.922185E2,3.830418E2,6.087627E2,1.8458151E2,5.826416E2,2.8803043E2,6.3253906E2,3.729579E1,5.43114E2,6.2574805E2,4.8247424E2,5.900576E2,5.7811523E2,3.464746E2,0E0,0E0,0E0,0E0,0E0,0E0,0E0,0E0,0E0,0E0,0E0,0E0,0E0,0E0,0E0,0E0,0E0,0E0,0E0,0E0,0E0,0E0,0E0,0E0,0E0,0E0,0E0,0E0,0E0,0E0,0E0,0E0,0E0,0E0,0E0,0E0,0E0,0E0,0E0,0E0,0E0,0E0,0E0,0E0,0E0,0E0,0E0,0E0,0E0,0E0,0E0,0E0,0E0,0E0,0E0,0E0,0E0,0E0,0E0,0E0,0E0,0E0,0E0,0E0],"parents":[2147483647,0,0,1,1,2,2,3,3,4,4,5,5,6,6,7,7,8,8,9,9,10,10,11,11,12,12,13,13,14,14,15,15,16,16,17,17,18,18,19,19,20,20,21,21,22,22,23,23,24,24,25,25,26,26,27,27,28,28,29,29,30,30,31,31,32,32,33,33,34,34,35,35,36,36,37,37,38,38,39,39,40,40,41,41,42,42,43,43,44,44,45,45,46,46,47,47,48,48,49,49,50,50,51,51,52,52,53,53,54,54,55,55,56,56,57,57,58,58,59,59,60,60,61,61,62,62],"right_children":[2,4,6,8,10,12,14,16,18,20,22,24,26,28,30,32,34,36,38,40,42,44,46,48,50,52,54,56,58,60,62,64,66,68,70,72,74,76,78,80,82,84,86,88,90,92,94,96,98,100,102,104,106,108,110,112,114,116,118,120,122,124,126,-1,-1,-1,-1,-1,-1,-1,-1,-1,-1,-1,-1,-1,-1,-1,-1,-1,-1,-1,-1,-1,-1,-1,-1,-1,-1,-1,-1,-1,-1,-1,-1,-1,-1,-1,-1,-1,-1,-1,-1,-1,-1,-1,-1,-1,-1,-1,-1,-1,-1,-1,-1,-1,-1,-1,-1,-1,-1,-1,-1,-1,-1,-1,-1],"split_conditions":[1.46E1,8.2E0,2.12E1,5.4E0,1.12E1,1.82E1,2.84E1,3.4E0,2.416E-1,-7E-1,4.934E-1,4.528E-1,9.3333334E-1,4.734E-1,-4.6666667E-1,-3.4666667E0,1.3122499E1,-3.0666666E-2,4.183086E-1,4.6E0,4.084E-1,8E-1,1.1E0,2.1666667E0,-1.9966668E-2,2E-1,4E0,4.9333334E0,1.6E0,5E0,3.0633334E-2,-9.6666664E-1,2.5829574E-1,4E-1,2.8666666E0,6E-1,-2.1666667E0,-2E-1,3E0,1.8E0,4.424E-1,1.904762E-1,4.466667E-3,-9.6E-2,6E0,1.0837857E1,3E-1,-2.9666667E0,7.048E-1,6.524E-1,8.666667E-1,1.1111111E-1,-3.0633334E-2,2.2E0,1.3237576E1,2.62E1,4.5E0,2.3766667E-2,2.4333334E0,8E-1,1E0,1.22E1,3.7333333E0,1.8282646E-1,-1.0628258E-1,-1.92283E-1,-1.4422294E-1,1.07288845E-1,-1.4398472E-1,2.0338678E-1,-8.7098E-2,2.5994459E-3,1.8160672E-1,8.902196E-2,-1.5083279E-1,-1.053996E-1,-1.2981594E-1,-9.358176E-2,6.553677E-2,-1.05304986E-1,-3.031655E-2,8.7585665E-2,-2.5806976E-2,-9.532167E-2,-5.205218E-2,-2.941165E-2,-6.871902E-2,5.1473785E-2,-7.041489E-2,4.2432018E-2,-6.2801465E-2,9.648756E-2,-1.3377704E-2,-7.0337065E-2,-1.4351566E-2,5.021258E-2,1.3045263E-1,8.802454E-2,-2.7148789E-2,5.378684E-2,1.327381E-1,1.6505625E-2,6.877126E-2,2.0271544E-1,1.2227869E-1,1.15422234E-1,-9.283776E-3,6.694023E-2,1.4116272E-1,4.139123E-2,-1.1159714E-1,2.6469585E-1,3.8057587E-1,-5.7800945E-2,9.282008E-2,1.6386065E-1,7.2829397E-3,2.3838434E-1,1.399531E-1,3.9068902E-1,1.2453489E-2,7.4480055E-3,5.386315E-1,3.8479167E-1,4.709978E-2,2.9238155E-1,1.0808211E-1],"split_indices":[0,0,0,0,0,0,0,0,6,13,6,6,1,6,21,1,26,11,27,16,14,24,1,1,15,15,28,3,24,18,15,25,27,16,3,20,1,1,8,18,6,21,7,11,28,31,25,3,14,14,17,23,7,24,31,0,5,11,3,14,26,8,5,0,0,0,0,0,0,0,0,0,0,0,0,0,0,0,0,0,0,0,0,0,0,0,0,0,0,0,0,0,0,0,0,0,0,0,0,0,0,0,0,0,0,0,0,0,0,0,0,0,0,0,0,0,0,0,0,0,0,0,0,0,0,0,0],"split_type":[0,0,0,0,0,0,0,0,0,0,0,0,0,0,0,0,0,0,0,0,0,0,0,0,0,0,0,0,0,0,0,0,0,0,0,0,0,0,0,0,0,0,0,0,0,0,0,0,0,0,0,0,0,0,0,0,0,0,0,0,0,0,0,0,0,0,0,0,0,0,0,0,0,0,0,0,0,0,0,0,0,0,0,0,0,0,0,0,0,0,0,0,0,0,0,0,0,0,0,0,0,0,0,0,0,0,0,0,0,0,0,0,0,0,0,0,0,0,0,0,0,0,0,0,0,0,0],"sum_hessian":[1.1904E4,8E3,3.904E3,3.685E3,4.315E3,2.54E3,1.364E3,1.609E3,2.076E3,2.187E3,2.128E3,1.643E3,8.97E2,1.041E3,3.23E2,5.73E2,1.036E3,3.4E1,2.042E3,4.55E2,1.732E3,1.342E3,7.86E2,6.16E2,1.027E3,4.54E2,4.43E2,4.1E2,6.31E2,5.5E1,2.68E2,4E1,5.33E2,1.031E3,5E0,1.9E1,1.5E1,1.997E3,4.5E1,2.73E2,1.82E2,8.41E2,8.91E2,1.51E2,1.191E3,3.93E2,3.93E2,4.79E2,1.37E2,4.27E2,6E2,4.12E2,4.2E1,3.93E2,5E1,4.04E2,6E0,7.9E1,5.52E2,1.2E1,4.3E1,1.69E2,9.9E1,1E0,3.9E1,4.28E2,1.05E2,3E0,1.028E3,3E0,2E0,8E0,1.1E1,3E0,1.2E1,1.003E3,9.94E2,2.2E1,2.3E1,1.07E2,1.66E2,6.3E1,1.19E2,5.78E2,2.63E2,4.46E2,4.45E2,3.8E1,1.13E2,1.132E3,5.9E1,2.8E1,3.65E2,2.8E2,1.13E2,7.4E1,4.05E2,8.6E1,5.1E1,3.08E2,1.19E2,4.2E2,1.8E2,2.82E2,1.3E2,2.3E1,1.9E1,2.23E2,1.7E2,3.5E1,1.5E1,3.49E2,5.5E1,5E0,1E0,4E1,3.9E1,4.8E2,7.2E1,7E0,5E0,2E0,4.1E1,1.64E2,5E0,8.7E1,1.2E1],"tree_param":{"num_deleted":"0","num_feature":"32","num_nodes":"127","size_leaf_vector":"1"}},{"base_weights":[6.751558E-2,-2.3854742E0,5.044225E0,-4.2460504E0,-8.047927E-1,3.0692813E0,8.645893E0,-5.041211E0,-3.4734628E0,-1.5513362E0,3.3634278E-1,2.4212878E0,4.383322E0,7.651007E0,1.1873332E1,-5.4781623E0,-4.283782E0,-3.6844716E0,-2.1289375E0,-3.2456818E0,-1.3664281E0,9.6157515E-1,-7.692896E-1,7.329526E-1,2.9291673E0,5.4457583E0,3.355406E0,1.02685175E1,7.080524E0,5.7976384E0,1.2148615E1,-5.5310345E0,1.7571311E0,-4.6539545E0,-3.2819319E0,-1.7484643E0,-3.7944942E0,6.5005383E0,-2.2930112E0,-2.5295608E0,-5.4817133E0,-7.4156857E-1,-1.8013039E0,1.9909078E0,-3.966382E-2,2.5238006E0,-1.0089072E0,1.5446911E0,-5.153709E-1,3.8303087E0,2.1615393E0,7.7413177E0,4.564724E0,2.3552265E0,5.3046813E0,1.1029471E1,6.360116E0,8.572679E0,6.2357335E0,8.130275E0,-3.2328393E0,6.68845E0,1.2482136E1,-1.7837396E-1,-1.433641E-1,1.2378749E-1,-6.7074895E-2,-1.5032917E-1,-1.1046377E-1,-7.7982284E-2,-1.4682357E-1,1.6051061E-1,-6.4505935E-2,-1.1535437E-1,1.8949393E-2,6.53245E-2,2.597024E-1,-5.5968188E-2,-1.7261887E-1,-8.121763E-2,1.9896382E-1,-1.8581668E-1,2.6911726E-2,-2.792701E-2,4.2629413E-2,-1.5553321E-1,-5.128646E-2,-6.522886E-2,6.674298E-2,1.2750483E-1,-6.5196594E-3,2.878418E-1,1.7335664E-2,-2.2130525E-2,-1.15097106E-1,3.031327E-2,1.3587579E-1,-6.99194E-3,-1.9473495E-1,1.953666E-1,9.992416E-2,1.4979601E-2,8.380907E-2,2.523638E-1,-2.6112009E-2,1.4774224E-1,-1.2557755E-2,9.170925E-2,1.1832855E-2,-9.216309E-4,1.7638497E-1,3.3821103E-1,1.2660955E-1,2.8548375E-1,4.191714E-2,2.2503954E-1,3.227343E-1,1.4918526E-1,2.1516986E-1,1.7477283E-2,2.8348866E-1,-1.3063045E-1,1.9753075E-3,2.2082634E-1,-9.131537E-2,-3.8467385E-2,3.7745485E-1],"categories":[],"categories_nodes":[],"categories_segments":[],"categories_sizes":[],"default_left":[0,0,0,0,0,0,0,0,0,0,0,0,0,0,0,0,0,0,0,0,0,0,0,0,0,0,0,0,0,0,0,0,0,0,0,0,0,0,0,0,0,0,0,0,0,0,0,0,0,0,0,0,0,0,0,0,0,0,0,0,0,0,0,0,0,0,0,0,0,0,0,0,0,0,0,0,0,0,0,0,0,0,0,0,0,0,0,0,0,0,0,0,0,0,0,0,0,0,0,0,0,0,0,0,0,0,0,0,0,0,0,0,0,0,0,0,0,0,0,0,0,0,0,0,0,0,0],"id":10,"left_children":[1,3,5,7,9,11,13,15,17,19,21,23,25,27,29,31,33,35,37,39,41,43,45,47,49,51,53,55,57,59,61,63,65,67,69,71,73,75,77,79,81,83,85,87,89,91,93,95,97,99,101,103,105,107,109,111,113,115,117,119,121,123,125,-1,-1,-1,-1,-1,-1,-1,-1,-1,-1,-1,-1,-1,-1,-1,-1,-1,-1,-1,-1,-1,-1,-1,-1,-1,-1,-1,-1,-1,-1,-1,-1,-1,-1,-1,-1,-1,-1,-1,-1,-1,-1,-1,-1,-1,-1,-1,-1,-1,-1,-1,-1,-1,-1,-1,-1,-1,-1,-1,-1,-1,-1,-1,-1],"loss_changes":[1.4486998E5,2.3374414E4,2.7842547E4,2.225414E3,3.6628716E3,2.1453594E3,4.3627266E3,5.7126953E2,5.184297E2,8.0982715E2,1.176602E3,1.4538379E3,8.93626E2,1.5146094E3,4.7314062E2,4.4428906E2,2.302334E2,3.345996E2,3.74537E2,3.9445728E2,6.3588574E2,1.1203497E3,4.8783188E2,4.0004114E2,8.944424E2,7.9185254E2,8.199961E2,4.8898438E2,1.050793E3,3.6332098E2,4.8104688E2,3.2351953E2,9.436377E1,1.484375E2,1.875426E2,2.624657E2,3.4207812E2,2.7757126E1,3.5907227E2,3.354098E2,2.8266748E2,3.960221E2,4.201377E2,5.2693726E2,4.2161526E2,5.7236017E2,4.3738617E2,3.7650098E2,2.6165973E2,7.8074414E2,7.41438E2,6.543252E2,5.3669727E2,3.8957446E2,4.41812E2,2.1184961E2,5.0357886E2,6.5439453E2,6.3025977E2,1.2394934E2,1.5084713E1,1.5329083E2,4.154453E2,0E0,0E0,0E0,0E0,0E0,0E0,0E0,0E0,0E0,0E0,0E0,0E0,0E0,0E0,0E0,0E0,0E0,0E0,0E0,0E0,0E0,0E0,0E0,0E0,0E0,0E0,0E0,0E0,0E0,0E0,0E0,0E0,0E0,0E0,0E0,0E0,0E0,0E0,0E0,0E0,0E0,0E0,0E0,0E0,0E0,0E0,0E0,0E0,0E0,0E0,0E0,0E0,0E0,0E0,0E0,0E0,0E0,0E0,0E0,0E0,0E0,0E0,0E0,0E0],"parents":[2147483647,0,0,1,1,2,2,3,3,4,4,5,5,6,6,7,7,8,8,9,9,10,10,11,11,12,12,13,13,14,14,15,15,16,16,17,17,18,18,19,19,20,20,21,21,22,22,23,23,24,24,25,25,26,26,27,27,28,28,29,29,30,30,31,31,32,32,33,33,34,34,35,35,36,36,37,37,38,38,39,39,40,40,41,41,42,42,43,43,44,44,45,45,46,46,47,47,48,48,49,49,50,50,51,51,52,52,53,53,54,54,55,55,56,56,57,57,58,58,59,59,60,60,61,61,62,62],"right_children":[2,4,6,8,10,12,14,16,18,20,22,24,26,28,30,32,34,36,38,40,42,44,46,48,50,52,54,56,58,60,62,64,66,68,70,72,74,76,78,80,82,84,86,88,90,92,94,96,98,100,102,104,106,108,110,112,114,116,118,120,122,124,126,-1,-1,-1,-1,-1,-1,-1,-1,-1,-1,-1,-1,-1,-1,-1,-1,-1,-1,-1,-1,-1,-1,-1,-1,-1,-1,-1,-1,-1,-1,-1,-1,-1,-1,-1,-1,-1,-1,-1,-1,-1,-1,-1,-1,-1,-1,-1,-1,-1,-1,-1,-1,-1,-1,-1,-1,-1,-1,-1,-1,-1,-1,-1,-1],"split_conditions":[1.46E1,8.2E0,2.12E1,5.8E0,1.18E1,4.2E0,2.84E1,1.72E1,4.4E0,1.88E1,5E-1,3.6593705E-1,3.6666667E-1,-2.9333334E0,2.466E-1,2.6666667E0,3.5E-1,-7.3333335E-1,-1.5E0,1.4006667E-1,-2.4966666E-2,3.274E-1,1.0837857E1,1.8888888E0,3.3333335E-2,-5E-1,1.92E1,7.6666665E-3,4.734E-1,1.06E1,3E0,1.2E0,8E-1,2.2E1,3E-1,-1.4333333E0,3.6E0,7.6E0,4E0,2.328E-1,2.6E0,3.1E1,1.03561325E1,2.2E0,-1.7E0,1.24E1,1.587E-1,8.4E0,4.5E0,-1.3E0,2.4E0,4.5E-1,5.934E-1,4.3633334E-2,-2.1E0,1.3726667E-1,-2.1333334E0,3.56E1,5.6E0,1.1130555E1,3.04E1,1.14E1,3.6E0,-1.7837396E-1,-1.433641E-1,1.2378749E-1,-6.7074895E-2,-1.5032917E-1,-1.1046377E-1,-7.7982284E-2,-1.4682357E-1,1.6051061E-1,-6.4505935E-2,-1.1535437E-1,1.8949393E-2,6.53245E-2,2.597024E-1,-5.5968188E-2,-1.7261887E-1,-8.121763E-2,1.9896382E-1,-1.8581668E-1,2.6911726E-2,-2.792701E-2,4.2629413E-2,-1.5553321E-1,-5.128646E-2,-6.522886E-2,6.674298E-2,1.2750483E-1,-6.5196594E-3,2.878418E-1,1.7335664E-2,-2.2130525E-2,-1.15097106E-1,3.031327E-2,1.3587579E-1,-6.99194E-3,-1.9473495E-1,1.953666E-1,9.992416E-2,1.4979601E-2,8.380907E-2,2.523638E-1,-2.6112009E-2,1.4774224E-1,-1.2557755E-2,9.170925E-2,1.1832855E-2,-9.216309E-4,1.7638497E-1,3.3821103E-1,1.2660955E-1,2.8548375E-1,4.191714E-2,2.2503954E-1,3.227343E-1,1.4918526E-1,2.1516986E-1,1.7477283E-2,2.8348866E-1,-1.3063045E-1,1.9753075E-3,2.2082634E-1,-9.131537E-2,-3.8467385E-2,3.7745485E-1],"split_indices":[0,0,0,0,0,12,0,2,8,2,6,27,13,1,10,5,14,25,13,11,11,10,31,1,9,25,0,7,6,16,18,18,12,2,9,13,5,0,28,7,12,2,31,16,13,0,7,16,5,13,18,10,6,7,3,11,3,2,16,31,0,8,12,0,0,0,0,0,0,0,0,0,0,0,0,0,0,0,0,0,0,0,0,0,0,0,0,0,0,0,0,0,0,0,0,0,0,0,0,0,0,0,0,0,0,0,0,0,0,0,0,0,0,0,0,0,0,0,0,0,0,0,0,0,0,0,0],"split_type":[0,0,0,0,0,0,0,0,0,0,0,0,0,0,0,0,0,0,0,0,0,0,0,0,0,0,0,0,0,0,0,0,0,0,0,0,0,0,0,0,0,0,0,0,0,0,0,0,0,0,0,0,0,0,0,0,0,0,0,0,0,0,0,0,0,0,0,0,0,0,0,0,0,0,0,0,0,0,0,0,0,0,0,0,0,0,0,0,0,0,0,0,0,0,0,0,0,0,0,0,0,0,0,0,0,0,0,0,0,0,0,0,0,0,0,0,0,0,0,0,0,0,0,0,0,0,0],"sum_hessian":[1.1865E4,7.948E3,3.917E3,3.65E3,4.298E3,2.531E3,1.386E3,1.796E3,1.854E3,2.598E3,1.7E3,1.697E3,8.34E2,1.062E3,3.24E2,1.135E3,6.61E2,1.601E3,2.53E2,2.54E2,2.344E3,1.086E3,6.14E2,3.93E2,1.304E3,4.08E2,4.26E2,1.87E2,8.75E2,1.5E1,3.09E2,1.127E3,8E0,4.8E2,1.81E2,8.7E1,1.514E3,4E0,2.49E2,1.94E2,6E1,9.63E2,1.381E3,5.35E2,5.51E2,4.1E1,5.73E2,2.38E2,1.55E2,5.98E2,7.06E2,1.11E2,2.97E2,2.83E2,1.43E2,1.55E2,3.2E1,3.13E2,5.62E2,1.2E1,3E0,1.9E1,2.9E2,7.22E2,4.05E2,5E0,3E0,3.48E2,1.32E2,1.29E2,5.2E1,4E0,8.3E1,1.497E3,1.7E1,2E0,2E0,2.23E2,2.6E1,1.91E2,3E0,5.4E1,6E0,8.86E2,7.7E1,3.5E1,1.346E3,2.8E1,5.07E2,2.1E1,5.3E2,8E0,3.3E1,5.24E2,4.9E1,2.03E2,3.5E1,1.49E2,6E0,9.2E1,5.06E2,1.95E2,5.11E2,1.03E2,8E0,2.77E2,2E1,2.08E2,7.5E1,1.4E1,1.29E2,1.49E2,6E0,1.9E1,1.3E1,2.13E2,1E2,2.42E2,3.2E2,2E0,1E1,2E0,1E0,1.8E1,1E0,2E0,2.88E2],"tree_param":{"num_deleted":"0","num_feature":"32","num_nodes":"127","size_leaf_vector":"1"}},{"base_weights":[1.3128985E-2,-2.3267717E0,4.914236E0,-3.9135404E0,-6.2489444E-1,2.9338582E0,8.459499E0,-5.243446E0,-3.2741532E0,-1.2279667E0,8.1136113E-1,1.7169849E0,3.7200992E0,7.385953E0,1.1693109E1,-5.6344E0,-4.732486E0,-3.8088734E0,-2.6771605E0,-2.3762474E0,-9.9271107E-1,5.9253085E-1,3.5761569E0,1.1680486E0,3.2332284E0,3.106854E0,5.116322E0,8.020464E0,5.463775E0,8.729744E0,1.2359372E1,-3.9287176E0,-5.893229E0,-2.6309785E-1,-4.808959E0,-3.8362784E0,5.048357E0,6.0879354E0,-2.7347198E0,-2.501885E0,5.0978293E0,-1.1284977E0,6.494573E-1,-3.0892693E-2,1.557569E0,-1.3567643E0,5.138894E0,7.6412697E0,1.0369155E0,7.1954646E0,2.6377304E0,2.852464E0,5.7340236E0,6.037076E0,3.5224001E0,7.5414495E0,1.0576227E1,2.7078104E0,6.7408223E0,9.442108E0,3.242286E-2,1.25521345E1,1.593063E0,-8.702137E-2,-1.835687E-1,-1.7866866E-1,2.2536945E-2,-1.0068445E-1,8.621407E-2,-1.3636726E-1,-1.7379923E-1,-1.4655921E-1,-1.0904592E-1,1.4065174E-2,1.822808E-1,2.620239E-1,-6.3474916E-2,-4.378432E-2,-8.921416E-2,-1.2743805E-1,-6.2570706E-2,3.5760287E-2,1.8603303E-1,-4.1415546E-2,-1.7109698E-2,-1.7534245E-3,1.2148045E-1,2.7146527E-1,-3.4671004E-3,6.52303E-2,-4.1613262E-2,-9.680406E-2,4.485459E-2,-3.9715808E-2,1.8257354E-1,3.927739E-1,9.4743304E-2,7.491353E-2,1.625101E-2,3.4581703E-1,1.0190813E-1,9.6051596E-2,-1.2364537E-2,1.2571478E-1,7.261255E-2,-9.927228E-2,1.923387E-1,2.0743811E-1,1.1820877E-1,7.755246E-2,1.9741528E-1,2.0066617E-1,2.7348906E-1,3.0386603E-1,9.571791E-1,5.9355773E-2,2.816609E-1,2.4149221E-1,1.0830978E-1,3.7835348E-1,2.410455E-1,9.154294E-2,-6.719817E-2,2.9853767E-1,4.0329447E-1,-4.766773E-2,2.62545E-1],"categories":[],"categories_nodes":[],"categories_segments":[],"categories_sizes":[],"default_left":[0,0,0,0,0,0,0,0,0,0,0,0,0,0,0,0,0,0,0,0,0,0,0,0,0,0,0,0,0,0,0,0,0,0,0,0,0,0,0,0,0,0,0,0,0,0,0,0,0,0,0,0,0,0,0,0,0,0,0,0,0,0,0,0,0,0,0,0,0,0,0,0,0,0,0,0,0,0,0,0,0,0,0,0,0,0,0,0,0,0,0,0,0,0,0,0,0,0,0,0,0,0,0,0,0,0,0,0,0,0,0,0,0,0,0,0,0,0,0,0,0,0,0,0,0,0,0],"id":11,"left_children":[1,3,5,7,9,11,13,15,17,19,21,23,25,27,29,31,33,35,37,39,41,43,45,47,49,51,53,55,57,59,61,63,65,67,69,71,73,75,77,79,81,83,85,87,89,91,93,95,97,99,101,103,105,107,109,111,113,115,117,119,121,123,125,-1,-1,-1,-1,-1,-1,-1,-1,-1,-1,-1,-1,-1,-1,-1,-1,-1,-1,-1,-1,-1,-1,-1,-1,-1,-1,-1,-1,-1,-1,-1,-1,-1,-1,-1,-1,-1,-1,-1,-1,-1,-1,-1,-1,-1,-1,-1,-1,-1,-1,-1,-1,-1,-1,-1,-1,-1,-1,-1,-1,-1,-1,-1,-1],"loss_changes":[1.3620664E5,2.1706758E4,2.6921617E4,3.5201797E3,3.36172E3,2.3510586E3,4.6868516E3,2.428164E2,8.87459E2,7.359321E2,6.924449E2,8.0274243E2,1.2650215E3,1.2185078E3,5.653711E2,3.1193164E2,2.0073145E2,3.7885547E2,6.8866113E2,4.4846167E2,5.0690796E2,6.407814E2,6.545165E2,5.973089E2,5.874126E2,6.8003906E2,6.4649805E2,8.702539E2,8.968159E2,4.0860693E2,5.528008E2,2.1416321E2,2.768457E2,1.163734E2,1.242959E2,2.943164E2,2.0682487E1,2.1385886E2,3.993369E2,3.2324048E2,2.7081665E1,2.9420044E2,4.190197E2,4.9925906E2,7.621883E2,1.1682161E2,3.9970642E2,3.0079266E2,5.0482727E2,5.0383606E2,3.8834253E2,5.4019824E2,5.785532E2,5.0083008E2,4.6741382E2,8.2116406E2,8.21874E2,3.9069476E2,6.962075E2,1.7075977E2,4.7996708E1,4.942422E2,1.505738E2,0E0,0E0,0E0,0E0,0E0,0E0,0E0,0E0,0E0,0E0,0E0,0E0,0E0,0E0,0E0,0E0,0E0,0E0,0E0,0E0,0E0,0E0,0E0,0E0,0E0,0E0,0E0,0E0,0E0,0E0,0E0,0E0,0E0,0E0,0E0,0E0,0E0,0E0,0E0,0E0,0E0,0E0,0E0,0E0,0E0,0E0,0E0,0E0,0E0,0E0,0E0,0E0,0E0,0E0,0E0,0E0,0E0,0E0,0E0,0E0,0E0,0E0,0E0,0E0],"parents":[2147483647,0,0,1,1,2,2,3,3,4,4,5,5,6,6,7,7,8,8,9,9,10,10,11,11,12,12,13,13,14,14,15,15,16,16,17,17,18,18,19,19,20,20,21,21,22,22,23,23,24,24,25,25,26,26,27,27,28,28,29,29,30,30,31,31,32,32,33,33,34,34,35,35,36,36,37,37,38,38,39,39,40,40,41,41,42,42,43,43,44,44,45,45,46,46,47,47,48,48,49,49,50,50,51,51,52,52,53,53,54,54,55,55,56,56,57,57,58,58,59,59,60,60,61,61,62,62],"right_children":[2,4,6,8,10,12,14,16,18,20,22,24,26,28,30,32,34,36,38,40,42,44,46,48,50,52,54,56,58,60,62,64,66,68,70,72,74,76,78,80,82,84,86,88,90,92,94,96,98,100,102,104,106,108,110,112,114,116,118,120,122,124,126,-1,-1,-1,-1,-1,-1,-1,-1,-1,-1,-1,-1,-1,-1,-1,-1,-1,-1,-1,-1,-1,-1,-1,-1,-1,-1,-1,-1,-1,-1,-1,-1,-1,-1,-1,-1,-1,-1,-1,-1,-1,-1,-1,-1,-1,-1,-1,-1,-1,-1,-1,-1,-1,-1,-1,-1,-1,-1,-1,-1,-1,-1,-1,-1],"split_conditions":[1.46E1,8.8E0,2.12E1,4.2E0,1E1,3E0,2.84E1,4.2E0,6E0,2.08E1,1.3E1,4.6E0,1.44E1,4.523333E-2,4.2E0,2E0,-2.9836667E-1,4.8050988E-1,-1.3333334E0,1.1666666E0,1.36E1,6E-1,-1.5003334E-1,-1.2E0,9.82E1,6.8E0,1.1E0,1.8E0,4.8E0,1.174E2,1.6333333E0,2.416E-1,2.2E0,-1.0666667E0,1.12733334E-1,1.8E0,-5.266667E0,7.8E0,2E0,6.2E0,5.6666666E-1,2.6666668E-1,4.4E0,-7.5E-1,3.904E-1,6.4E0,3.6839104E-1,-1.6666667E-1,4.538E-1,2E0,4.111111E0,-7.777778E-1,2.6E0,4.528E-1,1.14E2,2.48E1,2.8666666E-1,3.64E1,1.1666666E0,-3.7866667E-2,4E-1,1.048E2,3.32E1,-8.702137E-2,-1.835687E-1,-1.7866866E-1,2.2536945E-2,-1.0068445E-1,8.621407E-2,-1.3636726E-1,-1.7379923E-1,-1.4655921E-1,-1.0904592E-1,1.4065174E-2,1.822808E-1,2.620239E-1,-6.3474916E-2,-4.378432E-2,-8.921416E-2,-1.2743805E-1,-6.2570706E-2,3.5760287E-2,1.8603303E-1,-4.1415546E-2,-1.7109698E-2,-1.7534245E-3,1.2148045E-1,2.7146527E-1,-3.4671004E-3,6.52303E-2,-4.1613262E-2,-9.680406E-2,4.485459E-2,-3.9715808E-2,1.8257354E-1,3.927739E-1,9.4743304E-2,7.491353E-2,1.625101E-2,3.4581703E-1,1.0190813E-1,9.6051596E-2,-1.2364537E-2,1.2571478E-1,7.261255E-2,-9.927228E-2,1.923387E-1,2.0743811E-1,1.1820877E-1,7.755246E-2,1.9741528E-1,2.0066617E-1,2.7348906E-1,3.0386603E-1,9.571791E-1,5.9355773E-2,2.816609E-1,2.4149221E-1,1.0830978E-1,3.7835348E-1,2.410455E-1,9.154294E-2,-6.719817E-2,2.9853767E-1,4.0329447E-1,-4.766773E-2,2.62545E-1],"split_indices":[0,0,0,4,4,12,0,0,4,2,4,18,4,7,18,28,11,27,25,25,0,22,15,25,30,12,1,20,12,30,25,10,12,9,11,16,1,4,28,4,9,25,12,23,10,8,27,15,6,12,1,9,16,6,30,0,15,2,13,15,9,30,0,0,0,0,0,0,0,0,0,0,0,0,0,0,0,0,0,0,0,0,0,0,0,0,0,0,0,0,0,0,0,0,0,0,0,0,0,0,0,0,0,0,0,0,0,0,0,0,0,0,0,0,0,0,0,0,0,0,0,0,0,0,0,0,0],"split_type":[0,0,0,0,0,0,0,0,0,0,0,0,0,0,0,0,0,0,0,0,0,0,0,0,0,0,0,0,0,0,0,0,0,0,0,0,0,0,0,0,0,0,0,0,0,0,0,0,0,0,0,0,0,0,0,0,0,0,0,0,0,0,0,0,0,0,0,0,0,0,0,0,0,0,0,0,0,0,0,0,0,0,0,0,0,0,0,0,0,0,0,0,0,0,0,0,0,0,0,0,0,0,0,0,0,0,0,0,0,0,0,0,0,0,0,0,0,0,0,0,0,0,0,0,0,0,0],"sum_hessian":[1.1875E4,8.038E3,3.837E3,4.159E3,3.879E3,2.463E3,1.374E3,1.348E3,2.811E3,2.732E3,1.147E3,9.68E2,1.495E3,1.034E3,3.4E2,7.58E2,5.9E2,1.48E3,1.331E3,4.63E2,2.269E3,1.064E3,8.3E1,7.12E2,2.56E2,1.041E3,4.54E2,7.75E2,2.59E2,6.5E1,2.75E2,1.02E2,6.56E2,1E1,5.8E2,1.476E3,4E0,8E0,1.323E3,4.56E2,7E0,2.096E3,1.73E2,6.47E2,4.17E2,2E1,6.3E1,1.3E1,6.99E2,3.2E1,2.24E2,9.51E2,9E1,2.86E2,1.68E2,6.56E2,1.19E2,8.3E1,1.76E2,6E1,5E0,2.7E2,5E0,7.1E1,3.1E1,6.5E2,6E0,5E0,5E0,4.62E2,1.18E2,2.34E2,1.242E3,1E0,3E0,6E0,2E0,2.1E2,1.113E3,8.6E1,3.7E2,2E0,5E0,1.443E3,6.53E2,1.44E2,2.9E1,5E0,6.42E2,3.45E2,7.2E1,1.2E1,8E0,8E0,5.5E1,5E0,8E0,1.76E2,5.23E2,1.4E1,1.8E1,1.89E2,3.5E1,2.3E2,7.21E2,6E0,8.4E1,2E2,8.6E1,1.3E2,3.8E1,4.29E2,2.27E2,1.18E2,1E0,7.6E1,7E0,1.23E2,5.3E1,1.6E1,4.4E1,2E0,3E0,7.2E1,1.98E2,4E0,1E0],"tree_param":{"num_deleted":"0","num_feature":"32","num_nodes":"127","size_leaf_vector":"1"}},{"base_weights":[4.6189662E-2,-2.5692368E0,4.2570333E0,-4.1782413E0,-1.3291105E0,2.3974414E0,7.8206124E0,-4.6572146E0,-3.3197796E0,-1.8463289E0,-9.284951E-2,1.2789508E0,3.2719955E0,6.533874E0,9.7796135E0,-5.413802E0,-4.292424E0,1.9964937E0,-3.3822098E0,-2.2933366E0,-1.2885497E0,-8.347034E-1,4.3984008E-1,3.8243384E0,1.0809941E0,4.1352572E0,2.3509824E0,5.895855E0,8.258934E0,7.2897506E0,1.03873825E1,-7.0285625E0,-5.1966233E0,-4.3419156E0,5.4034746E-1,3.270788E-1,-3.9641404E-1,-2.604792E0,-3.732345E0,6.7787323E0,-2.3366947E0,-2.319435E0,-8.639205E-1,7.208944E0,-9.4389796E-1,-2.3532288E0,7.176156E-1,3.0918057E0,9.741685E0,8.5890436E-1,3.7822092E0,4.445606E0,6.8602735E-1,1.8295386E0,4.572976E0,6.5167856E0,4.0207334E0,9.058508E0,3.4756026E0,6.178737E0,1.1948214E1,9.065094E0,1.1652253E1,4.3151234E-3,-2.1378335E-1,1.02320924E-1,-1.5651082E-1,-9.866223E-2,-1.3670039E-1,-7.504014E-2,2.859095E-1,-1.8539587E-1,4.1347858E-2,-1.6693583E-1,-6.7043334E-2,2.018183E-1,-1.1303232E-1,-1.1270656E-2,2.7678463E-1,-1.6196238E-1,-6.713444E-2,-9.649453E-2,-2.4118504E-2,5.1241424E-2,-3.3758376E-2,-1.0689923E-1,2.879461E-1,-2.0802759E-2,-1.20708026E-1,1.9730142E-1,-8.223334E-2,1.6436046E-2,1.7376098E-1,1.4854836E-1,3.0766236E-2,3.304558E-1,-2.5798474E-2,2.9807102E-2,-6.257719E-2,1.4233232E-1,-7.5119495E-2,2.0327094E-1,1.2351927E-1,-2.3860646E-2,1.12309664E-1,-1.24560885E-1,5.9218876E-2,-5.8946274E-2,1.5258121E-1,2.9321685E-2,2.0241074E-1,1.5264936E-1,4.7386363E-2,2.6428357E-1,9.4282144E-1,-1.16267875E-1,1.3363312E-1,-5.2331075E-2,2.0323901E-1,1.4779481E-1,4.087499E-1,2.9560804E-1,1.4945456E-1,4.6835393E-1,3.2870144E-1],"categories":[],"categories_nodes":[],"categories_segments":[],"categories_sizes":[],"default_left":[0,0,0,0,0,0,0,0,0,0,0,0,0,0,0,0,0,0,0,0,0,0,0,0,0,0,0,0,0,0,0,0,0,0,0,0,0,0,0,0,0,0,0,0,0,0,0,0,0,0,0,0,0,0,0,0,0,0,0,0,0,0,0,0,0,0,0,0,0,0,0,0,0,0,0,0,0,0,0,0,0,0,0,0,0,0,0,0,0,0,0,0,0,0,0,0,0,0,0,0,0,0,0,0,0,0,0,0,0,0,0,0,0,0,0,0,0,0,0,0,0,0,0,0,0],"id":12,"left_children":[1,3,5,7,9,11,13,15,17,19,21,23,25,27,29,31,33,35,37,39,41,43,45,47,49,51,53,55,57,59,61,63,65,67,69,-1,71,73,75,77,79,81,83,85,87,89,91,93,95,97,99,101,103,105,107,109,111,113,115,117,119,121,123,-1,-1,-1,-1,-1,-1,-1,-1,-1,-1,-1,-1,-1,-1,-1,-1,-1,-1,-1,-1,-1,-1,-1,-1,-1,-1,-1,-1,-1,-1,-1,-1,-1,-1,-1,-1,-1,-1,-1,-1,-1,-1,-1,-1,-1,-1,-1,-1,-1,-1,-1,-1,-1,-1,-1,-1,-1,-1,-1,-1,-1,-1],"loss_changes":[1.3156305E5,1.469832E4,3.0312117E4,1.3031914E3,2.6617212E3,2.9391602E3,3.891125E3,5.4421094E2,3.8909668E2,7.28833E2,4.8604074E2,6.619905E2,1.3323652E3,9.9689453E2,8.624961E2,1.966875E2,3.3528516E2,3.0268372E2,3.0031445E2,6.56208E2,5.705652E2,4.5826224E2,5.571946E2,3.8167224E2,7.334437E2,9.282549E2,9.4056396E2,7.853262E2,9.399746E2,5.7312646E2,7.239453E2,5.4199707E1,1.2141113E2,2.966953E2,4.3400842E2,0E0,1.3168243E2,3.7853076E2,3.152588E2,1.4354526E2,4.787168E2,5.1537036E2,6.2572925E2,2.1436533E2,3.890716E2,2.4317249E2,5.584395E2,3.2540723E2,1.4448523E2,4.525705E2,5.743982E2,5.8254297E2,3.3363223E2,5.82677E2,5.299158E2,6.591582E2,4.5064697E2,9.320742E2,2.9069672E2,4.9811743E2,2.0367651E2,7.461758E2,5.174492E2,0E0,0E0,0E0,0E0,0E0,0E0,0E0,0E0,0E0,0E0,0E0,0E0,0E0,0E0,0E0,0E0,0E0,0E0,0E0,0E0,0E0,0E0,0E0,0E0,0E0,0E0,0E0,0E0,0E0,0E0,0E0,0E0,0E0,0E0,0E0,0E0,0E0,0E0,0E0,0E0,0E0,0E0,0E0,0E0,0E0,0E0,0E0,0E0,0E0,0E0,0E0,0E0,0E0,0E0,0E0,0E0,0E0,0E0,0E0,0E0,0E0,0E0],"parents":[2147483647,0,0,1,1,2,2,3,3,4,4,5,5,6,6,7,7,8,8,9,9,10,10,11,11,12,12,13,13,14,14,15,15,16,16,17,17,18,18,19,19,20,20,21,21,22,22,23,23,24,24,25,25,26,26,27,27,28,28,29,29,30,30,31,31,32,32,33,33,34,34,36,36,37,37,38,38,39,39,40,40,41,41,42,42,43,43,44,44,45,45,46,46,47,47,48,48,49,49,50,50,51,51,52,52,53,53,54,54,55,55,56,56,57,57,58,58,59,59,60,60,61,61,62,62],"right_children":[2,4,6,8,10,12,14,16,18,20,22,24,26,28,30,32,34,36,38,40,42,44,46,48,50,52,54,56,58,60,62,64,66,68,70,-1,72,74,76,78,80,82,84,86,88,90,92,94,96,98,100,102,104,106,108,110,112,114,116,118,120,122,124,-1,-1,-1,-1,-1,-1,-1,-1,-1,-1,-1,-1,-1,-1,-1,-1,-1,-1,-1,-1,-1,-1,-1,-1,-1,-1,-1,-1,-1,-1,-1,-1,-1,-1,-1,-1,-1,-1,-1,-1,-1,-1,-1,-1,-1,-1,-1,-1,-1,-1,-1,-1,-1,-1,-1,-1,-1,-1,-1,-1,-1,-1],"split_conditions":[1.04E1,6.2E0,1.54E1,5E0,1.18E1,1.56E1,2.54E1,3.2E0,-1.9E0,7.8E0,1.2303889E1,-2.6333334E0,2.6666668E-1,1.8E1,3.8E0,1.4E0,2.6E0,-5E-1,-6.666667E-1,-1.4444444E0,-3.3333334E-1,-2.1666667E0,3E-1,-3.3333335E-2,1.34E1,2.367E-1,2E1,2.6E0,1.6666666E0,1.8E0,2.88E1,-3.1333334E0,-1.3333334E0,2E0,3E0,3.270788E-1,3.668E-1,-6.25E-1,1.18E1,2E0,9.16E1,4.4E0,1.2E-1,-6.366667E0,5E0,4.252E-1,6.008E-1,4.234E-1,3.52E1,6E0,3.288E-1,-1.6E0,4.6666667E-1,2E-1,4.538E-1,3.548E-1,1.3E0,3.1103334E-1,-5.3333336E-1,2E-1,1.1598232E1,4.534E-1,-5.833333E-1,4.3151234E-3,-2.1378335E-1,1.02320924E-1,-1.5651082E-1,-9.866223E-2,-1.3670039E-1,-7.504014E-2,2.859095E-1,-1.8539587E-1,4.1347858E-2,-1.6693583E-1,-6.7043334E-2,2.018183E-1,-1.1303232E-1,-1.1270656E-2,2.7678463E-1,-1.6196238E-1,-6.713444E-2,-9.649453E-2,-2.4118504E-2,5.1241424E-2,-3.3758376E-2,-1.0689923E-1,2.879461E-1,-2.0802759E-2,-1.20708026E-1,1.9730142E-1,-8.223334E-2,1.6436046E-2,1.7376098E-1,1.4854836E-1,3.0766236E-2,3.304558E-1,-2.5798474E-2,2.9807102E-2,-6.257719E-2,1.4233232E-1,-7.5119495E-2,2.0327094E-1,1.2351927E-1,-2.3860646E-2,1.12309664E-1,-1.24560885E-1,5.9218876E-2,-5.8946274E-2,1.5258121E-1,2.9321685E-2,2.0241074E-1,1.5264936E-1,4.7386363E-2,2.6428357E-1,9.4282144E-1,-1.16267875E-1,1.3363312E-1,-5.2331075E-2,2.0323901E-1,1.4779481E-1,4.087499E-1,2.9560804E-1,1.4945456E-1,4.6835393E-1,3.2870144E-1],"split_indices":[4,4,4,4,0,0,0,4,13,4,31,5,5,4,18,4,17,21,5,25,25,9,14,9,4,15,0,1,9,20,0,5,21,28,8,0,14,21,2,28,30,16,10,1,28,6,10,6,2,28,10,9,17,20,6,6,9,15,17,22,31,10,21,0,0,0,0,0,0,0,0,0,0,0,0,0,0,0,0,0,0,0,0,0,0,0,0,0,0,0,0,0,0,0,0,0,0,0,0,0,0,0,0,0,0,0,0,0,0,0,0,0,0,0,0,0,0,0,0,0,0,0,0,0,0],"split_type":[0,0,0,0,0,0,0,0,0,0,0,0,0,0,0,0,0,0,0,0,0,0,0,0,0,0,0,0,0,0,0,0,0,0,0,0,0,0,0,0,0,0,0,0,0,0,0,0,0,0,0,0,0,0,0,0,0,0,0,0,0,0,0,0,0,0,0,0,0,0,0,0,0,0,0,0,0,0,0,0,0,0,0,0,0,0,0,0,0,0,0,0,0,0,0,0,0,0,0,0,0,0,0,0,0,0,0,0,0,0,0,0,0,0,0,0,0,0,0,0,0,0,0,0,0],"sum_hessian":[1.1944E4,7.368E3,4.576E3,3.206E3,4.162E3,3.008E3,1.568E3,2.055E3,1.151E3,2.934E3,1.228E3,1.321E3,1.687E3,9.49E2,6.19E2,6.64E2,1.391E3,1.3E1,1.138E3,1.627E3,1.307E3,5.13E2,7.15E2,9.4E1,1.227E3,8.69E2,8.18E2,6.96E2,2.53E2,1.24E2,4.95E2,7.5E1,5.89E2,1.377E3,1.4E1,2E0,1.1E1,3.56E2,7.82E2,7E0,1.62E3,3.8E2,9.27E2,6E0,5.07E2,6.4E1,6.51E2,8.5E1,9E0,1.135E3,9.2E1,7.97E2,7.2E1,6.64E2,1.54E2,5.21E2,1.75E2,2.16E2,3.7E1,1.02E2,2.2E1,2.46E2,2.49E2,1E0,7.4E1,1E0,5.88E2,2.36E2,1.141E3,1.1E1,3E0,2E0,9E0,3.8E1,3.18E2,2E0,7.8E2,2E0,5E0,4.9E1,1.571E3,2.38E2,1.42E2,8.5E1,8.42E2,1E0,5E0,4.7E2,3.7E1,2E0,6.2E1,6.31E2,2E1,4.4E1,4.1E1,8E0,1E0,1.086E3,4.9E1,8E1,1.2E1,9.6E1,7.01E2,4.9E1,2.3E1,1.5E1,6.49E2,1.1E1,1.43E2,2.1E1,5E2,1.21E2,5.4E1,2.15E2,1E0,4E0,3.3E1,7E0,9.5E1,5E0,1.7E1,2.05E2,4.1E1,3.4E1,2.15E2],"tree_param":{"num_deleted":"0","num_feature":"32","num_nodes":"125","size_leaf_vector":"1"}},{"base_weights":[-1.0982286E-2,-2.514263E0,4.003295E0,-4.075162E0,-1.3132569E0,2.3289814E0,7.9953127E0,-4.9958935E0,-3.5193129E0,-2.0020223E0,-4.0107134E-1,1.6987689E0,4.181565E0,6.591366E0,9.690351E0,-5.244141E0,-4.01579E0,-4.0879326E0,-3.113341E0,-3.0369406E0,-1.791201E0,-1.2247715E0,2.4780701E-1,1.0261546E0,3.149646E0,3.4333782E0,6.255149E0,7.234313E0,4.8445296E0,1.0285271E1,6.331941E0,2.285845E0,-5.278074E0,-4.3005E0,-7.33427E-1,-4.1640754E0,2.5873902E0,-3.1642237E0,3.125819E0,-3.1769123E0,1.7652185E0,-1.1733596E0,-2.2002032E0,-1.8585376E0,-4.744683E-1,5.9755236E-1,-1.767826E0,2.7374902E-1,1.5353507E0,3.3469405E0,4.286036E-1,3.0537162E0,7.1144514E0,7.1099825E0,2.7325068E0,7.4040375E0,2.8017193E-1,7.5998664E0,3.3164937E0,9.551329E0,1.257652E1,-2.3696373E0,6.8416915E0,-7.7796265E-2,1.24617316E-1,-1.5898782E-1,9.952237E-2,9.031751E-2,-1.3135563E-1,-1.2457413E-1,1.2860052E-1,-1.0362061E-1,-1.3847588E-1,1.7907298E-1,-1.9857978E-2,1.0852525E-2,-9.6783854E-2,1.6675343E-1,-1.2554986E-2,-6.2077846E-2,-1.1649741E-1,-5.874882E-2,2.910545E-1,-3.1328976E-2,-1.524251E-1,-7.917232E-2,-4.5978613E-2,-7.7596895E-2,-1.503207E-2,-1.5114625E-1,-9.939506E-3,-5.319476E-2,2.7592668E-2,1.241185E-1,-6.264176E-2,-5.5018496E-3,5.4590285E-2,2.7618294E-3,5.623226E-2,1.1282656E-1,4.8598386E-2,3.312025E-2,-1.5138204E-1,3.2794988E-1,8.79742E-2,5.8888886E-2,2.6853797E-1,2.3979954E-1,9.280527E-2,1.1847046E-1,-5.3955745E-2,5.29899E-2,2.2898144E-1,1.3295183E-1,-1.0162382E-1,1.01839006E-1,2.6816243E-1,8.2335524E-2,3.0232048E-1,2.80595E-2,2.9244798E-1,5.3308874E-1,3.2576615E-1,1.7353749E-2,-1.6531657E-1,2.3699531E-1,7.415285E-2],"categories":[],"categories_nodes":[],"categories_segments":[],"categories_sizes":[],"default_left":[0,0,0,0,0,0,0,0,0,0,0,0,0,0,0,0,0,0,0,0,0,0,0,0,0,0,0,0,0,0,0,0,0,0,0,0,0,0,0,0,0,0,0,0,0,0,0,0,0,0,0,0,0,0,0,0,0,0,0,0,0,0,0,0,0,0,0,0,0,0,0,0,0,0,0,0,0,0,0,0,0,0,0,0,0,0,0,0,0,0,0,0,0,0,0,0,0,0,0,0,0,0,0,0,0,0,0,0,0,0,0,0,0,0,0,0,0,0,0,0,0,0,0,0,0,0,0],"id":13,"left_children":[1,3,5,7,9,11,13,15,17,19,21,23,25,27,29,31,33,35,37,39,41,43,45,47,49,51,53,55,57,59,61,63,65,67,69,71,73,75,77,79,81,83,85,87,89,91,93,95,97,99,101,103,105,107,109,111,113,115,117,119,121,123,125,-1,-1,-1,-1,-1,-1,-1,-1,-1,-1,-1,-1,-1,-1,-1,-1,-1,-1,-1,-1,-1,-1,-1,-1,-1,-1,-1,-1,-1,-1,-1,-1,-1,-1,-1,-1,-1,-1,-1,-1,-1,-1,-1,-1,-1,-1,-1,-1,-1,-1,-1,-1,-1,-1,-1,-1,-1,-1,-1,-1,-1,-1,-1,-1],"loss_changes":[1.2045574E5,1.383518E4,3.0754008E4,1.6252539E3,2.621646E3,3.781504E3,3.1725703E3,2.7236914E2,4.5011523E2,5.1339844E2,9.6076624E2,2.3613271E3,1.2553486E3,8.039238E2,1.1616367E3,2.5710352E2,2.2860718E2,4.3366016E2,3.8259375E2,2.7514648E2,4.9725586E2,3.757273E2,7.102444E2,6.344127E2,4.1032666E2,8.265962E2,6.3401855E2,6.4000195E2,8.336865E2,7.5433203E2,4.3759717E2,5.6343925E1,1.9422852E2,1.432373E2,3.782439E2,2.4806934E2,1.138338E2,2.5545801E2,8.8546326E1,2.9708984E2,3.736233E2,3.9309167E2,3.4431396E2,4.2267285E2,2.3613414E2,6.57015E2,2.9039932E2,4.7383026E2,4.8331396E2,5.0504736E2,2.0154474E2,4.9518262E2,5.1231934E2,5.926074E2,2.4963217E2,6.710957E2,2.2818163E2,3.7503857E2,4.8666003E2,6.6621484E2,9.0419336E2,5.8745934E1,3.9663818E2,0E0,0E0,0E0,0E0,0E0,0E0,0E0,0E0,0E0,0E0,0E0,0E0,0E0,0E0,0E0,0E0,0E0,0E0,0E0,0E0,0E0,0E0,0E0,0E0,0E0,0E0,0E0,0E0,0E0,0E0,0E0,0E0,0E0,0E0,0E0,0E0,0E0,0E0,0E0,0E0,0E0,0E0,0E0,0E0,0E0,0E0,0E0,0E0,0E0,0E0,0E0,0E0,0E0,0E0,0E0,0E0,0E0,0E0,0E0,0E0,0E0,0E0,0E0,0E0],"parents":[2147483647,0,0,1,1,2,2,3,3,4,4,5,5,6,6,7,7,8,8,9,9,10,10,11,11,12,12,13,13,14,14,15,15,16,16,17,17,18,18,19,19,20,20,21,21,22,22,23,23,24,24,25,25,26,26,27,27,28,28,29,29,30,30,31,31,32,32,33,33,34,34,35,35,36,36,37,37,38,38,39,39,40,40,41,41,42,42,43,43,44,44,45,45,46,46,47,47,48,48,49,49,50,50,51,51,52,52,53,53,54,54,55,55,56,56,57,57,58,58,59,59,60,60,61,61,62,62],"right_children":[2,4,6,8,10,12,14,16,18,20,22,24,26,28,30,32,34,36,38,40,42,44,46,48,50,52,54,56,58,60,62,64,66,68,70,72,74,76,78,80,82,84,86,88,90,92,94,96,98,100,102,104,106,108,110,112,114,116,118,120,122,124,126,-1,-1,-1,-1,-1,-1,-1,-1,-1,-1,-1,-1,-1,-1,-1,-1,-1,-1,-1,-1,-1,-1,-1,-1,-1,-1,-1,-1,-1,-1,-1,-1,-1,-1,-1,-1,-1,-1,-1,-1,-1,-1,-1,-1,-1,-1,-1,-1,-1,-1,-1,-1,-1,-1,-1,-1,-1,-1,-1,-1,-1,-1,-1,-1],"split_conditions":[1.04E1,6.2E0,2.12E1,4E0,8.4E0,4.2E0,2.56E1,4E-1,2.834E-1,7.2E0,4.416E-1,1.34E1,1.48E1,4.44E-2,1.08333334E-1,-4.5E-1,6E0,3.6E0,4.3130583E-1,6.5333333E0,-4.4366665E-2,4.4E0,1.9333333E0,2.6E0,6.333333E-1,9.8E0,1.6E0,4.7E0,3.4E-1,1.8E0,1.6431676E0,-9.566667E0,1.3122499E1,9.672958E0,6.4187226E0,4.669047E0,1.4E0,-1.7666667E0,1.4E0,-8.5666664E-2,3.2105187E-1,1.0034939E1,4.4E0,1.14E1,-1.533E-1,9.86E1,4.534E-1,6.8E0,1.1E1,2.1333334E0,5.7183914E0,-5.1666665E0,1.058E2,8.2E0,2.8E0,3.9945158E-1,4.1666668E-2,6.8E-1,5.634E-1,-2.1E-1,-7.777778E-1,-1.6666667E-1,5.8933333E-2,-7.7796265E-2,1.24617316E-1,-1.5898782E-1,9.952237E-2,9.031751E-2,-1.3135563E-1,-1.2457413E-1,1.2860052E-1,-1.0362061E-1,-1.3847588E-1,1.7907298E-1,